{"learner":{"attributes":{},"feature_names":[],"feature_types":[],"gradient_booster":{"model":{"gbtree_model_param":{"num_parallel_tree":"1","num_trees":"1500"},"iteration_indptr":[0,2,4,6,8,10,12,14,16,18,20,22,24,26,28,30,32,34,36,38,40,42,44,46,48,50,52,54,56,58,60,62,64,66,68,70,72,74,76,78,80,82,84,86,88,90,92,94,96,98,100,102,104,106,108,110,112,114,116,118,120,122,124,126,128,130,132,134,136,138,140,142,144,146,148,150,152,154,156,158,160,162,164,166,168,170,172,174,176,178,180,182,184,186,188,190,192,194,196,198,200,202,204,206,208,210,212,214,216,218,220,222,224,226,228,230,232,234,236,238,240,242,244,246,248,250,252,254,256,258,260,262,264,266,268,270,272,274,276,278,280,282,284,286,288,290,292,294,296,298,300,302,304,306,308,310,312,314,316,318,320,322,324,326,328,330,332,334,336,338,340,342,344,346,348,350,352,354,356,358,360,362,364,366,368,370,372,374,376,378,380,382,384,386,388,390,392,394,396,398,400,402,404,406,408,410,412,414,416,418,420,422,424,426,428,430,432,434,436,438,440,442,444,446,448,450,452,454,456,458,460,462,464,466,468,470,472,474,476,478,480,482,484,486,488,490,492,494,496,498,500,502,504,506,508,510,512,514,516,518,520,522,524,526,528,530,532,534,536,538,540,542,544,546,548,550,552,554,556,558,560,562,564,566,568,570,572,574,576,578,580,582,584,586,588,590,592,594,596,598,600,602,604,606,608,610,612,614,616,618,620,622,624,626,628,630,632,634,636,638,640,642,644,646,648,650,652,654,656,658,660,662,664,666,668,670,672,674,676,678,680,682,684,686,688,690,692,694,696,698,700,702,704,706,708,710,712,714,716,718,720,722,724,726,728,730,732,734,736,738,740,742,744,746,748,750,752,754,756,758,760,762,764,766,768,770,772,774,776,778,780,782,784,786,788,790,792,794,796,798,800,802,804,806,808,810,812,814,816,818,820,822,824,826,828,830,832,834,836,838,840,842,844,846,848,850,852,854,856,858,860,862,864,866,868,870,872,874,876,878,880,882,884,886,888,890,892,894,896,898,900,902,904,906,908,910,912,914,916,918,920,922,924,926,928,930,932,934,936,938,940,942,944,946,948,950,952,954,956,958,960,962,964,966,968,970,972,974,976,978,980,982,984,986,988,990,992,994,996,998,1000,1002,1004,1006,1008,1010,1012,1014,1016,1018,1020,1022,1024,1026,1028,1030,1032,1034,1036,1038,1040,1042,1044,1046,1048,1050,1052,1054,1056,1058,1060,1062,1064,1066,1068,1070,1072,1074,1076,1078,1080,1082,1084,1086,1088,1090,1092,1094,1096,1098,1100,1102,1104,1106,1108,1110,1112,1114,1116,1118,1120,1122,1124,1126,1128,1130,1132,1134,1136,1138,1140,1142,1144,1146,1148,1150,1152,1154,1156,1158,1160,1162,1164,1166,1168,1170,1172,1174,1176,1178,1180,1182,1184,1186,1188,1190,1192,1194,1196,1198,1200,1202,1204,1206,1208,1210,1212,1214,1216,1218,1220,1222,1224,1226,1228,1230,1232,1234,1236,1238,1240,1242,1244,1246,1248,1250,1252,1254,1256,1258,1260,1262,1264,1266,1268,1270,1272,1274,1276,1278,1280,1282,1284,1286,1288,1290,1292,1294,1296,1298,1300,1302,1304,1306,1308,1310,1312,1314,1316,1318,1320,1322,1324,1326,1328,1330,1332,1334,1336,1338,1340,1342,1344,1346,1348,1350,1352,1354,1356,1358,1360,1362,1364,1366,1368,1370,1372,1374,1376,1378,1380,1382,1384,1386,1388,1390,1392,1394,1396,1398,1400,1402,1404,1406,1408,1410,1412,1414,1416,1418,1420,1422,1424,1426,1428,1430,1432,1434,1436,1438,1440,1442,1444,1446,1448,1450,1452,1454,1456,1458,1460,1462,1464,1466,1468,1470,1472,1474,1476,1478,1480,1482,1484,1486,1488,1490,1492,1494,1496,1498,1500],"tree_info":[0,1,0,1,0,1,0,1,0,1,0,1,0,1,0,1,0,1,0,1,0,1,0,1,0,1,0,1,0,1,0,1,0,1,0,1,0,1,0,1,0,1,0,1,0,1,0,1,0,1,0,1,0,1,0,1,0,1,0,1,0,1,0,1,0,1,0,1,0,1,0,1,0,1,0,1,0,1,0,1,0,1,0,1,0,1,0,1,0,1,0,1,0,1,0,1,0,1,0,1,0,1,0,1,0,1,0,1,0,1,0,1,0,1,0,1,0,1,0,1,0,1,0,1,0,1,0,1,0,1,0,1,0,1,0,1,0,1,0,1,0,1,0,1,0,1,0,1,0,1,0,1,0,1,0,1,0,1,0,1,0,1,0,1,0,1,0,1,0,1,0,1,0,1,0,1,0,1,0,1,0,1,0,1,0,1,0,1,0,1,0,1,0,1,0,1,0,1,0,1,0,1,0,1,0,1,0,1,0,1,0,1,0,1,0,1,0,1,0,1,0,1,0,1,0,1,0,1,0,1,0,1,0,1,0,1,0,1,0,1,0,1,0,1,0,1,0,1,0,1,0,1,0,1,0,1,0,1,0,1,0,1,0,1,0,1,0,1,0,1,0,1,0,1,0,1,0,1,0,1,0,1,0,1,0,1,0,1,0,1,0,1,0,1,0,1,0,1,0,1,0,1,0,1,0,1,0,1,0,1,0,1,0,1,0,1,0,1,0,1,0,1,0,1,0,1,0,1,0,1,0,1,0,1,0,1,0,1,0,1,0,1,0,1,0,1,0,1,0,1,0,1,0,1,0,1,0,1,0,1,0,1,0,1,0,1,0,1,0,1,0,1,0,1,0,1,0,1,0,1,0,1,0,1,0,1,0,1,0,1,0,1,0,1,0,1,0,1,0,1,0,1,0,1,0,1,0,1,0,1,0,1,0,1,0,1,0,1,0,1,0,1,0,1,0,1,0,1,0,1,0,1,0,1,0,1,0,1,0,1,0,1,0,1,0,1,0,1,0,1,0,1,0,1,0,1,0,1,0,1,0,1,0,1,0,1,0,1,0,1,0,1,0,1,0,1,0,1,0,1,0,1,0,1,0,1,0,1,0,1,0,1,0,1,0,1,0,1,0,1,0,1,0,1,0,1,0,1,0,1,0,1,0,1,0,1,0,1,0,1,0,1,0,1,0,1,0,1,0,1,0,1,0,1,0,1,0,1,0,1,0,1,0,1,0,1,0,1,0,1,0,1,0,1,0,1,0,1,0,1,0,1,0,1,0,1,0,1,0,1,0,1,0,1,0,1,0,1,0,1,0,1,0,1,0,1,0,1,0,1,0,1,0,1,0,1,0,1,0,1,0,1,0,1,0,1,0,1,0,1,0,1,0,1,0,1,0,1,0,1,0,1,0,1,0,1,0,1,0,1,0,1,0,1,0,1,0,1,0,1,0,1,0,1,0,1,0,1,0,1,0,1,0,1,0,1,0,1,0,1,0,1,0,1,0,1,0,1,0,1,0,1,0,1,0,1,0,1,0,1,0,1,0,1,0,1,0,1,0,1,0,1,0,1,0,1,0,1,0,1,0,1,0,1,0,1,0,1,0,1,0,1,0,1,0,1,0,1,0,1,0,1,0,1,0,1,0,1,0,1,0,1,0,1,0,1,0,1,0,1,0,1,0,1,0,1,0,1,0,1,0,1,0,1,0,1,0,1,0,1,0,1,0,1,0,1,0,1,0,1,0,1,0,1,0,1,0,1,0,1,0,1,0,1,0,1,0,1,0,1,0,1,0,1,0,1,0,1,0,1,0,1,0,1,0,1,0,1,0,1,0,1,0,1,0,1,0,1,0,1,0,1,0,1,0,1,0,1,0,1,0,1,0,1,0,1,0,1,0,1,0,1,0,1,0,1,0,1,0,1,0,1,0,1,0,1,0,1,0,1,0,1,0,1,0,1,0,1,0,1,0,1,0,1,0,1,0,1,0,1,0,1,0,1,0,1,0,1,0,1,0,1,0,1,0,1,0,1,0,1,0,1,0,1,0,1,0,1,0,1,0,1,0,1,0,1,0,1,0,1,0,1,0,1,0,1,0,1,0,1,0,1,0,1,0,1,0,1,0,1,0,1,0,1,0,1,0,1,0,1,0,1,0,1,0,1,0,1,0,1,0,1,0,1,0,1,0,1,0,1,0,1,0,1,0,1,0,1,0,1,0,1,0,1,0,1,0,1,0,1,0,1,0,1,0,1,0,1,0,1,0,1,0,1,0,1,0,1,0,1,0,1,0,1,0,1,0,1,0,1,0,1,0,1,0,1,0,1,0,1,0,1,0,1,0,1,0,1,0,1,0,1,0,1,0,1,0,1,0,1,0,1,0,1,0,1,0,1,0,1,0,1,0,1,0,1,0,1,0,1,0,1,0,1,0,1,0,1,0,1,0,1,0,1,0,1,0,1,0,1,0,1,0,1,0,1,0,1,0,1,0,1,0,1,0,1,0,1,0,1,0,1,0,1,0,1,0,1,0,1,0,1,0,1,0,1,0,1,0,1,0,1,0,1,0,1,0,1,0,1,0,1,0,1,0,1,0,1,0,1,0,1,0,1,0,1,0,1,0,1,0,1,0,1,0,1,0,1,0,1,0,1,0,1,0,1,0,1,0,1,0,1,0,1,0,1,0,1,0,1,0,1,0,1,0,1,0,1,0,1,0,1,0,1,0,1,0,1,0,1,0,1,0,1,0,1,0,1,0,1,0,1,0,1,0,1,0,1,0,1,0,1,0,1,0,1,0,1,0,1,0,1,0,1,0,1,0,1,0,1,0,1,0,1,0,1,0,1,0,1,0,1,0,1,0,1,0,1,0,1,0,1,0,1,0,1,0,1,0,1,0,1,0,1,0,1,0,1,0,1,0,1,0,1,0,1,0,1,0,1,0,1,0,1,0,1,0,1,0,1,0,1,0,1,0,1,0,1,0,1,0,1,0,1,0,1,0,1,0,1,0,1,0,1,0,1,0,1,0,1,0,1,0,1,0,1,0,1,0,1,0,1,0,1,0,1,0,1,0,1,0,1,0,1,0,1,0,1,0,1,0,1,0,1,0,1,0,1,0,1,0,1,0,1,0,1,0,1,0,1,0,1,0,1,0,1,0,1,0,1,0,1,0,1,0,1,0,1,0,1,0,1,0,1,0,1,0,1,0,1,0,1,0,1,0,1,0,1,0,1,0,1,0,1,0,1,0,1,0,1,0,1,0,1,0,1,0,1,0,1,0,1,0,1,0,1,0,1,0,1,0,1,0,1,0,1,0,1,0,1,0,1,0,1,0,1,0,1,0,1,0,1,0,1,0,1,0,1,0,1,0,1,0,1,0,1,0,1,0,1],"trees":[{"base_weights":[-1.493994E-1,1.2464242E-1,-3.084955E-1,-1.3015464E-1,2.4282296E-1,-5.58148E-1,-1.8797258E-1,6.4194005E-4,-2.8956623E-3,8.8552915E-4,3.5206948E-3,-4.30605E-3,-6.4589754E-3,-3.4616836E-3,-5E-4],"categories":[],"categories_nodes":[],"categories_segments":[],"categories_sizes":[],"default_left":[0,0,0,0,0,0,0,0,0,0,0,0,0,0,0],"id":0,"left_children":[1,3,5,7,9,11,13,-1,-1,-1,-1,-1,-1,-1,-1],"loss_changes":[2.9040765E2,7.37158E1,1.26689514E2,2.4060177E1,2.8147827E1,1.5071503E1,6.2046867E1,0E0,0E0,0E0,0E0,0E0,0E0,0E0,0E0],"parents":[2147483647,0,0,1,1,2,2,3,3,4,4,5,5,6,6],"right_children":[2,4,6,8,10,12,14,-1,-1,-1,-1,-1,-1,-1,-1],"split_conditions":[4.59E-1,-2E0,-1.4E0,-4.8E0,2.4E1,2.3E1,9E0,6.4194005E-4,-2.8956623E-3,8.8552915E-4,3.5206948E-3,-4.30605E-3,-6.4589754E-3,-3.4616836E-3,-5E-4],"split_indices":[3,77,77,25,51,80,51,0,0,0,0,0,0,0,0],"split_type":[0,0,0,0,0,0,0,0,0,0,0,0,0,0,0],"sum_hessian":[6.659E3,2.446E3,4.213E3,7.75E2,1.671E3,1.3705E3,2.8425E3,3.495E2,4.255E2,6.935E2,9.775E2,5.61E2,8.095E2,1.3235E3,1.519E3],"tree_param":{"num_deleted":"0","num_feature":"106","num_nodes":"15","size_leaf_vector":"1"}},{"base_weights":[1.493994E-1,-1.2464242E-1,3.084955E-1,1.3015464E-1,-2.4282296E-1,5.58148E-1,1.8797258E-1,-6.4194005E-4,2.8956623E-3,-8.8552915E-4,-3.5206948E-3,4.30605E-3,6.4589754E-3,3.4616836E-3,5E-4],"categories":[],"categories_nodes":[],"categories_segments":[],"categories_sizes":[],"default_left":[0,0,0,0,0,0,0,0,0,0,0,0,0,0,0],"id":1,"left_children":[1,3,5,7,9,11,13,-1,-1,-1,-1,-1,-1,-1,-1],"loss_changes":[2.9040765E2,7.37158E1,1.26689514E2,2.4060177E1,2.8147827E1,1.5071503E1,6.2046867E1,0E0,0E0,0E0,0E0,0E0,0E0,0E0,0E0],"parents":[2147483647,0,0,1,1,2,2,3,3,4,4,5,5,6,6],"right_children":[2,4,6,8,10,12,14,-1,-1,-1,-1,-1,-1,-1,-1],"split_conditions":[4.59E-1,-2E0,-1.4E0,-4.8E0,2.4E1,2.3E1,9E0,-6.4194005E-4,2.8956623E-3,-8.8552915E-4,-3.5206948E-3,4.30605E-3,6.4589754E-3,3.4616836E-3,5E-4],"split_indices":[3,77,77,25,51,80,51,0,0,0,0,0,0,0,0],"split_type":[0,0,0,0,0,0,0,0,0,0,0,0,0,0,0],"sum_hessian":[6.659E3,2.446E3,4.213E3,7.75E2,1.671E3,1.3705E3,2.8425E3,3.495E2,4.255E2,6.935E2,9.775E2,5.61E2,8.095E2,1.3235E3,1.519E3],"tree_param":{"num_deleted":"0","num_feature":"106","num_nodes":"15","size_leaf_vector":"1"}},{"base_weights":[-1.4790905E-1,1.2339766E-1,-3.0541846E-1,-1.2885664E-1,2.4039914E-1,-5.525922E-1,-1.8609533E-1,6.355392E-4,-2.866798E-3,8.766865E-4,3.4855667E-3,-4.2631445E-3,-6.394733E-3,-3.4271346E-3,-4.950035E-4],"categories":[],"categories_nodes":[],"categories_segments":[],"categories_sizes":[],"default_left":[0,0,0,0,0,0,0,0,0,0,0,0,0,0,0],"id":2,"left_children":[1,3,5,7,9,11,13,-1,-1,-1,-1,-1,-1,-1,-1],"loss_changes":[2.8463855E2,7.225156E1,1.2418118E2,2.3582779E1,2.7588928E1,1.4773804E1,6.08144E1,0E0,0E0,0E0,0E0,0E0,0E0,0E0,0E0],"parents":[2147483647,0,0,1,1,2,2,3,3,4,4,5,5,6,6],"right_children":[2,4,6,8,10,12,14,-1,-1,-1,-1,-1,-1,-1,-1],"split_conditions":[4.59E-1,-2E0,-1.4E0,-4.8E0,2.4E1,2.3E1,9E0,6.355392E-4,-2.866798E-3,8.766865E-4,3.4855667E-3,-4.2631445E-3,-6.394733E-3,-3.4271346E-3,-4.950035E-4],"split_indices":[3,77,77,25,51,80,51,0,0,0,0,0,0,0,0],"split_type":[0,0,0,0,0,0,0,0,0,0,0,0,0,0,0],"sum_hessian":[6.658923E3,2.4459836E3,4.2129395E3,7.749963E2,1.6709873E3,1.3704558E3,2.8424836E3,3.4949985E2,4.254964E2,6.9349945E2,9.7748785E2,5.609896E2,8.0946625E2,1.323484E3,1.5189995E3],"tree_param":{"num_deleted":"0","num_feature":"106","num_nodes":"15","size_leaf_vector":"1"}},{"base_weights":[1.4790903E-1,-1.233977E-1,3.0541846E-1,1.2885666E-1,-2.4039921E-1,5.525922E-1,1.8609536E-1,-6.355392E-4,2.8667983E-3,-8.766877E-4,-3.485567E-3,4.2631445E-3,6.394733E-3,3.4271346E-3,4.9500377E-4],"categories":[],"categories_nodes":[],"categories_segments":[],"categories_sizes":[],"default_left":[0,0,0,0,0,0,0,0,0,0,0,0,0,0,0],"id":3,"left_children":[1,3,5,7,9,11,13,-1,-1,-1,-1,-1,-1,-1,-1],"loss_changes":[2.8463867E2,7.225159E1,1.2418112E2,2.3582779E1,2.7588913E1,1.4773834E1,6.0814415E1,0E0,0E0,0E0,0E0,0E0,0E0,0E0,0E0],"parents":[2147483647,0,0,1,1,2,2,3,3,4,4,5,5,6,6],"right_children":[2,4,6,8,10,12,14,-1,-1,-1,-1,-1,-1,-1,-1],"split_conditions":[4.59E-1,-2E0,-1.4E0,-4.8E0,2.4E1,2.3E1,9E0,-6.355392E-4,2.8667983E-3,-8.766877E-4,-3.485567E-3,4.2631445E-3,6.394733E-3,3.4271346E-3,4.9500377E-4],"split_indices":[3,77,77,25,51,80,51,0,0,0,0,0,0,0,0],"split_type":[0,0,0,0,0,0,0,0,0,0,0,0,0,0,0],"sum_hessian":[6.6589233E3,2.4459836E3,4.2129395E3,7.749963E2,1.6709874E3,1.3704558E3,2.842484E3,3.4949985E2,4.2549643E2,6.9349945E2,9.774879E2,5.609896E2,8.0946625E2,1.3234841E3,1.5189996E3],"tree_param":{"num_deleted":"0","num_feature":"106","num_nodes":"15","size_leaf_vector":"1"}},{"base_weights":[-1.4643686E-1,1.22167E-1,-3.0238062E-1,-1.275728E-1,2.3800315E-1,-5.4712653E-1,-1.8423884E-1,6.292019E-4,-2.838268E-3,8.679345E-4,3.450874E-3,-4.2208214E-3,-6.33165E-3,-3.3930088E-3,-4.9005664E-4],"categories":[],"categories_nodes":[],"categories_segments":[],"categories_sizes":[],"default_left":[0,0,0,0,0,0,0,0,0,0,0,0,0,0,0],"id":4,"left_children":[1,3,5,7,9,11,13,-1,-1,-1,-1,-1,-1,-1,-1],"loss_changes":[2.7899225E2,7.08175E1,1.2173898E2,2.3115288E1,2.7042572E1,1.4486298E1,5.9608887E1,0E0,0E0,0E0,0E0,0E0,0E0,0E0,0E0],"parents":[2147483647,0,0,1,1,2,2,3,3,4,4,5,5,6,6],"right_children":[2,4,6,8,10,12,14,-1,-1,-1,-1,-1,-1,-1,-1],"split_conditions":[4.59E-1,-2E0,-1.4E0,-4.8E0,2.4E1,2.3E1,9E0,6.292019E-4,-2.838268E-3,8.679345E-4,3.450874E-3,-4.2208214E-3,-6.33165E-3,-3.3930088E-3,-4.9005664E-4],"split_indices":[3,77,77,25,51,80,51,0,0,0,0,0,0,0,0],"split_type":[0,0,0,0,0,0,0,0,0,0,0,0,0,0,0],"sum_hessian":[6.658696E3,2.445935E3,4.2127607E3,7.749853E2,1.6709498E3,1.370325E3,2.8424355E3,3.4949945E2,4.2548584E2,6.9349786E2,9.7745197E2,5.609588E2,8.093662E2,1.3234373E3,1.5189984E3],"tree_param":{"num_deleted":"0","num_feature":"106","num_nodes":"15","size_leaf_vector":"1"}},{"base_weights":[1.4643684E-1,-1.2216704E-1,3.0238065E-1,1.2757276E-1,-2.3800321E-1,5.471265E-1,1.842389E-1,-6.292031E-4,2.838268E-3,-8.679354E-4,-3.4508742E-3,4.2208214E-3,6.3316487E-3,3.3930102E-3,4.9005664E-4],"categories":[],"categories_nodes":[],"categories_segments":[],"categories_sizes":[],"default_left":[0,0,0,0,0,0,0,0,0,0,0,0,0,0,0],"id":5,"left_children":[1,3,5,7,9,11,13,-1,-1,-1,-1,-1,-1,-1,-1],"loss_changes":[2.7899237E2,7.0817505E1,1.2173883E2,2.3115305E1,2.704255E1,1.4486298E1,5.960894E1,0E0,0E0,0E0,0E0,0E0,0E0,0E0,0E0],"parents":[2147483647,0,0,1,1,2,2,3,3,4,4,5,5,6,6],"right_children":[2,4,6,8,10,12,14,-1,-1,-1,-1,-1,-1,-1,-1],"split_conditions":[4.59E-1,-2E0,-1.4E0,-4.8E0,2.4E1,2.3E1,9E0,-6.292031E-4,2.838268E-3,-8.679354E-4,-3.4508742E-3,4.2208214E-3,6.3316487E-3,3.3930102E-3,4.9005664E-4],"split_indices":[3,77,77,25,51,80,51,0,0,0,0,0,0,0,0],"split_type":[0,0,0,0,0,0,0,0,0,0,0,0,0,0,0],"sum_hessian":[6.658696E3,2.445935E3,4.2127607E3,7.749853E2,1.6709498E3,1.3703251E3,2.8424355E3,3.4949945E2,4.2548587E2,6.934978E2,9.77452E2,5.609588E2,8.093663E2,1.3234373E3,1.5189984E3],"tree_param":{"num_deleted":"0","num_feature":"106","num_nodes":"15","size_leaf_vector":"1"}},{"base_weights":[-1.4498253E-1,1.2095018E-1,-2.9938126E-1,-1.2630284E-1,2.3563445E-1,-1.398952E-1,-4.7783253E-1,6.229304E-4,-2.8100666E-3,8.592718E-4,3.4166067E-3,-2.7570715E-3,1.034833E-4,-3.7835222E-3,-6.1039315E-3],"categories":[],"categories_nodes":[],"categories_segments":[],"categories_sizes":[],"default_left":[0,0,0,0,0,0,0,0,0,0,0,0,0,0,0],"id":6,"left_children":[1,3,5,7,9,11,13,-1,-1,-1,-1,-1,-1,-1,-1],"loss_changes":[2.7346582E2,6.941289E1,1.19850555E2,2.265752E1,2.6508354E1,4.54318E1,2.5986298E1,0E0,0E0,0E0,0E0,0E0,0E0,0E0,0E0],"parents":[2147483647,0,0,1,1,2,2,3,3,4,4,5,5,6,6],"right_children":[2,4,6,8,10,12,14,-1,-1,-1,-1,-1,-1,-1,-1],"split_conditions":[4.59E-1,-2E0,1.4E1,-4.8E0,2.4E1,1E1,2.3E1,6.229304E-4,-2.8100666E-3,8.592718E-4,3.4166067E-3,-2.7570715E-3,1.034833E-4,-3.7835222E-3,-6.1039315E-3],"split_indices":[3,77,80,25,51,51,80,0,0,0,0,0,0,0,0],"split_type":[0,0,0,0,0,0,0,0,0,0,0,0,0,0,0],"sum_hessian":[6.6583228E3,2.4458557E3,4.2124673E3,7.749673E2,1.6708883E3,2.2253784E3,1.9870887E3,3.4949872E2,4.2546854E2,6.934952E2,9.773931E2,1.1683861E3,1.0569923E3,1.1373885E3,8.4970026E2],"tree_param":{"num_deleted":"0","num_feature":"106","num_nodes":"15","size_leaf_vector":"1"}},{"base_weights":[1.4498253E-1,-1.209502E-1,2.9938126E-1,1.2630285E-1,-2.3563448E-1,1.398952E-1,4.7783253E-1,-6.229301E-4,2.8100666E-3,-8.592709E-4,-3.4166079E-3,2.7570715E-3,-1.034833E-4,3.7835222E-3,6.1039315E-3],"categories":[],"categories_nodes":[],"categories_segments":[],"categories_sizes":[],"default_left":[0,0,0,0,0,0,0,0,0,0,0,0,0,0,0],"id":7,"left_children":[1,3,5,7,9,11,13,-1,-1,-1,-1,-1,-1,-1,-1],"loss_changes":[2.7346582E2,6.941289E1,1.19850555E2,2.2657513E1,2.6508415E1,4.54318E1,2.5986298E1,0E0,0E0,0E0,0E0,0E0,0E0,0E0,0E0],"parents":[2147483647,0,0,1,1,2,2,3,3,4,4,5,5,6,6],"right_children":[2,4,6,8,10,12,14,-1,-1,-1,-1,-1,-1,-1,-1],"split_conditions":[4.59E-1,-2E0,1.4E1,-4.8E0,2.4E1,1E1,2.3E1,-6.229301E-4,2.8100666E-3,-8.592709E-4,-3.4166079E-3,2.7570715E-3,-1.034833E-4,3.7835222E-3,6.1039315E-3],"split_indices":[3,77,80,25,51,51,80,0,0,0,0,0,0,0,0],"split_type":[0,0,0,0,0,0,0,0,0,0,0,0,0,0,0],"sum_hessian":[6.6583228E3,2.4458557E3,4.2124673E3,7.749672E2,1.6708884E3,2.2253784E3,1.9870887E3,3.4949872E2,4.2546854E2,6.9349524E2,9.773931E2,1.1683861E3,1.0569923E3,1.1373885E3,8.4970026E2],"tree_param":{"num_deleted":"0","num_feature":"106","num_nodes":"15","size_leaf_vector":"1"}},{"base_weights":[-1.4354502E-1,1.0948343E-1,-3.026336E-1,-1.3439447E-1,2.2140265E-1,-1.434501E-1,-4.8080856E-1,4.8408663E-4,-2.9706936E-3,7.226575E-4,3.3928128E-3,-2.7290906E-3,8.792165E-5,-3.8007407E-3,-6.1498377E-3],"categories":[],"categories_nodes":[],"categories_segments":[],"categories_sizes":[],"default_left":[0,0,0,0,0,0,0,0,0,0,0,0,0,0,0],"id":8,"left_children":[1,3,5,7,9,11,13,-1,-1,-1,-1,-1,-1,-1,-1],"loss_changes":[2.680772E2,7.021043E1,1.15894104E2,2.4084644E1,3.0965637E1,4.259006E1,2.5835938E1,0E0,0E0,0E0,0E0,0E0,0E0,0E0,0E0],"parents":[2147483647,0,0,1,1,2,2,3,3,4,4,5,5,6,6],"right_children":[2,4,6,8,10,12,14,-1,-1,-1,-1,-1,-1,-1,-1],"split_conditions":[4.69E-1,-2E0,1.4E1,-4.3E0,2.4E1,1E1,2.3E1,4.8408663E-4,-2.9706936E-3,7.226575E-4,3.3928128E-3,-2.7290906E-3,8.792165E-5,-3.8007407E-3,-6.1498377E-3],"split_indices":[3,77,80,25,51,51,80,0,0,0,0,0,0,0,0],"split_type":[0,0,0,0,0,0,0,0,0,0,0,0,0,0,0],"sum_hessian":[6.657829E3,2.570227E3,4.0876023E3,8.084251E2,1.7618019E3,2.1598093E3,1.927793E3,3.8099307E2,4.27432E2,7.784901E2,9.8331177E2,1.1668163E3,9.929929E2,1.1033019E3,8.2449115E2],"tree_param":{"num_deleted":"0","num_feature":"106","num_nodes":"15","size_leaf_vector":"1"}},{"base_weights":[1.4354505E-1,-1.09483354E-1,3.026336E-1,1.3439448E-1,-2.2140254E-1,1.4345011E-1,4.8080856E-1,-4.840866E-4,2.9706939E-3,-7.2265667E-4,-3.3928116E-3,2.7290906E-3,-8.7921675E-5,3.8007412E-3,6.1498373E-3],"categories":[],"categories_nodes":[],"categories_segments":[],"categories_sizes":[],"default_left":[0,0,0,0,0,0,0,0,0,0,0,0,0,0,0],"id":9,"left_children":[1,3,5,7,9,11,13,-1,-1,-1,-1,-1,-1,-1,-1],"loss_changes":[2.6807715E2,7.021039E1,1.1589407E2,2.4084648E1,3.096563E1,4.2590065E1,2.5835938E1,0E0,0E0,0E0,0E0,0E0,0E0,0E0,0E0],"parents":[2147483647,0,0,1,1,2,2,3,3,4,4,5,5,6,6],"right_children":[2,4,6,8,10,12,14,-1,-1,-1,-1,-1,-1,-1,-1],"split_conditions":[4.69E-1,-2E0,1.4E1,-4.3E0,2.4E1,1E1,2.3E1,-4.840866E-4,2.9706939E-3,-7.2265667E-4,-3.3928116E-3,2.7290906E-3,-8.7921675E-5,3.8007412E-3,6.1498373E-3],"split_indices":[3,77,80,25,51,51,80,0,0,0,0,0,0,0,0],"split_type":[0,0,0,0,0,0,0,0,0,0,0,0,0,0,0],"sum_hessian":[6.657829E3,2.570227E3,4.0876023E3,8.084251E2,1.7618019E3,2.1598093E3,1.927793E3,3.809931E2,4.27432E2,7.784901E2,9.8331177E2,1.1668163E3,9.929929E2,1.1033019E3,8.2449115E2],"tree_param":{"num_deleted":"0","num_feature":"106","num_nodes":"15","size_leaf_vector":"1"}},{"base_weights":[-1.4212485E-1,-2.7142E-1,1.6324908E-1,-1.6594477E-1,-5.383347E-1,3.2762972E-1,-4.8937825E-3,-3.1291444E-3,-3.489224E-4,-5.8222944E-3,-3.311994E-3,4.67492E-3,2.396128E-3,1.4841708E-3,-1.7311099E-3],"categories":[],"categories_nodes":[],"categories_segments":[],"categories_sizes":[],"default_left":[0,0,0,0,0,0,0,0,0,0,0,0,0,0,0],"id":10,"left_children":[1,3,5,7,9,11,13,-1,-1,-1,-1,-1,-1,-1,-1],"loss_changes":[2.629324E2,1.3161127E2,5.475943E1,6.459908E1,1.1850281E1,1.2220345E1,2.5308512E1,0E0,0E0,0E0,0E0,0E0,0E0,0E0,0E0],"parents":[2147483647,0,0,1,1,2,2,3,3,4,4,5,5,6,6],"right_children":[2,4,6,8,10,12,14,-1,-1,-1,-1,-1,-1,-1,-1],"split_conditions":[2E1,2E1,1.6E1,1E1,-2E0,-6.1E0,-4.8E0,-3.1291444E-3,-3.489224E-4,-5.8222944E-3,-3.311994E-3,4.67492E-3,2.396128E-3,1.4841708E-3,-1.7311099E-3],"split_indices":[28,80,103,51,77,25,25,0,0,0,0,0,0,0,0],"split_type":[0,0,0,0,0,0,0,0,0,0,0,0,0,0,0],"sum_hessian":[6.6571987E3,4.67705E3,1.980149E3,3.353491E3,1.3235588E3,1.00079675E3,9.7935223E2,1.5800955E3,1.7733955E3,1.0906292E3,2.3292961E2,3.8488623E2,6.159105E2,5.124396E2,4.669127E2],"tree_param":{"num_deleted":"0","num_feature":"106","num_nodes":"15","size_leaf_vector":"1"}},{"base_weights":[1.4212485E-1,2.7142E-1,-1.632491E-1,1.6594478E-1,5.3833467E-1,-3.2762972E-1,4.893745E-3,3.1291444E-3,3.4892256E-4,5.8222935E-3,3.3119943E-3,-4.67492E-3,-2.3961281E-3,-1.4841714E-3,1.7311099E-3],"categories":[],"categories_nodes":[],"categories_segments":[],"categories_sizes":[],"default_left":[0,0,0,0,0,0,0,0,0,0,0,0,0,0,0],"id":11,"left_children":[1,3,5,7,9,11,13,-1,-1,-1,-1,-1,-1,-1,-1],"loss_changes":[2.6293243E2,1.3161127E2,5.4759426E1,6.459909E1,1.185025E1,1.222036E1,2.5308523E1,0E0,0E0,0E0,0E0,0E0,0E0,0E0,0E0],"parents":[2147483647,0,0,1,1,2,2,3,3,4,4,5,5,6,6],"right_children":[2,4,6,8,10,12,14,-1,-1,-1,-1,-1,-1,-1,-1],"split_conditions":[2E1,2E1,1.6E1,1E1,-2E0,-6.1E0,-4.8E0,3.1291444E-3,3.4892256E-4,5.8222935E-3,3.3119943E-3,-4.67492E-3,-2.3961281E-3,-1.4841714E-3,1.7311099E-3],"split_indices":[28,80,103,51,77,25,25,0,0,0,0,0,0,0,0],"split_type":[0,0,0,0,0,0,0,0,0,0,0,0,0,0,0],"sum_hessian":[6.657199E3,4.67705E3,1.980149E3,3.3534912E3,1.3235588E3,1.0007968E3,9.7935223E2,1.5800956E3,1.7733956E3,1.0906292E3,2.3292961E2,3.8488623E2,6.159105E2,5.124396E2,4.669127E2],"tree_param":{"num_deleted":"0","num_feature":"106","num_nodes":"15","size_leaf_vector":"1"}},{"base_weights":[-1.4071973E-1,1.0754801E-1,-2.9683706E-1,-1.3203095E-1,2.1749657E-1,-1.4019136E-1,-4.7223127E-1,4.708259E-4,-2.9144757E-3,7.1008276E-4,3.3330417E-3,-2.6710376E-3,9.0293914E-5,-3.7360226E-3,-6.03666E-3],"categories":[],"categories_nodes":[],"categories_segments":[],"categories_sizes":[],"default_left":[0,0,0,0,0,0,0,0,0,0,0,0,0,0,0],"id":12,"left_children":[1,3,5,7,9,11,13,-1,-1,-1,-1,-1,-1,-1,-1],"loss_changes":[2.5806873E2,6.775053E1,1.1223834E2,2.3123436E1,2.9877663E1,4.0919792E1,2.476709E1,0E0,0E0,0E0,0E0,0E0,0E0,0E0,0E0],"parents":[2147483647,0,0,1,1,2,2,3,3,4,4,5,5,6,6],"right_children":[2,4,6,8,10,12,14,-1,-1,-1,-1,-1,-1,-1,-1],"split_conditions":[4.69E-1,-2E0,1.4E1,-4.3E0,2.4E1,1E1,2.3E1,4.708259E-4,-2.9144757E-3,7.1008276E-4,3.3330417E-3,-2.6710376E-3,9.0293914E-5,-3.7360226E-3,-6.03666E-3],"split_indices":[3,77,80,25,51,51,80,0,0,0,0,0,0,0,0],"split_type":[0,0,0,0,0,0,0,0,0,0,0,0,0,0,0],"sum_hessian":[6.6564854E3,2.5699302E3,4.0865552E3,8.083428E2,1.7615874E3,2.1596008E3,1.9269545E3,3.8098706E2,4.2735568E2,7.7847974E2,9.831077E2,1.1666089E3,9.92992E2,1.1030586E3,8.238959E2],"tree_param":{"num_deleted":"0","num_feature":"106","num_nodes":"15","size_leaf_vector":"1"}},{"base_weights":[1.407197E-1,-1.0754803E-1,2.9683703E-1,1.3203093E-1,-2.1749659E-1,1.4019132E-1,4.7223127E-1,-4.708267E-4,2.914476E-3,-7.100832E-4,-3.3330417E-3,2.6710376E-3,-9.0295056E-5,3.7360226E-3,6.03666E-3],"categories":[],"categories_nodes":[],"categories_segments":[],"categories_sizes":[],"default_left":[0,0,0,0,0,0,0,0,0,0,0,0,0,0,0],"id":13,"left_children":[1,3,5,7,9,11,13,-1,-1,-1,-1,-1,-1,-1,-1],"loss_changes":[2.5806873E2,6.775052E1,1.1223837E2,2.3123444E1,2.9877655E1,4.0919823E1,2.476712E1,0E0,0E0,0E0,0E0,0E0,0E0,0E0,0E0],"parents":[2147483647,0,0,1,1,2,2,3,3,4,4,5,5,6,6],"right_children":[2,4,6,8,10,12,14,-1,-1,-1,-1,-1,-1,-1,-1],"split_conditions":[4.69E-1,-2E0,1.4E1,-4.3E0,2.4E1,1E1,2.3E1,-4.708267E-4,2.914476E-3,-7.100832E-4,-3.3330417E-3,2.6710376E-3,-9.0295056E-5,3.7360226E-3,6.03666E-3],"split_indices":[3,77,80,25,51,51,80,0,0,0,0,0,0,0,0],"split_type":[0,0,0,0,0,0,0,0,0,0,0,0,0,0,0],"sum_hessian":[6.6564854E3,2.5699302E3,4.0865552E3,8.083428E2,1.7615874E3,2.1596008E3,1.9269545E3,3.8098703E2,4.273557E2,7.784797E2,9.831077E2,1.1666089E3,9.92992E2,1.1030586E3,8.238959E2],"tree_param":{"num_deleted":"0","num_feature":"106","num_nodes":"15","size_leaf_vector":"1"}},{"base_weights":[-1.3933277E-1,-2.6620647E-1,1.6028401E-1,-1.6267148E-1,-5.2835333E-1,-7.1246894E-3,3.2004833E-1,-3.0693372E-3,-3.405866E-4,-5.7165613E-3,-3.2411302E-3,1.3806352E-3,-1.6529842E-3,4.708936E-3,2.2680836E-3],"categories":[],"categories_nodes":[],"categories_segments":[],"categories_sizes":[],"default_left":[0,0,0,0,0,0,0,0,0,0,0,0,0,0,0],"id":14,"left_children":[1,3,5,7,9,11,13,-1,-1,-1,-1,-1,-1,-1,-1],"loss_changes":[2.5308347E2,1.26847626E2,5.2982006E1,6.2220993E1,1.1521515E1,2.2258936E1,1.4149132E1,0E0,0E0,0E0,0E0,0E0,0E0,0E0,0E0],"parents":[2147483647,0,0,1,1,2,2,3,3,4,4,5,5,6,6],"right_children":[2,4,6,8,10,12,14,-1,-1,-1,-1,-1,-1,-1,-1],"split_conditions":[2E1,2E1,0E0,1E1,-2E0,-4.8E0,-6.2E0,-3.0693372E-3,-3.405866E-4,-5.7165613E-3,-3.2411302E-3,1.3806352E-3,-1.6529842E-3,4.708936E-3,2.2680836E-3],"split_indices":[28,80,77,51,77,25,25,0,0,0,0,0,0,0,0],"split_type":[0,0,0,0,0,0,0,0,0,0,0,0,0,0,0],"sum_hessian":[6.6556055E3,4.675754E3,1.9798516E3,3.353076E3,1.3226779E3,9.672627E2,1.01258887E3,1.5797347E3,1.7733413E3,1.0898171E3,2.3286078E2,5.043997E2,4.6286304E2,3.852592E2,6.2732965E2],"tree_param":{"num_deleted":"0","num_feature":"106","num_nodes":"15","size_leaf_vector":"1"}},{"base_weights":[1.3933276E-1,2.6620644E-1,-1.60284E-1,1.6267146E-1,5.2835333E-1,7.124672E-3,-3.2004827E-1,3.069337E-3,3.4058632E-4,5.7165613E-3,3.2411295E-3,-1.3806347E-3,1.6529834E-3,-4.708935E-3,-2.2680836E-3],"categories":[],"categories_nodes":[],"categories_segments":[],"categories_sizes":[],"default_left":[0,0,0,0,0,0,0,0,0,0,0,0,0,0,0],"id":15,"left_children":[1,3,5,7,9,11,13,-1,-1,-1,-1,-1,-1,-1,-1],"loss_changes":[2.5308342E2,1.26847595E2,5.298199E1,6.2220993E1,1.1521606E1,2.2258917E1,1.41491165E1,0E0,0E0,0E0,0E0,0E0,0E0,0E0,0E0],"parents":[2147483647,0,0,1,1,2,2,3,3,4,4,5,5,6,6],"right_children":[2,4,6,8,10,12,14,-1,-1,-1,-1,-1,-1,-1,-1],"split_conditions":[2E1,2E1,0E0,1E1,-2E0,-4.8E0,-6.2E0,3.069337E-3,3.4058632E-4,5.7165613E-3,3.2411295E-3,-1.3806347E-3,1.6529834E-3,-4.708935E-3,-2.2680836E-3],"split_indices":[28,80,77,51,77,25,25,0,0,0,0,0,0,0,0],"split_type":[0,0,0,0,0,0,0,0,0,0,0,0,0,0,0],"sum_hessian":[6.6556055E3,4.675754E3,1.9798516E3,3.353076E3,1.3226779E3,9.672627E2,1.01258887E3,1.5797347E3,1.7733412E3,1.089817E3,2.3286078E2,5.043997E2,4.6286304E2,3.852592E2,6.273297E2],"tree_param":{"num_deleted":"0","num_feature":"106","num_nodes":"15","size_leaf_vector":"1"}},{"base_weights":[-1.3796033E-1,1.1555733E-1,-2.8520483E-1,-3.8807116E-2,2.8478447E-1,-1.2290578E-1,-4.4714785E-1,1.3728844E-3,-1.9234525E-3,2.2453687E-3,4.6270574E-3,-2.4692344E-3,1.4042141E-4,-3.5557887E-3,-5.8242073E-3],"categories":[],"categories_nodes":[],"categories_segments":[],"categories_sizes":[],"default_left":[0,0,0,0,0,0,0,0,0,0,0,0,0,0,0],"id":16,"left_children":[1,3,5,7,9,11,13,-1,-1,-1,-1,-1,-1,-1,-1],"loss_changes":[2.4848224E2,6.3908943E1,1.1061249E2,3.4636703E1,1.2405357E1,3.574377E1,2.5894653E1,0E0,0E0,0E0,0E0,0E0,0E0,0E0,0E0],"parents":[2147483647,0,0,1,1,2,2,3,3,4,4,5,5,6,6],"right_children":[2,4,6,8,10,12,14,-1,-1,-1,-1,-1,-1,-1,-1],"split_conditions":[4.59E-1,5.14E-1,1.3E1,-4.7E0,2.8E1,1E1,2.3E1,1.3728844E-3,-1.9234525E-3,2.2453687E-3,4.6270574E-3,-2.4692344E-3,1.4042141E-4,-3.5557887E-3,-5.8242073E-3],"split_indices":[3,55,80,25,51,51,80,0,0,0,0,0,0,0,0],"split_type":[0,0,0,0,0,0,0,0,0,0,0,0,0,0,0],"sum_hessian":[6.65465E3,2.445072E3,4.209578E3,1.2790906E3,1.1659813E3,2.1033564E3,2.1062217E3,5.9582935E2,6.832612E2,8.7272253E2,2.9325882E2,1.1033651E3,9.9999133E2,1.2581698E3,8.480519E2],"tree_param":{"num_deleted":"0","num_feature":"106","num_nodes":"15","size_leaf_vector":"1"}},{"base_weights":[1.3796033E-1,-1.15557335E-1,2.8520483E-1,3.880713E-2,-2.847845E-1,1.22905746E-1,4.471479E-1,-1.3728839E-3,1.9234522E-3,-2.245369E-3,-4.6270574E-3,2.4692344E-3,-1.4042214E-4,3.555789E-3,5.8242087E-3],"categories":[],"categories_nodes":[],"categories_segments":[],"categories_sizes":[],"default_left":[0,0,0,0,0,0,0,0,0,0,0,0,0,0,0],"id":17,"left_children":[1,3,5,7,9,11,13,-1,-1,-1,-1,-1,-1,-1,-1],"loss_changes":[2.4848228E2,6.3908962E1,1.1061255E2,3.4636692E1,1.2405357E1,3.5743797E1,2.5894653E1,0E0,0E0,0E0,0E0,0E0,0E0,0E0,0E0],"parents":[2147483647,0,0,1,1,2,2,3,3,4,4,5,5,6,6],"right_children":[2,4,6,8,10,12,14,-1,-1,-1,-1,-1,-1,-1,-1],"split_conditions":[4.59E-1,5.14E-1,1.3E1,-4.7E0,2.8E1,1E1,2.3E1,-1.3728839E-3,1.9234522E-3,-2.245369E-3,-4.6270574E-3,2.4692344E-3,-1.4042214E-4,3.555789E-3,5.8242087E-3],"split_indices":[3,55,80,25,51,51,80,0,0,0,0,0,0,0,0],"split_type":[0,0,0,0,0,0,0,0,0,0,0,0,0,0,0],"sum_hessian":[6.65465E3,2.445072E3,4.209578E3,1.2790906E3,1.1659813E3,2.1033564E3,2.1062217E3,5.9582935E2,6.832612E2,8.7272253E2,2.9325882E2,1.1033651E3,9.9999133E2,1.2581698E3,8.480519E2],"tree_param":{"num_deleted":"0","num_feature":"106","num_nodes":"15","size_leaf_vector":"1"}},{"base_weights":[-1.3660362E-1,-2.6114044E-1,1.5744254E-1,-1.0885705E-1,-4.3330663E-1,3.1655675E-1,-5.265946E-3,-2.5967925E-3,2.6738123E-4,-3.367475E-3,-5.632043E-3,4.518245E-3,2.314784E-3,1.4230021E-3,-1.6718342E-3],"categories":[],"categories_nodes":[],"categories_segments":[],"categories_sizes":[],"default_left":[0,0,0,0,0,0,0,0,0,0,0,0,0,0,0],"id":18,"left_children":[1,3,5,7,9,11,13,-1,-1,-1,-1,-1,-1,-1,-1],"loss_changes":[2.4372922E2,1.22524536E2,5.127521E1,5.0768387E1,2.7328766E1,1.1418999E1,2.3443573E1,0E0,0E0,0E0,0E0,0E0,0E0,0E0,0E0],"parents":[2147483647,0,0,1,1,2,2,3,3,4,4,5,5,6,6],"right_children":[2,4,6,8,10,12,14,-1,-1,-1,-1,-1,-1,-1,-1],"split_conditions":[2E1,1.4E1,1.6E1,1E1,2.3E1,-6.1E0,-4.8E0,-2.5967925E-3,2.6738123E-4,-3.367475E-3,-5.632043E-3,4.518245E-3,2.314784E-3,1.4230021E-3,-1.6718342E-3],"split_indices":[28,80,103,51,80,25,25,0,0,0,0,0,0,0,0],"split_type":[0,0,0,0,0,0,0,0,0,0,0,0,0,0,0],"sum_hessian":[6.6535864E3,4.67409E3,1.9794963E3,2.4811294E3,2.1929607E3,1.00032404E3,9.7917224E2,1.1741783E3,1.306951E3,1.2599625E3,9.329981E2,3.8457306E2,6.15751E2,5.123525E2,4.6681976E2],"tree_param":{"num_deleted":"0","num_feature":"106","num_nodes":"15","size_leaf_vector":"1"}},{"base_weights":[1.3660364E-1,2.6114044E-1,-1.5744254E-1,1.0885705E-1,4.3330666E-1,-3.1655675E-1,5.2659465E-3,2.5967925E-3,-2.6738146E-4,3.3674752E-3,5.632043E-3,-4.518245E-3,-2.314784E-3,-1.423002E-3,1.6718339E-3],"categories":[],"categories_nodes":[],"categories_segments":[],"categories_sizes":[],"default_left":[0,0,0,0,0,0,0,0,0,0,0,0,0,0,0],"id":19,"left_children":[1,3,5,7,9,11,13,-1,-1,-1,-1,-1,-1,-1,-1],"loss_changes":[2.4372914E2,1.2252463E2,5.1275208E1,5.0768394E1,2.7328735E1,1.1418999E1,2.3443573E1,0E0,0E0,0E0,0E0,0E0,0E0,0E0,0E0],"parents":[2147483647,0,0,1,1,2,2,3,3,4,4,5,5,6,6],"right_children":[2,4,6,8,10,12,14,-1,-1,-1,-1,-1,-1,-1,-1],"split_conditions":[2E1,1.4E1,1.6E1,1E1,2.3E1,-6.1E0,-4.8E0,2.5967925E-3,-2.6738146E-4,3.3674752E-3,5.632043E-3,-4.518245E-3,-2.314784E-3,-1.423002E-3,1.6718339E-3],"split_indices":[28,80,103,51,80,25,25,0,0,0,0,0,0,0,0],"split_type":[0,0,0,0,0,0,0,0,0,0,0,0,0,0,0],"sum_hessian":[6.6535864E3,4.6740903E3,1.9794963E3,2.4811294E3,2.1929607E3,1.00032404E3,9.7917224E2,1.1741785E3,1.306951E3,1.2599626E3,9.329981E2,3.8457306E2,6.15751E2,5.123525E2,4.6681976E2],"tree_param":{"num_deleted":"0","num_feature":"106","num_nodes":"15","size_leaf_vector":"1"}},{"base_weights":[-1.3526277E-1,-3.2885465E-1,5.1012926E-2,-1.7958812E-1,-4.8146802E-1,-1.7869042E-1,1.7601354E-1,-2.5540348E-3,6.602033E-5,-3.8276992E-3,-6.3077235E-3,6.2453345E-4,-3.0667165E-3,6.2760216E-4,3.269442E-3],"categories":[],"categories_nodes":[],"categories_segments":[],"categories_sizes":[],"default_left":[0,0,0,0,0,0,0,0,0,0,0,0,0,0,0],"id":20,"left_children":[1,3,5,7,9,11,13,-1,-1,-1,-1,-1,-1,-1,-1],"loss_changes":[2.399479E2,7.423947E1,9.7415665E1,2.33082E1,2.3523376E1,3.692183E1,3.7531944E1,0E0,0E0,0E0,0E0,0E0,0E0,0E0,0E0],"parents":[2147483647,0,0,1,1,2,2,3,3,4,4,5,5,6,6],"right_children":[2,4,6,8,10,12,14,-1,-1,-1,-1,-1,-1,-1,-1],"split_conditions":[1.5E1,1.3E1,-1.4E0,6E0,2.3E1,-4.8E0,2.4E1,-2.5540348E-3,6.602033E-5,-3.8276992E-3,-6.3077235E-3,6.2453345E-4,-3.0667165E-3,6.2760216E-4,3.269442E-3],"split_indices":[51,80,77,77,80,25,51,0,0,0,0,0,0,0,0],"split_type":[0,0,0,0,0,0,0,0,0,0,0,0,0,0,0],"sum_hessian":[6.6523955E3,3.2617607E3,3.390635E3,1.6500619E3,1.6116987E3,1.1947365E3,2.1958984E3,1.1723267E3,4.7773523E2,9.724328E2,6.392659E2,4.1441083E2,7.803257E2,1.2553452E3,9.405533E2],"tree_param":{"num_deleted":"0","num_feature":"106","num_nodes":"15","size_leaf_vector":"1"}},{"base_weights":[1.3526279E-1,3.2885462E-1,-5.1012903E-2,1.7958805E-1,4.8146808E-1,1.7869046E-1,-1.7601353E-1,2.5540343E-3,-6.602096E-5,3.8277E-3,6.307724E-3,-6.245327E-4,3.0667167E-3,-6.276019E-4,-3.2694417E-3],"categories":[],"categories_nodes":[],"categories_segments":[],"categories_sizes":[],"default_left":[0,0,0,0,0,0,0,0,0,0,0,0,0,0,0],"id":21,"left_children":[1,3,5,7,9,11,13,-1,-1,-1,-1,-1,-1,-1,-1],"loss_changes":[2.399479E2,7.42395E1,9.741568E1,2.3308208E1,2.3523376E1,3.692182E1,3.753195E1,0E0,0E0,0E0,0E0,0E0,0E0,0E0,0E0],"parents":[2147483647,0,0,1,1,2,2,3,3,4,4,5,5,6,6],"right_children":[2,4,6,8,10,12,14,-1,-1,-1,-1,-1,-1,-1,-1],"split_conditions":[1.5E1,1.3E1,-1.4E0,6E0,2.3E1,-4.8E0,2.4E1,2.5540343E-3,-6.602096E-5,3.8277E-3,6.307724E-3,-6.245327E-4,3.0667167E-3,-6.276019E-4,-3.2694417E-3],"split_indices":[51,80,77,77,80,25,51,0,0,0,0,0,0,0,0],"split_type":[0,0,0,0,0,0,0,0,0,0,0,0,0,0,0],"sum_hessian":[6.652396E3,3.2617607E3,3.390635E3,1.6500619E3,1.6116987E3,1.1947366E3,2.1958984E3,1.1723267E3,4.7773523E2,9.724328E2,6.392659E2,4.1441083E2,7.803257E2,1.2553452E3,9.405533E2],"tree_param":{"num_deleted":"0","num_feature":"106","num_nodes":"15","size_leaf_vector":"1"}},{"base_weights":[-1.3393731E-1,1.03216134E-1,-2.831479E-1,-1.2653178E-1,2.0865923E-1,-1.2392414E-1,-4.420357E-1,4.364497E-4,-2.7808568E-3,6.8469404E-4,3.1956672E-3,-2.4005838E-3,1.248671E-4,-3.5082784E-3,-5.7699755E-3],"categories":[],"categories_nodes":[],"categories_segments":[],"categories_sizes":[],"default_left":[0,0,0,0,0,0,0,0,0,0,0,0,0,0,0],"id":22,"left_children":[1,3,5,7,9,11,13,-1,-1,-1,-1,-1,-1,-1,-1],"loss_changes":[2.3542078E2,6.227913E1,1.0325021E2,2.087703E1,2.7369766E1,3.2335484E1,2.4951874E1,0E0,0E0,0E0,0E0,0E0,0E0,0E0,0E0],"parents":[2147483647,0,0,1,1,2,2,3,3,4,4,5,5,6,6],"right_children":[2,4,6,8,10,12,14,-1,-1,-1,-1,-1,-1,-1,-1],"split_conditions":[4.69E-1,-2E0,1.3E1,-4.3E0,2.4E1,1E1,2.3E1,4.364497E-4,-2.7808568E-3,6.8469404E-4,3.1956672E-3,-2.4005838E-3,1.248671E-4,-3.5082784E-3,-5.7699755E-3],"split_indices":[3,77,80,25,51,51,80,0,0,0,0,0,0,0,0],"split_type":[0,0,0,0,0,0,0,0,0,0,0,0,0,0,0],"sum_hessian":[6.6511465E3,2.5687366E3,4.08241E3,8.0800037E2,1.7607362E3,2.0399384E3,2.0424714E3,3.809507E2,4.2704965E2,7.7841614E2,9.8232007E2,1.1014512E3,9.3848724E2,1.2209484E3,8.215231E2],"tree_param":{"num_deleted":"0","num_feature":"106","num_nodes":"15","size_leaf_vector":"1"}},{"base_weights":[1.339373E-1,-1.0321614E-1,2.8314787E-1,1.2653178E-1,-2.0865925E-1,1.2392416E-1,4.4203568E-1,-4.364497E-4,2.780857E-3,-6.8469404E-4,-3.1956674E-3,2.4005838E-3,-1.2486667E-4,3.5082786E-3,5.7699746E-3],"categories":[],"categories_nodes":[],"categories_segments":[],"categories_sizes":[],"default_left":[0,0,0,0,0,0,0,0,0,0,0,0,0,0,0],"id":23,"left_children":[1,3,5,7,9,11,13,-1,-1,-1,-1,-1,-1,-1,-1],"loss_changes":[2.3542075E2,6.2279133E1,1.0325021E2,2.0877028E1,2.7369781E1,3.2335472E1,2.4951813E1,0E0,0E0,0E0,0E0,0E0,0E0,0E0,0E0],"parents":[2147483647,0,0,1,1,2,2,3,3,4,4,5,5,6,6],"right_children":[2,4,6,8,10,12,14,-1,-1,-1,-1,-1,-1,-1,-1],"split_conditions":[4.69E-1,-2E0,1.3E1,-4.3E0,2.4E1,1E1,2.3E1,-4.364497E-4,2.780857E-3,-6.8469404E-4,-3.1956674E-3,2.4005838E-3,-1.2486667E-4,3.5082786E-3,5.7699746E-3],"split_indices":[3,77,80,25,51,51,80,0,0,0,0,0,0,0,0],"split_type":[0,0,0,0,0,0,0,0,0,0,0,0,0,0,0],"sum_hessian":[6.6511465E3,2.5687366E3,4.08241E3,8.0800037E2,1.7607362E3,2.0399385E3,2.0424714E3,3.809507E2,4.2704968E2,7.7841614E2,9.8232007E2,1.1014512E3,9.3848724E2,1.2209484E3,8.215231E2],"tree_param":{"num_deleted":"0","num_feature":"106","num_nodes":"15","size_leaf_vector":"1"}},{"base_weights":[-1.3262823E-1,-3.2285497E-1,5.035702E-2,-1.7628033E-1,-4.7282833E-1,-1.75116E-1,1.7303541E-1,-2.5134746E-3,8.0467296E-5,-3.7577292E-3,-6.1980016E-3,6.1195635E-4,-3.0059349E-3,6.2265585E-4,3.2071525E-3],"categories":[],"categories_nodes":[],"categories_segments":[],"categories_sizes":[],"default_left":[0,0,0,0,0,0,0,0,0,0,0,0,0,0,0],"id":24,"left_children":[1,3,5,7,9,11,13,-1,-1,-1,-1,-1,-1,-1,-1],"loss_changes":[2.3151907E2,7.160031E1,9.382064E1,2.2843533E1,2.275E1,3.5461105E1,3.591059E1,0E0,0E0,0E0,0E0,0E0,0E0,0E0,0E0],"parents":[2147483647,0,0,1,1,2,2,3,3,4,4,5,5,6,6],"right_children":[2,4,6,8,10,12,14,-1,-1,-1,-1,-1,-1,-1,-1],"split_conditions":[1.5E1,1.3E1,-1.4E0,6E0,2.3E1,-4.8E0,2.4E1,-2.5134746E-3,8.0467296E-5,-3.7577292E-3,-6.1980016E-3,6.1195635E-4,-3.0059349E-3,6.2265585E-4,3.2071525E-3],"split_indices":[51,80,77,77,80,25,51,0,0,0,0,0,0,0,0],"split_type":[0,0,0,0,0,0,0,0,0,0,0,0,0,0,0],"sum_hessian":[6.6497197E3,3.2599724E3,3.3897476E3,1.6497675E3,1.6102048E3,1.1942974E3,2.1954502E3,1.1720763E3,4.776912E2,9.719304E2,6.382744E2,4.143898E2,7.799076E2,1.2553069E3,9.401432E2],"tree_param":{"num_deleted":"0","num_feature":"106","num_nodes":"15","size_leaf_vector":"1"}},{"base_weights":[1.3262822E-1,3.2285497E-1,-5.0357018E-2,1.7628029E-1,4.7282833E-1,1.7511596E-1,-1.7303538E-1,2.513474E-3,-8.0468315E-5,3.7577294E-3,6.1980016E-3,-6.1195716E-4,3.0059346E-3,-6.226551E-4,-3.2071527E-3],"categories":[],"categories_nodes":[],"categories_segments":[],"categories_sizes":[],"default_left":[0,0,0,0,0,0,0,0,0,0,0,0,0,0,0],"id":25,"left_children":[1,3,5,7,9,11,13,-1,-1,-1,-1,-1,-1,-1,-1],"loss_changes":[2.3151904E2,7.160031E1,9.38206E1,2.2843548E1,2.275E1,3.5461117E1,3.591063E1,0E0,0E0,0E0,0E0,0E0,0E0,0E0,0E0],"parents":[2147483647,0,0,1,1,2,2,3,3,4,4,5,5,6,6],"right_children":[2,4,6,8,10,12,14,-1,-1,-1,-1,-1,-1,-1,-1],"split_conditions":[1.5E1,1.3E1,-1.4E0,6E0,2.3E1,-4.8E0,2.4E1,2.513474E-3,-8.0468315E-5,3.7577294E-3,6.1980016E-3,-6.1195716E-4,3.0059346E-3,-6.226551E-4,-3.2071527E-3],"split_indices":[51,80,77,77,80,25,51,0,0,0,0,0,0,0,0],"split_type":[0,0,0,0,0,0,0,0,0,0,0,0,0,0,0],"sum_hessian":[6.6497197E3,3.2599722E3,3.3897476E3,1.6497675E3,1.6102048E3,1.1942974E3,2.1954502E3,1.1720763E3,4.776912E2,9.719304E2,6.382744E2,4.1438977E2,7.799076E2,1.255307E3,9.401432E2],"tree_param":{"num_deleted":"0","num_feature":"106","num_nodes":"15","size_leaf_vector":"1"}},{"base_weights":[-1.3133287E-1,-2.516007E-1,1.5251966E-1,-1.5328416E-1,-5.011544E-1,3.0667937E-1,-5.06633E-3,-3.2516264E-3,-5.3686916E-4,-5.431161E-3,-3.0364715E-3,4.3824664E-3,2.2398932E-3,1.3674615E-3,-1.6069536E-3],"categories":[],"categories_nodes":[],"categories_segments":[],"categories_sizes":[],"default_left":[0,0,0,0,0,0,0,0,0,0,0,0,0,0,0],"id":26,"left_children":[1,3,5,7,9,11,13,-1,-1,-1,-1,-1,-1,-1,-1],"loss_changes":[2.2703285E2,1.1452222E2,4.8089565E1,5.736676E1,1.0771881E1,1.07879715E1,2.1647175E1,0E0,0E0,0E0,0E0,0E0,0E0,0E0,0E0],"parents":[2147483647,0,0,1,1,2,2,3,3,4,4,5,5,6,6],"right_children":[2,4,6,8,10,12,14,-1,-1,-1,-1,-1,-1,-1,-1],"split_conditions":[2E1,2E1,1.6E1,8E0,-2E0,-6.1E0,-4.8E0,-3.2516264E-3,-5.3686916E-4,-5.431161E-3,-3.0364715E-3,4.3824664E-3,2.2398932E-3,1.3674615E-3,-1.6069536E-3],"split_indices":[28,80,103,51,77,25,25,0,0,0,0,0,0,0,0],"split_type":[0,0,0,0,0,0,0,0,0,0,0,0,0,0,0],"sum_hessian":[6.648256E3,4.669788E3,1.9784678E3,3.3511511E3,1.318637E3,9.9962787E2,9.7883984E2,1.2286177E3,2.1225337E3,1.0861317E3,2.3250517E2,3.8413486E2,6.1549304E2,5.122176E2,4.6662222E2],"tree_param":{"num_deleted":"0","num_feature":"106","num_nodes":"15","size_leaf_vector":"1"}},{"base_weights":[1.3133286E-1,2.516007E-1,-1.5251969E-1,1.5328415E-1,5.011545E-1,-3.066794E-1,5.0663124E-3,3.2516264E-3,5.3686893E-4,5.431161E-3,3.0364718E-3,-4.3824674E-3,-2.2398937E-3,-1.3674614E-3,1.606953E-3],"categories":[],"categories_nodes":[],"categories_segments":[],"categories_sizes":[],"default_left":[0,0,0,0,0,0,0,0,0,0,0,0,0,0,0],"id":27,"left_children":[1,3,5,7,9,11,13,-1,-1,-1,-1,-1,-1,-1,-1],"loss_changes":[2.2703287E2,1.1452222E2,4.8089577E1,5.736676E1,1.0771851E1,1.0787979E1,2.1647163E1,0E0,0E0,0E0,0E0,0E0,0E0,0E0,0E0],"parents":[2147483647,0,0,1,1,2,2,3,3,4,4,5,5,6,6],"right_children":[2,4,6,8,10,12,14,-1,-1,-1,-1,-1,-1,-1,-1],"split_conditions":[2E1,2E1,1.6E1,8E0,-2E0,-6.1E0,-4.8E0,3.2516264E-3,5.3686893E-4,5.431161E-3,3.0364718E-3,-4.3824674E-3,-2.2398937E-3,-1.3674614E-3,1.606953E-3],"split_indices":[28,80,103,51,77,25,25,0,0,0,0,0,0,0,0],"split_type":[0,0,0,0,0,0,0,0,0,0,0,0,0,0,0],"sum_hessian":[6.648256E3,4.669788E3,1.9784678E3,3.3511514E3,1.318637E3,9.996279E2,9.7883984E2,1.2286177E3,2.1225337E3,1.0861318E3,2.3250517E2,3.8413486E2,6.1549304E2,5.122176E2,4.6662225E2],"tree_param":{"num_deleted":"0","num_feature":"106","num_nodes":"15","size_leaf_vector":"1"}},{"base_weights":[-1.300512E-1,-3.1705305E-1,4.9772095E-2,-1.7263399E-1,-4.649412E-1,-1.8951118E-1,1.6142315E-1,-2.4697313E-3,9.8735945E-5,-3.6960929E-3,-6.0947286E-3,6.909521E-5,-3.3511E-3,5.287307E-4,3.044912E-3],"categories":[],"categories_nodes":[],"categories_segments":[],"categories_sizes":[],"default_left":[0,0,0,0,0,0,0,0,0,0,0,0,0,0,0],"id":28,"left_children":[1,3,5,7,9,11,13,-1,-1,-1,-1,-1,-1,-1,-1],"loss_changes":[2.235599E2,6.952374E1,9.059221E1,2.2394157E1,2.1951782E1,3.0858074E1,3.5886818E1,0E0,0E0,0E0,0E0,0E0,0E0,0E0,0E0],"parents":[2147483647,0,0,1,1,2,2,3,3,4,4,5,5,6,6],"right_children":[2,4,6,8,10,12,14,-1,-1,-1,-1,-1,-1,-1,-1],"split_conditions":[1.5E1,1.3E1,-1.9E0,6E0,2.3E1,-3.7E0,2.4E1,-2.4697313E-3,9.8735945E-5,-3.6960929E-3,-6.0947286E-3,6.909521E-5,-3.3511E-3,5.287307E-4,3.044912E-3],"split_indices":[51,80,77,77,80,25,51,0,0,0,0,0,0,0,0],"split_type":[0,0,0,0,0,0,0,0,0,0,0,0,0,0,0],"sum_hessian":[6.646701E3,3.2579404E3,3.3887605E3,1.6493997E3,1.6085409E3,1.0779248E3,2.3108357E3,1.1717631E3,4.7763663E2,9.7138226E2,6.371586E2,4.5928162E2,6.186432E2,1.3147014E3,9.9613434E2],"tree_param":{"num_deleted":"0","num_feature":"106","num_nodes":"15","size_leaf_vector":"1"}},{"base_weights":[1.3005121E-1,3.1705305E-1,-4.9772084E-2,1.7263402E-1,4.649412E-1,1.895112E-1,-1.6142313E-1,2.4697313E-3,-9.873534E-5,3.6960929E-3,6.0947286E-3,-6.90951E-5,3.3511003E-3,-5.287306E-4,-3.044912E-3],"categories":[],"categories_nodes":[],"categories_segments":[],"categories_sizes":[],"default_left":[0,0,0,0,0,0,0,0,0,0,0,0,0,0,0],"id":29,"left_children":[1,3,5,7,9,11,13,-1,-1,-1,-1,-1,-1,-1,-1],"loss_changes":[2.2355989E2,6.952374E1,9.059222E1,2.2394154E1,2.1951752E1,3.0858082E1,3.5886818E1,0E0,0E0,0E0,0E0,0E0,0E0,0E0,0E0],"parents":[2147483647,0,0,1,1,2,2,3,3,4,4,5,5,6,6],"right_children":[2,4,6,8,10,12,14,-1,-1,-1,-1,-1,-1,-1,-1],"split_conditions":[1.5E1,1.3E1,-1.9E0,6E0,2.3E1,-3.7E0,2.4E1,2.4697313E-3,-9.873534E-5,3.6960929E-3,6.0947286E-3,-6.90951E-5,3.3511003E-3,-5.287306E-4,-3.044912E-3],"split_indices":[51,80,77,77,80,25,51,0,0,0,0,0,0,0,0],"split_type":[0,0,0,0,0,0,0,0,0,0,0,0,0,0,0],"sum_hessian":[6.646701E3,3.2579404E3,3.3887605E3,1.6493997E3,1.6085409E3,1.0779248E3,2.3108357E3,1.1717631E3,4.7763663E2,9.7138226E2,6.371586E2,4.5928162E2,6.186432E2,1.3147014E3,9.961343E2],"tree_param":{"num_deleted":"0","num_feature":"106","num_nodes":"15","size_leaf_vector":"1"}},{"base_weights":[-1.2878485E-1,-3.139996E-1,4.9281448E-2,-1.709268E-1,-4.605851E-1,-8.869601E-2,2.395454E-1,-2.4454147E-3,9.774952E-5,-3.6604507E-3,-6.0401494E-3,-2.0066781E-3,1.5554058E-3,1.5240386E-3,3.592534E-3],"categories":[],"categories_nodes":[],"categories_segments":[],"categories_sizes":[],"default_left":[0,0,0,0,0,0,0,0,0,0,0,0,0,0,0],"id":30,"left_children":[1,3,5,7,9,11,13,-1,-1,-1,-1,-1,-1,-1,-1],"loss_changes":[2.1920566E2,6.824457E1,8.899707E1,2.1954239E1,2.1590515E1,5.3777836E1,1.4809837E1,0E0,0E0,0E0,0E0,0E0,0E0,0E0,0E0],"parents":[2147483647,0,0,1,1,2,2,3,3,4,4,5,5,6,6],"right_children":[2,4,6,8,10,12,14,-1,-1,-1,-1,-1,-1,-1,-1],"split_conditions":[1.5E1,1.3E1,5.45E-1,6E0,2.3E1,2.6E1,2.4E1,-2.4454147E-3,9.774952E-5,-3.6604507E-3,-6.0401494E-3,-2.0066781E-3,1.5554058E-3,1.5240386E-3,3.592534E-3],"split_indices":[51,80,55,77,80,51,51,0,0,0,0,0,0,0,0],"split_type":[0,0,0,0,0,0,0,0,0,0,0,0,0,0,0],"sum_hessian":[6.6450527E3,3.2567732E3,3.3882793E3,1.6492301E3,1.6075431E3,1.9643135E3,1.423966E3,1.1715914E3,4.776387E2,9.710438E2,6.364992E2,1.3469666E3,6.1734686E2,8.253933E2,5.985727E2],"tree_param":{"num_deleted":"0","num_feature":"106","num_nodes":"15","size_leaf_vector":"1"}},{"base_weights":[1.2878482E-1,3.1399956E-1,-4.928146E-2,1.7092676E-1,4.6058503E-1,8.8696E-2,-2.3954542E-1,2.4454142E-3,-9.774986E-5,3.6604502E-3,6.0401494E-3,2.0066781E-3,-1.555406E-3,-1.5240388E-3,-3.592534E-3],"categories":[],"categories_nodes":[],"categories_segments":[],"categories_sizes":[],"default_left":[0,0,0,0,0,0,0,0,0,0,0,0,0,0,0],"id":31,"left_children":[1,3,5,7,9,11,13,-1,-1,-1,-1,-1,-1,-1,-1],"loss_changes":[2.1920563E2,6.824454E1,8.8997086E1,2.1954243E1,2.1590576E1,5.3777847E1,1.480983E1,0E0,0E0,0E0,0E0,0E0,0E0,0E0,0E0],"parents":[2147483647,0,0,1,1,2,2,3,3,4,4,5,5,6,6],"right_children":[2,4,6,8,10,12,14,-1,-1,-1,-1,-1,-1,-1,-1],"split_conditions":[1.5E1,1.3E1,5.45E-1,6E0,2.3E1,2.6E1,2.4E1,2.4454142E-3,-9.774986E-5,3.6604502E-3,6.0401494E-3,2.0066781E-3,-1.555406E-3,-1.5240388E-3,-3.592534E-3],"split_indices":[51,80,55,77,80,51,51,0,0,0,0,0,0,0,0],"split_type":[0,0,0,0,0,0,0,0,0,0,0,0,0,0,0],"sum_hessian":[6.6450527E3,3.2567732E3,3.3882793E3,1.6492301E3,1.6075431E3,1.9643135E3,1.423966E3,1.1715914E3,4.7763873E2,9.710438E2,6.364992E2,1.3469666E3,6.1734686E2,8.253933E2,5.985727E2],"tree_param":{"num_deleted":"0","num_feature":"106","num_nodes":"15","size_leaf_vector":"1"}},{"base_weights":[-1.2753077E-1,9.943458E-2,-2.704428E-1,-1.20492704E-1,2.003782E-1,-1.17534265E-1,-4.2334527E-1,4.1164647E-4,-2.6460395E-3,6.7145907E-4,3.0589625E-3,-2.2996322E-3,1.4428482E-4,-3.3612107E-3,-5.5277795E-3],"categories":[],"categories_nodes":[],"categories_segments":[],"categories_sizes":[],"default_left":[0,0,0,0,0,0,0,0,0,0,0,0,0,0,0],"id":32,"left_children":[1,3,5,7,9,11,13,-1,-1,-1,-1,-1,-1,-1,-1],"loss_changes":[2.1554428E2,5.7033554E1,9.5280426E1,1.884591E1,2.4728958E1,3.0270363E1,2.282663E1,0E0,0E0,0E0,0E0,0E0,0E0,0E0,0E0],"parents":[2147483647,0,0,1,1,2,2,3,3,4,4,5,5,6,6],"right_children":[2,4,6,8,10,12,14,-1,-1,-1,-1,-1,-1,-1,-1],"split_conditions":[4.69E-1,-2E0,1.3E1,-4.3E0,2.4E1,1E1,2.3E1,4.1164647E-4,-2.6460395E-3,6.7145907E-4,3.0589625E-3,-2.2996322E-3,1.4428482E-4,-3.3612107E-3,-5.5277795E-3],"split_indices":[3,77,80,25,51,51,80,0,0,0,0,0,0,0,0],"split_type":[0,0,0,0,0,0,0,0,0,0,0,0,0,0,0],"sum_hessian":[6.643371E3,2.566962E3,4.076409E3,8.074863E2,1.7594756E3,2.0390481E3,2.037361E3,3.8091162E2,4.2657474E2,7.7834076E2,9.811349E2,1.1006117E3,9.384364E2,1.2192856E3,8.1807526E2],"tree_param":{"num_deleted":"0","num_feature":"106","num_nodes":"15","size_leaf_vector":"1"}},{"base_weights":[1.2753077E-1,-9.9434584E-2,2.704428E-1,1.2049272E-1,-2.0037821E-1,1.1753427E-1,4.2334527E-1,-4.1164635E-4,2.6460397E-3,-6.714595E-4,-3.0589625E-3,2.2996324E-3,-1.442851E-4,3.3612107E-3,5.5277795E-3],"categories":[],"categories_nodes":[],"categories_segments":[],"categories_sizes":[],"default_left":[0,0,0,0,0,0,0,0,0,0,0,0,0,0,0],"id":33,"left_children":[1,3,5,7,9,11,13,-1,-1,-1,-1,-1,-1,-1,-1],"loss_changes":[2.1554428E2,5.703357E1,9.528046E1,1.884591E1,2.4728935E1,3.0270372E1,2.2826569E1,0E0,0E0,0E0,0E0,0E0,0E0,0E0,0E0],"parents":[2147483647,0,0,1,1,2,2,3,3,4,4,5,5,6,6],"right_children":[2,4,6,8,10,12,14,-1,-1,-1,-1,-1,-1,-1,-1],"split_conditions":[4.69E-1,-2E0,1.3E1,-4.3E0,2.4E1,1E1,2.3E1,-4.1164635E-4,2.6460397E-3,-6.714595E-4,-3.0589625E-3,2.2996324E-3,-1.442851E-4,3.3612107E-3,5.5277795E-3],"split_indices":[3,77,80,25,51,51,80,0,0,0,0,0,0,0,0],"split_type":[0,0,0,0,0,0,0,0,0,0,0,0,0,0,0],"sum_hessian":[6.643371E3,2.566962E3,4.0764092E3,8.074864E2,1.7594756E3,2.0390482E3,2.0373608E3,3.8091162E2,4.2657474E2,7.7834076E2,9.811349E2,1.1006118E3,9.384364E2,1.2192856E3,8.1807526E2],"tree_param":{"num_deleted":"0","num_feature":"106","num_nodes":"15","size_leaf_vector":"1"}},{"base_weights":[-1.262933E-1,-2.4248686E-1,1.477964E-1,-1.4740087E-1,-4.8440126E-1,-6.9500506E-3,2.9562673E-1,-3.1499052E-3,-5.035654E-4,-5.25485E-3,-2.9138287E-3,1.2432261E-3,-1.500107E-3,4.368659E-3,2.084988E-3],"categories":[],"categories_nodes":[],"categories_segments":[],"categories_sizes":[],"default_left":[0,0,0,0,0,0,0,0,0,0,0,0,0,0,0],"id":34,"left_children":[1,3,5,7,9,11,13,-1,-1,-1,-1,-1,-1,-1,-1],"loss_changes":[2.1158192E2,1.07242615E2,4.5255634E1,5.44737E1,1.0281769E1,1.8187605E1,1.2359123E1,0E0,0E0,0E0,0E0,0E0,0E0,0E0,0E0],"parents":[2147483647,0,0,1,1,2,2,3,3,4,4,5,5,6,6],"right_children":[2,4,6,8,10,12,14,-1,-1,-1,-1,-1,-1,-1,-1],"split_conditions":[2E1,2E1,0E0,8E0,-2E0,-4.8E0,-6.2E0,-3.1499052E-3,-5.035654E-4,-5.25485E-3,-2.9138287E-3,1.2432261E-3,-1.500107E-3,4.368659E-3,2.084988E-3],"split_indices":[28,80,77,51,77,25,25,0,0,0,0,0,0,0,0],"split_type":[0,0,0,0,0,0,0,0,0,0,0,0,0,0,0],"sum_hessian":[6.641479E3,4.6642856E3,1.9771935E3,3.349394E3,1.3148915E3,9.664655E2,1.010728E3,1.2274379E3,2.1219563E3,1.0827145E3,2.3217699E2,5.0406537E2,4.6240015E2,3.8408725E2,6.2664075E2],"tree_param":{"num_deleted":"0","num_feature":"106","num_nodes":"15","size_leaf_vector":"1"}},{"base_weights":[1.2629332E-1,2.4248691E-1,-1.4779645E-1,1.4740093E-1,4.8440126E-1,6.950011E-3,-2.9562676E-1,3.149906E-3,5.0356565E-4,5.25485E-3,2.9138287E-3,-1.2432269E-3,1.500107E-3,-4.368659E-3,-2.0849884E-3],"categories":[],"categories_nodes":[],"categories_segments":[],"categories_sizes":[],"default_left":[0,0,0,0,0,0,0,0,0,0,0,0,0,0,0],"id":35,"left_children":[1,3,5,7,9,11,13,-1,-1,-1,-1,-1,-1,-1,-1],"loss_changes":[2.1158203E2,1.07242584E2,4.5255627E1,5.4473717E1,1.0281799E1,1.8187616E1,1.2359123E1,0E0,0E0,0E0,0E0,0E0,0E0,0E0,0E0],"parents":[2147483647,0,0,1,1,2,2,3,3,4,4,5,5,6,6],"right_children":[2,4,6,8,10,12,14,-1,-1,-1,-1,-1,-1,-1,-1],"split_conditions":[2E1,2E1,0E0,8E0,-2E0,-4.8E0,-6.2E0,3.149906E-3,5.0356565E-4,5.25485E-3,2.9138287E-3,-1.2432269E-3,1.500107E-3,-4.368659E-3,-2.0849884E-3],"split_indices":[28,80,77,51,77,25,25,0,0,0,0,0,0,0,0],"split_type":[0,0,0,0,0,0,0,0,0,0,0,0,0,0,0],"sum_hessian":[6.641479E3,4.6642856E3,1.9771935E3,3.349394E3,1.3148915E3,9.664655E2,1.010728E3,1.2274379E3,2.1219563E3,1.0827145E3,2.3217699E2,5.0406537E2,4.6240015E2,3.8408725E2,6.2664075E2],"tree_param":{"num_deleted":"0","num_feature":"106","num_nodes":"15","size_leaf_vector":"1"}},{"base_weights":[-1.250674E-1,-3.0577463E-1,4.8557833E-2,-1.65958E-1,-4.4923922E-1,-8.626691E-2,2.3445655E-1,-2.3886494E-3,1.2957404E-4,-3.5702526E-3,-5.894384E-3,-1.9504839E-3,1.5094458E-3,1.5025594E-3,3.5023084E-3],"categories":[],"categories_nodes":[],"categories_segments":[],"categories_sizes":[],"default_left":[0,0,0,0,0,0,0,0,0,0,0,0,0,0,0],"id":36,"left_children":[1,3,5,7,9,11,13,-1,-1,-1,-1,-1,-1,-1,-1],"loss_changes":[2.083653E2,6.5197876E1,8.492405E1,2.1520382E1,2.0545898E1,5.0714428E1,1.3831848E1,0E0,0E0,0E0,0E0,0E0,0E0,0E0,0E0],"parents":[2147483647,0,0,1,1,2,2,3,3,4,4,5,5,6,6],"right_children":[2,4,6,8,10,12,14,-1,-1,-1,-1,-1,-1,-1,-1],"split_conditions":[1.5E1,1.3E1,5.45E-1,6E0,2.3E1,2.6E1,2.4E1,-2.3886494E-3,1.2957404E-4,-3.5702526E-3,-5.894384E-3,-1.9504839E-3,1.5094458E-3,1.5025594E-3,3.5023084E-3],"split_indices":[51,80,55,77,80,51,51,0,0,0,0,0,0,0,0],"split_type":[0,0,0,0,0,0,0,0,0,0,0,0,0,0,0],"sum_hessian":[6.6395806E3,3.2530652E3,3.3865154E3,1.6485707E3,1.6044946E3,1.9632131E3,1.4233022E3,1.1710428E3,4.7752786E2,9.7002277E2,6.344718E2,1.3460935E3,6.171196E2,8.253428E2,5.979595E2],"tree_param":{"num_deleted":"0","num_feature":"106","num_nodes":"15","size_leaf_vector":"1"}},{"base_weights":[1.2506738E-1,3.057746E-1,-4.8557833E-2,1.6595797E-1,4.4923916E-1,8.626692E-2,-2.3445657E-1,2.3886492E-3,-1.2957434E-4,3.5702526E-3,5.8943825E-3,1.9504839E-3,-1.5094456E-3,-1.5025596E-3,-3.5023086E-3],"categories":[],"categories_nodes":[],"categories_segments":[],"categories_sizes":[],"default_left":[0,0,0,0,0,0,0,0,0,0,0,0,0,0,0],"id":37,"left_children":[1,3,5,7,9,11,13,-1,-1,-1,-1,-1,-1,-1,-1],"loss_changes":[2.0836523E2,6.5197876E1,8.4924065E1,2.152039E1,2.0545898E1,5.0714417E1,1.3831856E1,0E0,0E0,0E0,0E0,0E0,0E0,0E0,0E0],"parents":[2147483647,0,0,1,1,2,2,3,3,4,4,5,5,6,6],"right_children":[2,4,6,8,10,12,14,-1,-1,-1,-1,-1,-1,-1,-1],"split_conditions":[1.5E1,1.3E1,5.45E-1,6E0,2.3E1,2.6E1,2.4E1,2.3886492E-3,-1.2957434E-4,3.5702526E-3,5.8943825E-3,1.9504839E-3,-1.5094456E-3,-1.5025596E-3,-3.5023086E-3],"split_indices":[51,80,55,77,80,51,51,0,0,0,0,0,0,0,0],"split_type":[0,0,0,0,0,0,0,0,0,0,0,0,0,0,0],"sum_hessian":[6.6395806E3,3.2530654E3,3.3865154E3,1.6485707E3,1.6044946E3,1.9632131E3,1.4233022E3,1.1710428E3,4.7752786E2,9.700228E2,6.344718E2,1.3460935E3,6.171196E2,8.2534283E2,5.979595E2],"tree_param":{"num_deleted":"0","num_feature":"106","num_nodes":"15","size_leaf_vector":"1"}},{"base_weights":[-1.2385438E-1,-3.0285424E-1,4.8080936E-2,-1.6432069E-1,-4.4509223E-1,-1.8225376E-1,1.5550922E-1,-2.3652122E-3,1.2828017E-4,-3.5361105E-3,-5.842939E-3,5.5763197E-5,-3.2169414E-3,5.220444E-4,2.9182816E-3],"categories":[],"categories_nodes":[],"categories_segments":[],"categories_sizes":[],"default_left":[0,0,0,0,0,0,0,0,0,0,0,0,0,0,0],"id":38,"left_children":[1,3,5,7,9,11,13,-1,-1,-1,-1,-1,-1,-1,-1],"loss_changes":[2.0432806E2,6.401926E1,8.383794E1,2.1098747E1,2.0222778E1,2.82286E1,3.2519047E1,0E0,0E0,0E0,0E0,0E0,0E0,0E0,0E0],"parents":[2147483647,0,0,1,1,2,2,3,3,4,4,5,5,6,6],"right_children":[2,4,6,8,10,12,14,-1,-1,-1,-1,-1,-1,-1,-1],"split_conditions":[1.5E1,1.3E1,-1.9E0,6E0,2.3E1,-3.7E0,2.4E1,-2.3652122E-3,1.2828017E-4,-3.5361105E-3,-5.842939E-3,5.5763197E-5,-3.2169414E-3,5.220444E-4,2.9182816E-3],"split_indices":[51,80,77,77,80,25,51,0,0,0,0,0,0,0,0],"split_type":[0,0,0,0,0,0,0,0,0,0,0,0,0,0,0],"sum_hessian":[6.6376436E3,3.2516387E3,3.386005E3,1.648362E3,1.6032767E3,1.076725E3,2.30928E3,1.170831E3,4.7753104E2,9.696064E2,6.336703E2,4.5917014E2,6.1755493E2,1.3145072E3,9.9477264E2],"tree_param":{"num_deleted":"0","num_feature":"106","num_nodes":"15","size_leaf_vector":"1"}},{"base_weights":[1.2385438E-1,3.0285424E-1,-4.8080932E-2,1.6432066E-1,4.4509226E-1,1.8225378E-1,-1.5550922E-1,2.3652122E-3,-1.2828063E-4,3.5361107E-3,5.842939E-3,-5.576339E-5,3.2169418E-3,-5.220443E-4,-2.9182818E-3],"categories":[],"categories_nodes":[],"categories_segments":[],"categories_sizes":[],"default_left":[0,0,0,0,0,0,0,0,0,0,0,0,0,0,0],"id":39,"left_children":[1,3,5,7,9,11,13,-1,-1,-1,-1,-1,-1,-1,-1],"loss_changes":[2.0432806E2,6.401926E1,8.383796E1,2.1098755E1,2.0222778E1,2.8228607E1,3.2519047E1,0E0,0E0,0E0,0E0,0E0,0E0,0E0,0E0],"parents":[2147483647,0,0,1,1,2,2,3,3,4,4,5,5,6,6],"right_children":[2,4,6,8,10,12,14,-1,-1,-1,-1,-1,-1,-1,-1],"split_conditions":[1.5E1,1.3E1,-1.9E0,6E0,2.3E1,-3.7E0,2.4E1,2.3652122E-3,-1.2828063E-4,3.5361107E-3,5.842939E-3,-5.576339E-5,3.2169418E-3,-5.220443E-4,-2.9182818E-3],"split_indices":[51,80,77,77,80,25,51,0,0,0,0,0,0,0,0],"split_type":[0,0,0,0,0,0,0,0,0,0,0,0,0,0,0],"sum_hessian":[6.6376436E3,3.2516387E3,3.386005E3,1.648362E3,1.6032767E3,1.0767251E3,2.3092798E3,1.170831E3,4.7753104E2,9.696064E2,6.336703E2,4.5917014E2,6.1755493E2,1.3145072E3,9.9477264E2],"tree_param":{"num_deleted":"0","num_feature":"106","num_nodes":"15","size_leaf_vector":"1"}},{"base_weights":[-1.2265658E-1,-2.3593205E-1,1.4442429E-1,-9.682636E-2,-3.9392E-1,2.9067588E-1,-4.9350634E-3,-2.3654827E-3,2.8578247E-4,-3.06284E-3,-5.1252553E-3,4.159804E-3,2.1206483E-3,1.2776077E-3,-1.5060066E-3],"categories":[],"categories_nodes":[],"categories_segments":[],"categories_sizes":[],"default_left":[0,0,0,0,0,0,0,0,0,0,0,0,0,0,0],"id":40,"left_children":[1,3,5,7,9,11,13,-1,-1,-1,-1,-1,-1,-1,-1],"loss_changes":[2.0081464E2,1.02385284E2,4.3188877E1,4.3454926E1,2.2521027E1,9.751762E0,1.8945082E1,0E0,0E0,0E0,0E0,0E0,0E0,0E0,0E0],"parents":[2147483647,0,0,1,1,2,2,3,3,4,4,5,5,6,6],"right_children":[2,4,6,8,10,12,14,-1,-1,-1,-1,-1,-1,-1,-1],"split_conditions":[2E1,1.4E1,1.6E1,1E1,2.3E1,-6.1E0,-4.8E0,-2.3654827E-3,2.8578247E-4,-3.06284E-3,-5.1252553E-3,4.159804E-3,2.1206483E-3,1.2776077E-3,-1.5060066E-3],"split_indices":[28,80,103,51,80,25,25,0,0,0,0,0,0,0,0],"split_type":[0,0,0,0,0,0,0,0,0,0,0,0,0,0,0],"sum_hessian":[6.635559E3,4.659478E3,1.9760809E3,2.4786672E3,2.1808108E3,9.9794977E2,9.7813116E2,1.171988E3,1.3066791E3,1.2562025E3,9.2460834E2,3.8306293E2,6.1488684E2,5.1191702E2,4.6621414E2],"tree_param":{"num_deleted":"0","num_feature":"106","num_nodes":"15","size_leaf_vector":"1"}},{"base_weights":[1.2265657E-1,2.3593204E-1,-1.444243E-1,9.682638E-2,3.9391997E-1,-2.9067585E-1,4.9350173E-3,2.365483E-3,-2.8578218E-4,3.06284E-3,5.125255E-3,-4.159804E-3,-2.120648E-3,-1.2776086E-3,1.5060063E-3],"categories":[],"categories_nodes":[],"categories_segments":[],"categories_sizes":[],"default_left":[0,0,0,0,0,0,0,0,0,0,0,0,0,0,0],"id":41,"left_children":[1,3,5,7,9,11,13,-1,-1,-1,-1,-1,-1,-1,-1],"loss_changes":[2.0081464E2,1.02385254E2,4.3188858E1,4.3454918E1,2.2520996E1,9.751762E0,1.894509E1,0E0,0E0,0E0,0E0,0E0,0E0,0E0,0E0],"parents":[2147483647,0,0,1,1,2,2,3,3,4,4,5,5,6,6],"right_children":[2,4,6,8,10,12,14,-1,-1,-1,-1,-1,-1,-1,-1],"split_conditions":[2E1,1.4E1,1.6E1,1E1,2.3E1,-6.1E0,-4.8E0,2.365483E-3,-2.8578218E-4,3.06284E-3,5.125255E-3,-4.159804E-3,-2.120648E-3,-1.2776086E-3,1.5060063E-3],"split_indices":[28,80,103,51,80,25,25,0,0,0,0,0,0,0,0],"split_type":[0,0,0,0,0,0,0,0,0,0,0,0,0,0,0],"sum_hessian":[6.635559E3,4.659478E3,1.9760809E3,2.4786672E3,2.1808108E3,9.979498E2,9.7813116E2,1.171988E3,1.3066791E3,1.2562025E3,9.2460834E2,3.8306293E2,6.148869E2,5.1191702E2,4.662141E2],"tree_param":{"num_deleted":"0","num_feature":"106","num_nodes":"15","size_leaf_vector":"1"}},{"base_weights":[-1.2147099E-1,-2.975007E-1,4.752882E-2,-1.612464E-1,-4.3756914E-1,-1.9845733E-1,1.4480913E-1,-2.4308476E-3,-7.6881384E-5,-3.4749252E-3,-5.7486407E-3,5.394196E-4,-3.1155294E-3,4.520893E-4,2.7578287E-3],"categories":[],"categories_nodes":[],"categories_segments":[],"categories_sizes":[],"default_left":[0,0,0,0,0,0,0,0,0,0,0,0,0,0,0],"id":42,"left_children":[1,3,5,7,9,11,13,-1,-1,-1,-1,-1,-1,-1,-1],"loss_changes":[1.9738022E2,6.195053E1,8.104575E1,2.0719566E1,1.9610504E1,2.7417343E1,3.1644386E1,0E0,0E0,0E0,0E0,0E0,0E0,0E0,0E0],"parents":[2147483647,0,0,1,1,2,2,3,3,4,4,5,5,6,6],"right_children":[2,4,6,8,10,12,14,-1,-1,-1,-1,-1,-1,-1,-1],"split_conditions":[1.5E1,1.3E1,-2.4E0,5.3E0,2.3E1,-5.3E0,2.4E1,-2.4308476E-3,-7.6881384E-5,-3.4749252E-3,-5.7486407E-3,5.394196E-4,-3.1155294E-3,4.520893E-4,2.7578287E-3],"split_indices":[51,80,77,77,80,25,51,0,0,0,0,0,0,0,0],"split_type":[0,0,0,0,0,0,0,0,0,0,0,0,0,0,0],"sum_hessian":[6.6333794E3,3.2487405E3,3.384639E3,1.6478823E3,1.6008583E3,9.588981E2,2.425741E3,1.0745966E3,5.7328577E2,9.687866E2,6.3207166E2,2.9687506E2,6.62023E2,1.3786665E3,1.0470745E3],"tree_param":{"num_deleted":"0","num_feature":"106","num_nodes":"15","size_leaf_vector":"1"}},{"base_weights":[1.2147099E-1,2.975007E-1,-4.7528822E-2,1.6124639E-1,4.3756914E-1,1.9845735E-1,-1.4480914E-1,2.4308476E-3,7.688096E-5,3.4749252E-3,5.7486407E-3,-5.394189E-4,3.1155294E-3,-4.5208973E-4,-2.7578284E-3],"categories":[],"categories_nodes":[],"categories_segments":[],"categories_sizes":[],"default_left":[0,0,0,0,0,0,0,0,0,0,0,0,0,0,0],"id":43,"left_children":[1,3,5,7,9,11,13,-1,-1,-1,-1,-1,-1,-1,-1],"loss_changes":[1.9738022E2,6.19505E1,8.104577E1,2.0719574E1,1.9610535E1,2.7417336E1,3.1644371E1,0E0,0E0,0E0,0E0,0E0,0E0,0E0,0E0],"parents":[2147483647,0,0,1,1,2,2,3,3,4,4,5,5,6,6],"right_children":[2,4,6,8,10,12,14,-1,-1,-1,-1,-1,-1,-1,-1],"split_conditions":[1.5E1,1.3E1,-2.4E0,5.3E0,2.3E1,-5.3E0,2.4E1,2.4308476E-3,7.688096E-5,3.4749252E-3,5.7486407E-3,-5.394189E-4,3.1155294E-3,-4.5208973E-4,-2.7578284E-3],"split_indices":[51,80,77,77,80,25,51,0,0,0,0,0,0,0,0],"split_type":[0,0,0,0,0,0,0,0,0,0,0,0,0,0,0],"sum_hessian":[6.6333794E3,3.2487405E3,3.384639E3,1.6478823E3,1.6008583E3,9.588981E2,2.425741E3,1.0745966E3,5.7328577E2,9.687866E2,6.3207166E2,2.9687506E2,6.62023E2,1.3786664E3,1.0470745E3],"tree_param":{"num_deleted":"0","num_feature":"106","num_nodes":"15","size_leaf_vector":"1"}},{"base_weights":[-1.202988E-1,9.512898E-2,-2.5611132E-1,-4.0637556E-2,2.4300732E-1,-3.7818274E-1,-7.922061E-2,1.184435E-3,-1.6856078E-3,1.1698689E-3,3.2142054E-3,-3.0280056E-3,-5.255272E-3,-2.1141437E-3,4.092655E-4],"categories":[],"categories_nodes":[],"categories_segments":[],"categories_sizes":[],"default_left":[0,0,0,0,0,0,0,0,0,0,0,0,0,0,0],"id":44,"left_children":[1,3,5,7,9,11,13,-1,-1,-1,-1,-1,-1,-1,-1],"loss_changes":[1.9406664E2,5.1510323E1,8.7811584E1,2.725258E1,1.2096642E1,2.657248E1,2.641048E1,0E0,0E0,0E0,0E0,0E0,0E0,0E0,0E0],"parents":[2147483647,0,0,1,1,2,2,3,3,4,4,5,5,6,6],"right_children":[2,4,6,8,10,12,14,-1,-1,-1,-1,-1,-1,-1,-1],"split_conditions":[4.69E-1,5.14E-1,1.7E0,-4.7E0,2.2E1,2.3E1,9E0,1.184435E-3,-1.6856078E-3,1.1698689E-3,3.2142054E-3,-3.0280056E-3,-5.255272E-3,-2.1141437E-3,4.092655E-4],"split_indices":[3,55,77,25,28,80,51,0,0,0,0,0,0,0,0],"split_type":[0,0,0,0,0,0,0,0,0,0,0,0,0,0,0],"sum_hessian":[6.6311567E3,2.5641558E3,4.0670012E3,1.3372013E3,1.2269543E3,2.405701E3,1.6613004E3,5.9604895E2,7.411524E2,4.715703E2,7.5538403E2,1.5935089E3,8.1219196E2,7.906338E2,8.7066656E2],"tree_param":{"num_deleted":"0","num_feature":"106","num_nodes":"15","size_leaf_vector":"1"}},{"base_weights":[1.2029881E-1,-9.5128976E-2,2.5611132E-1,4.0637564E-2,-2.4300732E-1,3.7818274E-1,7.922062E-2,-1.184435E-3,1.685608E-3,-1.1698687E-3,-3.2142051E-3,3.0280056E-3,5.255272E-3,2.1141432E-3,-4.092651E-4],"categories":[],"categories_nodes":[],"categories_segments":[],"categories_sizes":[],"default_left":[0,0,0,0,0,0,0,0,0,0,0,0,0,0,0],"id":45,"left_children":[1,3,5,7,9,11,13,-1,-1,-1,-1,-1,-1,-1,-1],"loss_changes":[1.9406662E2,5.1510323E1,8.7811615E1,2.7252583E1,1.2096642E1,2.6572449E1,2.6410461E1,0E0,0E0,0E0,0E0,0E0,0E0,0E0,0E0],"parents":[2147483647,0,0,1,1,2,2,3,3,4,4,5,5,6,6],"right_children":[2,4,6,8,10,12,14,-1,-1,-1,-1,-1,-1,-1,-1],"split_conditions":[4.69E-1,5.14E-1,1.7E0,-4.7E0,2.2E1,2.3E1,9E0,-1.184435E-3,1.685608E-3,-1.1698687E-3,-3.2142051E-3,3.0280056E-3,5.255272E-3,2.1141432E-3,-4.092651E-4],"split_indices":[3,55,77,25,28,80,51,0,0,0,0,0,0,0,0],"split_type":[0,0,0,0,0,0,0,0,0,0,0,0,0,0,0],"sum_hessian":[6.6311567E3,2.5641558E3,4.0670012E3,1.3372014E3,1.2269543E3,2.405701E3,1.6613004E3,5.9604895E2,7.411524E2,4.715703E2,7.5538403E2,1.5935089E3,8.12192E2,7.9063385E2,8.7066656E2],"tree_param":{"num_deleted":"0","num_feature":"106","num_nodes":"15","size_leaf_vector":"1"}},{"base_weights":[-1.1913807E-1,-2.9222518E-1,4.6943806E-2,-1.582078E-1,-4.301773E-1,-8.297163E-2,2.2605625E-1,-2.289545E-3,1.5277196E-4,-3.4150626E-3,-5.655792E-3,-1.8703156E-3,1.4384035E-3,1.461561E-3,3.3611136E-3],"categories":[],"categories_nodes":[],"categories_segments":[],"categories_sizes":[],"default_left":[0,0,0,0,0,0,0,0,0,0,0,0,0,0,0],"id":46,"left_children":[1,3,5,7,9,11,13,-1,-1,-1,-1,-1,-1,-1,-1],"loss_changes":[1.9060054E2,5.995529E1,7.876896E1,2.0234795E1,1.900769E1,4.6340088E1,1.2464066E1,0E0,0E0,0E0,0E0,0E0,0E0,0E0,0E0],"parents":[2147483647,0,0,1,1,2,2,3,3,4,4,5,5,6,6],"right_children":[2,4,6,8,10,12,14,-1,-1,-1,-1,-1,-1,-1,-1],"split_conditions":[1.5E1,1.3E1,5.45E-1,6E0,2.3E1,2.6E1,2.4E1,-2.289545E-3,1.5277196E-4,-3.4150626E-3,-5.655792E-3,-1.8703156E-3,1.4384035E-3,1.461561E-3,3.3611136E-3],"split_indices":[51,80,55,77,80,51,51,0,0,0,0,0,0,0,0],"split_type":[0,0,0,0,0,0,0,0,0,0,0,0,0,0,0],"sum_hessian":[6.6288843E3,3.2456133E3,3.3832708E3,1.6473738E3,1.5982395E3,1.9612537E3,1.4220172E3,1.1699512E3,4.7742255E2,9.679061E2,6.303334E2,1.3445554E3,6.1669824E2,8.252284E2,5.967888E2],"tree_param":{"num_deleted":"0","num_feature":"106","num_nodes":"15","size_leaf_vector":"1"}},{"base_weights":[1.1913806E-1,2.9222518E-1,-4.6943825E-2,1.5820785E-1,4.301773E-1,8.2971625E-2,-2.2605628E-1,2.2895453E-3,-1.5277168E-4,3.4150623E-3,5.655792E-3,1.8703155E-3,-1.4384035E-3,-1.4615614E-3,-3.3611136E-3],"categories":[],"categories_nodes":[],"categories_segments":[],"categories_sizes":[],"default_left":[0,0,0,0,0,0,0,0,0,0,0,0,0,0,0],"id":47,"left_children":[1,3,5,7,9,11,13,-1,-1,-1,-1,-1,-1,-1,-1],"loss_changes":[1.9060059E2,5.995526E1,7.876897E1,2.0234798E1,1.900769E1,4.634009E1,1.2464058E1,0E0,0E0,0E0,0E0,0E0,0E0,0E0,0E0],"parents":[2147483647,0,0,1,1,2,2,3,3,4,4,5,5,6,6],"right_children":[2,4,6,8,10,12,14,-1,-1,-1,-1,-1,-1,-1,-1],"split_conditions":[1.5E1,1.3E1,5.45E-1,6E0,2.3E1,2.6E1,2.4E1,2.2895453E-3,-1.5277168E-4,3.4150623E-3,5.655792E-3,1.8703155E-3,-1.4384035E-3,-1.4615614E-3,-3.3611136E-3],"split_indices":[51,80,55,77,80,51,51,0,0,0,0,0,0,0,0],"split_type":[0,0,0,0,0,0,0,0,0,0,0,0,0,0,0],"sum_hessian":[6.628884E3,3.2456133E3,3.3832708E3,1.6473737E3,1.5982395E3,1.9612535E3,1.4220172E3,1.1699512E3,4.7742252E2,9.679061E2,6.303334E2,1.3445553E3,6.1669824E2,8.2522845E2,5.967888E2],"tree_param":{"num_deleted":"0","num_feature":"106","num_nodes":"15","size_leaf_vector":"1"}},{"base_weights":[-1.1798962E-1,-2.2747484E-1,1.3996592E-1,-1.3756077E-1,-4.5739293E-1,-1.3882954E-1,2.141382E-1,-2.9865094E-3,-4.441327E-4,-4.972726E-3,-2.7076015E-3,-2.2809387E-3,6.154044E-4,2.7799222E-3,3.2452762E-4],"categories":[],"categories_nodes":[],"categories_segments":[],"categories_sizes":[],"default_left":[0,0,0,0,0,0,0,0,0,0,0,0,0,0,0],"id":48,"left_children":[1,3,5,7,9,11,13,-1,-1,-1,-1,-1,-1,-1,-1],"loss_changes":[1.8720946E2,9.613097E1,4.087909E1,5.02006E1,9.59848E0,7.449523E0,1.8097137E1,0E0,0E0,0E0,0E0,0E0,0E0,0E0,0E0],"parents":[2147483647,0,0,1,1,2,2,3,3,4,4,5,5,6,6],"right_children":[2,4,6,8,10,12,14,-1,-1,-1,-1,-1,-1,-1,-1],"split_conditions":[2E1,2E1,3.6E-1,8E0,-2E0,2.7E1,-2.7E0,-2.9865094E-3,-4.441327E-4,-4.972726E-3,-2.7076015E-3,-2.2809387E-3,6.154044E-4,2.7799222E-3,3.2452762E-4],"split_indices":[28,80,55,51,77,28,25,0,0,0,0,0,0,0,0],"split_type":[0,0,0,0,0,0,0,0,0,0,0,0,0,0,0],"sum_hessian":[6.626559E3,4.652146E3,1.974413E3,3.3454421E3,1.3067039E3,4.147179E2,1.559695E3,1.2248934E3,2.1205486E3,1.0752745E3,2.3142924E2,2.868075E2,1.2791041E2,1.1536946E3,4.0600043E2],"tree_param":{"num_deleted":"0","num_feature":"106","num_nodes":"15","size_leaf_vector":"1"}},{"base_weights":[1.1798963E-1,2.2747484E-1,-1.3996589E-1,1.3756077E-1,4.5739293E-1,1.3882954E-1,-2.1413817E-1,2.9865094E-3,4.441326E-4,4.972726E-3,2.7076015E-3,2.2809387E-3,-6.154044E-4,-2.7799217E-3,-3.2452753E-4],"categories":[],"categories_nodes":[],"categories_segments":[],"categories_sizes":[],"default_left":[0,0,0,0,0,0,0,0,0,0,0,0,0,0,0],"id":49,"left_children":[1,3,5,7,9,11,13,-1,-1,-1,-1,-1,-1,-1,-1],"loss_changes":[1.8720947E2,9.6130936E1,4.0879074E1,5.02006E1,9.59845E0,7.449523E0,1.8097137E1,0E0,0E0,0E0,0E0,0E0,0E0,0E0,0E0],"parents":[2147483647,0,0,1,1,2,2,3,3,4,4,5,5,6,6],"right_children":[2,4,6,8,10,12,14,-1,-1,-1,-1,-1,-1,-1,-1],"split_conditions":[2E1,2E1,3.6E-1,8E0,-2E0,2.7E1,-2.7E0,2.9865094E-3,4.441326E-4,4.972726E-3,2.7076015E-3,2.2809387E-3,-6.154044E-4,-2.7799217E-3,-3.2452753E-4],"split_indices":[28,80,55,51,77,28,25,0,0,0,0,0,0,0,0],"split_type":[0,0,0,0,0,0,0,0,0,0,0,0,0,0,0],"sum_hessian":[6.626559E3,4.652146E3,1.9744128E3,3.3454421E3,1.3067039E3,4.147179E2,1.559695E3,1.2248936E3,2.1205486E3,1.0752745E3,2.3142924E2,2.868075E2,1.2791041E2,1.1536946E3,4.0600043E2],"tree_param":{"num_deleted":"0","num_feature":"106","num_nodes":"15","size_leaf_vector":"1"}},{"base_weights":[-1.1685308E-1,-2.870755E-1,4.6381533E-2,-1.5492558E-1,-4.2328843E-1,-8.163337E-2,2.2287115E-1,-2.3507806E-3,-4.621063E-5,-3.3604775E-3,-5.5676242E-3,-1.8378514E-3,1.409801E-3,1.4467698E-3,3.3066208E-3],"categories":[],"categories_nodes":[],"categories_segments":[],"categories_sizes":[],"default_left":[0,0,0,0,0,0,0,0,0,0,0,0,0,0,0],"id":50,"left_children":[1,3,5,7,9,11,13,-1,-1,-1,-1,-1,-1,-1,-1],"loss_changes":[1.8410278E2,5.831601E1,7.6448746E1,1.9850346E1,1.8403534E1,4.4629734E1,1.19414215E1,0E0,0E0,0E0,0E0,0E0,0E0,0E0,0E0],"parents":[2147483647,0,0,1,1,2,2,3,3,4,4,5,5,6,6],"right_children":[2,4,6,8,10,12,14,-1,-1,-1,-1,-1,-1,-1,-1],"split_conditions":[1.5E1,1.3E1,5.45E-1,5.3E0,2.3E1,2.6E1,2.4E1,-2.3507806E-3,-4.621063E-5,-3.3604775E-3,-5.5676242E-3,-1.8378514E-3,1.409801E-3,1.4467698E-3,3.3066208E-3],"split_indices":[51,80,55,77,80,51,51,0,0,0,0,0,0,0,0],"split_type":[0,0,0,0,0,0,0,0,0,0,0,0,0,0,0],"sum_hessian":[6.6242134E3,3.2423281E3,3.3818855E3,1.6467935E3,1.5955347E3,1.960439E3,1.4214464E3,1.0736741E3,5.7311945E2,9.6700397E2,6.2853076E2,1.3439214E3,6.1651764E2,8.251816E2,5.962648E2],"tree_param":{"num_deleted":"0","num_feature":"106","num_nodes":"15","size_leaf_vector":"1"}},{"base_weights":[1.1685309E-1,2.870755E-1,-4.6381515E-2,1.5492557E-1,4.2328843E-1,8.1633374E-2,-2.2287111E-1,2.3507804E-3,4.6210713E-5,3.3604773E-3,5.567625E-3,1.8378514E-3,-1.409801E-3,-1.4467693E-3,-3.3066203E-3],"categories":[],"categories_nodes":[],"categories_segments":[],"categories_sizes":[],"default_left":[0,0,0,0,0,0,0,0,0,0,0,0,0,0,0],"id":51,"left_children":[1,3,5,7,9,11,13,-1,-1,-1,-1,-1,-1,-1,-1],"loss_changes":[1.8410272E2,5.831604E1,7.644873E1,1.9850342E1,1.8403564E1,4.4629734E1,1.19414215E1,0E0,0E0,0E0,0E0,0E0,0E0,0E0,0E0],"parents":[2147483647,0,0,1,1,2,2,3,3,4,4,5,5,6,6],"right_children":[2,4,6,8,10,12,14,-1,-1,-1,-1,-1,-1,-1,-1],"split_conditions":[1.5E1,1.3E1,5.45E-1,5.3E0,2.3E1,2.6E1,2.4E1,2.3507804E-3,4.6210713E-5,3.3604773E-3,5.567625E-3,1.8378514E-3,-1.409801E-3,-1.4467693E-3,-3.3066203E-3],"split_indices":[51,80,55,77,80,51,51,0,0,0,0,0,0,0,0],"split_type":[0,0,0,0,0,0,0,0,0,0,0,0,0,0,0],"sum_hessian":[6.6242134E3,3.2423281E3,3.3818853E3,1.6467935E3,1.5955348E3,1.960439E3,1.4214464E3,1.0736741E3,5.7311945E2,9.6700397E2,6.2853076E2,1.3439214E3,6.1651764E2,8.2518164E2,5.962648E2],"tree_param":{"num_deleted":"0","num_feature":"106","num_nodes":"15","size_leaf_vector":"1"}},{"base_weights":[-1.157291E-1,9.228713E-2,-2.4700361E-1,-1.2489848E-1,1.7988913E-1,-3.6578214E-1,-7.5264975E-2,5.8308855E-4,-2.4270164E-3,6.1875634E-4,2.7299016E-3,-2.9285294E-3,-5.088575E-3,-2.0395995E-3,4.1605427E-4],"categories":[],"categories_nodes":[],"categories_segments":[],"categories_sizes":[],"default_left":[0,0,0,0,0,0,0,0,0,0,0,0,0,0,0],"id":52,"left_children":[1,3,5,7,9,11,13,-1,-1,-1,-1,-1,-1,-1,-1],"loss_changes":[1.8087189E2,4.8788296E1,8.280463E1,1.5926519E1,2.0054985E1,2.4895294E1,2.4997808E1,0E0,0E0,0E0,0E0,0E0,0E0,0E0,0E0],"parents":[2147483647,0,0,1,1,2,2,3,3,4,4,5,5,6,6],"right_children":[2,4,6,8,10,12,14,-1,-1,-1,-1,-1,-1,-1,-1],"split_conditions":[4.69E-1,-2.4E0,1.7E0,-5.3E0,2.4E1,2.3E1,9E0,5.8308855E-4,-2.4270164E-3,6.1875634E-4,2.7299016E-3,-2.9285294E-3,-5.088575E-3,-2.0395995E-3,4.1605427E-4],"split_indices":[3,77,77,25,51,80,51,0,0,0,0,0,0,0,0],"split_type":[0,0,0,0,0,0,0,0,0,0,0,0,0,0,0],"sum_hessian":[6.6217554E3,2.5621292E3,4.0596265E3,7.3628436E2,1.8258448E3,2.399172E3,1.6604541E3,2.8834915E2,4.4793518E2,8.0592755E2,1.0199173E3,1.5911628E3,8.0800934E2,7.8989496E2,8.705592E2],"tree_param":{"num_deleted":"0","num_feature":"106","num_nodes":"15","size_leaf_vector":"1"}},{"base_weights":[1.1572909E-1,-9.228712E-2,2.470036E-1,1.24898486E-1,-1.7988913E-1,3.657821E-1,7.526495E-2,-5.8308884E-4,2.4270169E-3,-6.1875617E-4,-2.7299016E-3,2.9285294E-3,5.0885747E-3,2.039599E-3,-4.160544E-4],"categories":[],"categories_nodes":[],"categories_segments":[],"categories_sizes":[],"default_left":[0,0,0,0,0,0,0,0,0,0,0,0,0,0,0],"id":53,"left_children":[1,3,5,7,9,11,13,-1,-1,-1,-1,-1,-1,-1,-1],"loss_changes":[1.8087189E2,4.8788292E1,8.280466E1,1.5926525E1,2.0054985E1,2.4895233E1,2.4997803E1,0E0,0E0,0E0,0E0,0E0,0E0,0E0,0E0],"parents":[2147483647,0,0,1,1,2,2,3,3,4,4,5,5,6,6],"right_children":[2,4,6,8,10,12,14,-1,-1,-1,-1,-1,-1,-1,-1],"split_conditions":[4.69E-1,-2.4E0,1.7E0,-5.3E0,2.4E1,2.3E1,9E0,-5.8308884E-4,2.4270169E-3,-6.1875617E-4,-2.7299016E-3,2.9285294E-3,5.0885747E-3,2.039599E-3,-4.160544E-4],"split_indices":[3,77,77,25,51,80,51,0,0,0,0,0,0,0,0],"split_type":[0,0,0,0,0,0,0,0,0,0,0,0,0,0,0],"sum_hessian":[6.6217554E3,2.5621292E3,4.0596262E3,7.362843E2,1.8258448E3,2.399172E3,1.6604541E3,2.8834915E2,4.4793518E2,8.0592755E2,1.0199173E3,1.5911628E3,8.0800934E2,7.8989496E2,8.705592E2],"tree_param":{"num_deleted":"0","num_feature":"106","num_nodes":"15","size_leaf_vector":"1"}},{"base_weights":[-1.14618175E-1,-2.82022E-1,4.5811854E-2,-1.5199442E-1,-4.162481E-1,-1.5508348E-1,1.5496619E-1,-2.213424E-3,1.7947836E-4,-3.3034629E-3,-5.4794806E-3,4.9868954E-4,-2.6439012E-3,5.9283414E-4,2.8306928E-3],"categories":[],"categories_nodes":[],"categories_segments":[],"categories_sizes":[],"default_left":[0,0,0,0,0,0,0,0,0,0,0,0,0,0,0],"id":54,"left_children":[1,3,5,7,9,11,13,-1,-1,-1,-1,-1,-1,-1,-1],"loss_changes":[1.7780844E2,5.6481567E1,7.4172585E1,1.9416721E1,1.7847748E1,2.6693039E1,2.6844273E1,0E0,0E0,0E0,0E0,0E0,0E0,0E0,0E0],"parents":[2147483647,0,0,1,1,2,2,3,3,4,4,5,5,6,6],"right_children":[2,4,6,8,10,12,14,-1,-1,-1,-1,-1,-1,-1,-1],"split_conditions":[1.5E1,1.3E1,-1.4E0,6E0,2.3E1,-4.8E0,2.4E1,-2.213424E-3,1.7947836E-4,-3.3034629E-3,-5.4794806E-3,4.9868954E-4,-2.6439012E-3,5.9283414E-4,2.8306928E-3],"split_indices":[51,80,77,77,80,25,51,0,0,0,0,0,0,0,0],"split_type":[0,0,0,0,0,0,0,0,0,0,0,0,0,0,0],"sum_hessian":[6.61918E3,3.2388164E3,3.3803635E3,1.6462212E3,1.5925952E3,1.1899236E3,2.19044E3,1.16892E3,4.7730124E2,9.6601575E2,6.2657947E2,4.1407224E2,7.7585126E2,1.2547241E3,9.357159E2],"tree_param":{"num_deleted":"0","num_feature":"106","num_nodes":"15","size_leaf_vector":"1"}},{"base_weights":[1.1461817E-1,2.8202197E-1,-4.5811865E-2,1.5199439E-1,4.1624814E-1,1.5508346E-1,-1.5496619E-1,2.2134238E-3,-1.7947858E-4,3.303463E-3,5.4794806E-3,-4.986897E-4,2.6439007E-3,-5.9283414E-4,-2.8306928E-3],"categories":[],"categories_nodes":[],"categories_segments":[],"categories_sizes":[],"default_left":[0,0,0,0,0,0,0,0,0,0,0,0,0,0,0],"id":55,"left_children":[1,3,5,7,9,11,13,-1,-1,-1,-1,-1,-1,-1,-1],"loss_changes":[1.7780844E2,5.6481598E1,7.417258E1,1.9416721E1,1.7847748E1,2.6693031E1,2.6844254E1,0E0,0E0,0E0,0E0,0E0,0E0,0E0,0E0],"parents":[2147483647,0,0,1,1,2,2,3,3,4,4,5,5,6,6],"right_children":[2,4,6,8,10,12,14,-1,-1,-1,-1,-1,-1,-1,-1],"split_conditions":[1.5E1,1.3E1,-1.4E0,6E0,2.3E1,-4.8E0,2.4E1,2.2134238E-3,-1.7947858E-4,3.303463E-3,5.4794806E-3,-4.986897E-4,2.6439007E-3,-5.9283414E-4,-2.8306928E-3],"split_indices":[51,80,77,77,80,25,51,0,0,0,0,0,0,0,0],"split_type":[0,0,0,0,0,0,0,0,0,0,0,0,0,0,0],"sum_hessian":[6.61918E3,3.2388164E3,3.3803635E3,1.6462212E3,1.5925952E3,1.1899235E3,2.19044E3,1.16892E3,4.773012E2,9.6601575E2,6.2657947E2,4.1407224E2,7.7585126E2,1.2547241E3,9.357159E2],"tree_param":{"num_deleted":"0","num_feature":"106","num_nodes":"15","size_leaf_vector":"1"}},{"base_weights":[-1.1351956E-1,-2.1938221E-1,1.3569584E-1,-1.3229874E-1,-4.4283235E-1,2.4928004E-3,2.825379E-1,-2.9283608E-3,-4.2415384E-4,-3.8682602E-3,-5.7316194E-3,7.872093E-4,-1.7987121E-3,4.175811E-3,1.9563073E-3],"categories":[],"categories_nodes":[],"categories_segments":[],"categories_sizes":[],"default_left":[0,0,0,0,0,0,0,0,0,0,0,0,0,0,0],"id":56,"left_children":[1,3,5,7,9,11,13,-1,-1,-1,-1,-1,-1,-1,-1],"loss_changes":[1.7461734E2,9.032687E1,3.860177E1,4.8237324E1,9.283188E0,1.4413766E1,1.0935249E1,0E0,0E0,0E0,0E0,0E0,0E0,0E0,0E0],"parents":[2147483647,0,0,1,1,2,2,3,3,4,4,5,5,6,6],"right_children":[2,4,6,8,10,12,14,-1,-1,-1,-1,-1,-1,-1,-1],"split_conditions":[2E1,2E1,4E-1,7E0,3.7E1,2.6E1,-6.1E0,-2.9283608E-3,-4.2415384E-4,-3.8682602E-3,-5.7316194E-3,7.872093E-4,-1.7987121E-3,4.175811E-3,1.9563073E-3],"split_indices":[28,80,77,27,54,103,25,0,0,0,0,0,0,0,0],"split_type":[0,0,0,0,0,0,0,0,0,0,0,0,0,0,0],"sum_hessian":[6.616525E3,4.643964E3,1.9725607E3,3.342795E3,1.3011692E3,1.0348483E3,9.377124E2,1.199017E3,2.143778E3,9.1285693E2,3.883122E2,7.301951E2,3.0465314E2,3.6568198E2,5.720304E2],"tree_param":{"num_deleted":"0","num_feature":"106","num_nodes":"15","size_leaf_vector":"1"}},{"base_weights":[1.13519564E-1,2.1938221E-1,-1.3569584E-1,1.3229874E-1,4.4283235E-1,-2.492792E-3,-2.825379E-1,2.9283606E-3,4.24154E-4,3.8682607E-3,5.73162E-3,-7.8720925E-4,1.7987123E-3,-4.1758106E-3,-1.9563076E-3],"categories":[],"categories_nodes":[],"categories_segments":[],"categories_sizes":[],"default_left":[0,0,0,0,0,0,0,0,0,0,0,0,0,0,0],"id":57,"left_children":[1,3,5,7,9,11,13,-1,-1,-1,-1,-1,-1,-1,-1],"loss_changes":[1.7461731E2,9.0326904E1,3.8601772E1,4.8237305E1,9.283188E0,1.4413766E1,1.0935242E1,0E0,0E0,0E0,0E0,0E0,0E0,0E0,0E0],"parents":[2147483647,0,0,1,1,2,2,3,3,4,4,5,5,6,6],"right_children":[2,4,6,8,10,12,14,-1,-1,-1,-1,-1,-1,-1,-1],"split_conditions":[2E1,2E1,4E-1,7E0,3.7E1,2.6E1,-6.1E0,2.9283606E-3,4.24154E-4,3.8682607E-3,5.73162E-3,-7.8720925E-4,1.7987123E-3,-4.1758106E-3,-1.9563076E-3],"split_indices":[28,80,77,27,54,103,25,0,0,0,0,0,0,0,0],"split_type":[0,0,0,0,0,0,0,0,0,0,0,0,0,0,0],"sum_hessian":[6.616525E3,4.643964E3,1.9725607E3,3.342795E3,1.3011692E3,1.0348483E3,9.3771234E2,1.199017E3,2.1437778E3,9.1285693E2,3.883122E2,7.301951E2,3.0465314E2,3.6568198E2,5.720304E2],"tree_param":{"num_deleted":"0","num_feature":"106","num_nodes":"15","size_leaf_vector":"1"}},{"base_weights":[-1.12429E-1,-2.7711725E-1,4.5298878E-2,-1.4887093E-1,-4.0970185E-1,-7.911221E-2,2.1681078E-1,-2.1758194E-3,1.9449348E-4,-3.2507607E-3,-5.3971685E-3,-1.7790243E-3,1.3607956E-3,1.4217737E-3,3.1987499E-3],"categories":[],"categories_nodes":[],"categories_segments":[],"categories_sizes":[],"default_left":[0,0,0,0,0,0,0,0,0,0,0,0,0,0,0],"id":58,"left_children":[1,3,5,7,9,11,13,-1,-1,-1,-1,-1,-1,-1,-1],"loss_changes":[1.7184329E2,5.4966278E1,7.213444E1,1.9047947E1,1.7325714E1,4.168271E1,1.0886269E1,0E0,0E0,0E0,0E0,0E0,0E0,0E0,0E0],"parents":[2147483647,0,0,1,1,2,2,3,3,4,4,5,5,6,6],"right_children":[2,4,6,8,10,12,14,-1,-1,-1,-1,-1,-1,-1,-1],"split_conditions":[1.5E1,1.3E1,5.45E-1,6E0,2.3E1,2.6E1,2.4E1,-2.1758194E-3,1.9449348E-4,-3.2507607E-3,-5.3971685E-3,-1.7790243E-3,1.3607956E-3,1.4217737E-3,3.1987499E-3],"split_indices":[51,80,55,77,80,51,51,0,0,0,0,0,0,0,0],"split_type":[0,0,0,0,0,0,0,0,0,0,0,0,0,0,0],"sum_hessian":[6.6139985E3,3.2352368E3,3.3787615E3,1.6456027E3,1.5896343E3,1.9585846E3,1.4201769E3,1.1683649E3,4.7723773E2,9.6501416E2,6.246201E2,1.342461E3,6.161236E2,8.250795E2,5.950974E2],"tree_param":{"num_deleted":"0","num_feature":"106","num_nodes":"15","size_leaf_vector":"1"}},{"base_weights":[1.1242899E-1,2.7711725E-1,-4.529888E-2,1.4887093E-1,4.0970185E-1,7.91122E-2,-2.1681076E-1,2.1758194E-3,-1.9449378E-4,3.2507603E-3,5.3971685E-3,1.7790241E-3,-1.3607956E-3,-1.4217736E-3,-3.1987499E-3],"categories":[],"categories_nodes":[],"categories_segments":[],"categories_sizes":[],"default_left":[0,0,0,0,0,0,0,0,0,0,0,0,0,0,0],"id":59,"left_children":[1,3,5,7,9,11,13,-1,-1,-1,-1,-1,-1,-1,-1],"loss_changes":[1.7184326E2,5.496631E1,7.213444E1,1.904795E1,1.7325714E1,4.16827E1,1.0886253E1,0E0,0E0,0E0,0E0,0E0,0E0,0E0,0E0],"parents":[2147483647,0,0,1,1,2,2,3,3,4,4,5,5,6,6],"right_children":[2,4,6,8,10,12,14,-1,-1,-1,-1,-1,-1,-1,-1],"split_conditions":[1.5E1,1.3E1,5.45E-1,6E0,2.3E1,2.6E1,2.4E1,2.1758194E-3,-1.9449378E-4,3.2507603E-3,5.3971685E-3,1.7790241E-3,-1.3607956E-3,-1.4217736E-3,-3.1987499E-3],"split_indices":[51,80,55,77,80,51,51,0,0,0,0,0,0,0,0],"split_type":[0,0,0,0,0,0,0,0,0,0,0,0,0,0,0],"sum_hessian":[6.6139985E3,3.2352368E3,3.3787615E3,1.6456027E3,1.5896343E3,1.9585846E3,1.420177E3,1.1683649E3,4.7723773E2,9.6501416E2,6.246201E2,1.342461E3,6.161236E2,8.250795E2,5.950975E2],"tree_param":{"num_deleted":"0","num_feature":"106","num_nodes":"15","size_leaf_vector":"1"}},{"base_weights":[-1.1135175E-1,8.951993E-2,-2.3825492E-1,-1.2048563E-1,1.7423809E-1,-3.333198E-1,-3.4735195E-2,5.6725775E-4,-2.3456824E-3,6.0726015E-4,2.6391041E-3,-2.6742688E-3,-4.9321754E-3,-1.0562566E-3,1.6679822E-3],"categories":[],"categories_nodes":[],"categories_segments":[],"categories_sizes":[],"default_left":[0,0,0,0,0,0,0,0,0,0,0,0,0,0,0],"id":60,"left_children":[1,3,5,7,9,11,13,-1,-1,-1,-1,-1,-1,-1,-1],"loss_changes":[1.6857706E2,4.558057E1,7.839476E1,1.4906696E1,1.856142E1,2.8970398E1,1.8467258E1,0E0,0E0,0E0,0E0,0E0,0E0,0E0,0E0],"parents":[2147483647,0,0,1,1,2,2,3,3,4,4,5,5,6,6],"right_children":[2,4,6,8,10,12,14,-1,-1,-1,-1,-1,-1,-1,-1],"split_conditions":[4.69E-1,-2.4E0,3E0,-5.3E0,2.4E1,2.3E1,1.4E1,5.6725775E-4,-2.3456824E-3,6.0726015E-4,2.6391041E-3,-2.6742688E-3,-4.9321754E-3,-1.0562566E-3,1.6679822E-3],"split_indices":[3,77,77,25,51,80,51,0,0,0,0,0,0,0,0],"split_type":[0,0,0,0,0,0,0,0,0,0,0,0,0,0,0],"sum_hessian":[6.611296E3,2.559781E3,4.0515151E3,7.3568604E2,1.8240948E3,2.7611384E3,1.2903767E3,2.8832153E2,4.473645E2,8.057766E2,1.01831824E3,1.9572423E3,8.03896E2,9.549454E2,3.3543137E2],"tree_param":{"num_deleted":"0","num_feature":"106","num_nodes":"15","size_leaf_vector":"1"}},{"base_weights":[1.1135175E-1,-8.951995E-2,2.3825493E-1,1.2048561E-1,-1.7423809E-1,3.3331984E-1,3.4735195E-2,-5.672578E-4,2.3456821E-3,-6.072602E-4,-2.6391041E-3,2.6742688E-3,4.932176E-3,1.0562566E-3,-1.667982E-3],"categories":[],"categories_nodes":[],"categories_segments":[],"categories_sizes":[],"default_left":[0,0,0,0,0,0,0,0,0,0,0,0,0,0,0],"id":61,"left_children":[1,3,5,7,9,11,13,-1,-1,-1,-1,-1,-1,-1,-1],"loss_changes":[1.6857706E2,4.5580566E1,7.8394775E1,1.49066925E1,1.8561417E1,2.8970367E1,1.8467258E1,0E0,0E0,0E0,0E0,0E0,0E0,0E0,0E0],"parents":[2147483647,0,0,1,1,2,2,3,3,4,4,5,5,6,6],"right_children":[2,4,6,8,10,12,14,-1,-1,-1,-1,-1,-1,-1,-1],"split_conditions":[4.69E-1,-2.4E0,3E0,-5.3E0,2.4E1,2.3E1,1.4E1,-5.672578E-4,2.3456821E-3,-6.072602E-4,-2.6391041E-3,2.6742688E-3,4.932176E-3,1.0562566E-3,-1.667982E-3],"split_indices":[3,77,77,25,51,80,51,0,0,0,0,0,0,0,0],"split_type":[0,0,0,0,0,0,0,0,0,0,0,0,0,0,0],"sum_hessian":[6.611296E3,2.559781E3,4.0515151E3,7.3568604E2,1.8240948E3,2.7611384E3,1.2903767E3,2.8832153E2,4.473645E2,8.057766E2,1.01831824E3,1.9572423E3,8.0389606E2,9.549454E2,3.3543137E2],"tree_param":{"num_deleted":"0","num_feature":"106","num_nodes":"15","size_leaf_vector":"1"}},{"base_weights":[-1.10285744E-1,-2.722235E-1,4.470195E-2,-1.4593504E-1,-4.0299982E-1,-7.768805E-2,2.1342735E-1,-2.2349164E-3,-6.5944196E-6,-3.1965822E-3,-5.313379E-3,-1.7454413E-3,1.3324465E-3,1.4034023E-3,3.1445392E-3],"categories":[],"categories_nodes":[],"categories_segments":[],"categories_sizes":[],"default_left":[0,0,0,0,0,0,0,0,0,0,0,0,0,0,0],"id":62,"left_children":[1,3,5,7,9,11,13,-1,-1,-1,-1,-1,-1,-1,-1],"loss_changes":[1.6590057E2,5.33266E1,6.9775314E1,1.8545479E1,1.6809174E1,4.0038082E1,1.0444305E1,0E0,0E0,0E0,0E0,0E0,0E0,0E0,0E0],"parents":[2147483647,0,0,1,1,2,2,3,3,4,4,5,5,6,6],"right_children":[2,4,6,8,10,12,14,-1,-1,-1,-1,-1,-1,-1,-1],"split_conditions":[1.5E1,1.3E1,5.45E-1,5.3E0,2.3E1,2.6E1,2.4E1,-2.2349164E-3,-6.5944196E-6,-3.1965822E-3,-5.313379E-3,-1.7454413E-3,1.3324465E-3,1.4034023E-3,3.1445392E-3],"split_indices":[51,80,55,77,80,51,51,0,0,0,0,0,0,0,0],"split_type":[0,0,0,0,0,0,0,0,0,0,0,0,0,0,0],"sum_hessian":[6.608532E3,3.2314348E3,3.3770974E3,1.645001E3,1.5864338E3,1.9576194E3,1.419478E3,1.0721084E3,5.728925E2,9.639466E2,6.2248724E2,1.3417068E3,6.1591254E2,8.2501483E2,5.944632E2],"tree_param":{"num_deleted":"0","num_feature":"106","num_nodes":"15","size_leaf_vector":"1"}},{"base_weights":[1.1028575E-1,2.722235E-1,-4.470194E-2,1.4593501E-1,4.0299982E-1,7.768805E-2,-2.1342734E-1,2.2349162E-3,6.5942418E-6,3.1965822E-3,5.3133797E-3,1.7454413E-3,-1.3324464E-3,-1.4034025E-3,-3.1445387E-3],"categories":[],"categories_nodes":[],"categories_segments":[],"categories_sizes":[],"default_left":[0,0,0,0,0,0,0,0,0,0,0,0,0,0,0],"id":63,"left_children":[1,3,5,7,9,11,13,-1,-1,-1,-1,-1,-1,-1,-1],"loss_changes":[1.659006E2,5.3326584E1,6.97753E1,1.8545475E1,1.6809204E1,4.003808E1,1.0444305E1,0E0,0E0,0E0,0E0,0E0,0E0,0E0,0E0],"parents":[2147483647,0,0,1,1,2,2,3,3,4,4,5,5,6,6],"right_children":[2,4,6,8,10,12,14,-1,-1,-1,-1,-1,-1,-1,-1],"split_conditions":[1.5E1,1.3E1,5.45E-1,5.3E0,2.3E1,2.6E1,2.4E1,2.2349162E-3,6.5942418E-6,3.1965822E-3,5.3133797E-3,1.7454413E-3,-1.3324464E-3,-1.4034025E-3,-3.1445387E-3],"split_indices":[51,80,55,77,80,51,51,0,0,0,0,0,0,0,0],"split_type":[0,0,0,0,0,0,0,0,0,0,0,0,0,0,0],"sum_hessian":[6.608532E3,3.2314346E3,3.3770974E3,1.6450009E3,1.5864337E3,1.9576194E3,1.419478E3,1.0721084E3,5.728925E2,9.639466E2,6.224872E2,1.3417068E3,6.1591254E2,8.2501483E2,5.944632E2],"tree_param":{"num_deleted":"0","num_feature":"106","num_nodes":"15","size_leaf_vector":"1"}},{"base_weights":[-1.0923103E-1,-2.1162395E-1,1.316014E-1,-1.2720975E-1,-4.2903367E-1,-1.3267468E-1,2.019804E-1,-2.845746E-3,-3.9179798E-4,-3.7353828E-3,-5.583465E-3,-1.5463964E-3,6.5349047E-3,2.6230067E-3,3.069979E-4],"categories":[],"categories_nodes":[],"categories_segments":[],"categories_sizes":[],"default_left":[0,0,0,0,0,0,0,0,0,0,0,0,0,0,0],"id":64,"left_children":[1,3,5,7,9,11,13,-1,-1,-1,-1,-1,-1,-1,-1],"loss_changes":[1.6294638E2,8.503017E1,3.6696976E1,4.6270134E1,9.09343E0,7.2713017E0,1.6081894E1,0E0,0E0,0E0,0E0,0E0,0E0,0E0,0E0],"parents":[2147483647,0,0,1,1,2,2,3,3,4,4,5,5,6,6],"right_children":[2,4,6,8,10,12,14,-1,-1,-1,-1,-1,-1,-1,-1],"split_conditions":[2E1,2E1,3.6E-1,7E0,3.7E1,4.75E-1,-2.7E0,-2.845746E-3,-3.9179798E-4,-3.7353828E-3,-5.583465E-3,-1.5463964E-3,6.5349047E-3,2.6230067E-3,3.069979E-4],"split_indices":[28,80,55,27,54,59,25,0,0,0,0,0,0,0,0],"split_type":[0,0,0,0,0,0,0,0,0,0,0,0,0,0,0],"sum_hessian":[6.605716E3,4.6351465E3,1.9705693E3,3.3399292E3,1.2952173E3,4.1423074E2,1.5563386E3,1.1973247E3,2.1426045E3,9.090022E2,3.8621506E2,4.0375342E2,1.0477326E1,1.1505984E3,4.0574014E2],"tree_param":{"num_deleted":"0","num_feature":"106","num_nodes":"15","size_leaf_vector":"1"}},{"base_weights":[1.0923103E-1,2.1162395E-1,-1.3160138E-1,1.2720977E-1,4.2903367E-1,1.3267468E-1,-2.019804E-1,2.8457462E-3,3.9179804E-4,3.7353828E-3,5.583464E-3,1.5463965E-3,-6.5349047E-3,-2.6230062E-3,-3.0699803E-4],"categories":[],"categories_nodes":[],"categories_segments":[],"categories_sizes":[],"default_left":[0,0,0,0,0,0,0,0,0,0,0,0,0,0,0],"id":65,"left_children":[1,3,5,7,9,11,13,-1,-1,-1,-1,-1,-1,-1,-1],"loss_changes":[1.6294638E2,8.503012E1,3.669697E1,4.6270157E1,9.093445E0,7.2713027E0,1.6081894E1,0E0,0E0,0E0,0E0,0E0,0E0,0E0,0E0],"parents":[2147483647,0,0,1,1,2,2,3,3,4,4,5,5,6,6],"right_children":[2,4,6,8,10,12,14,-1,-1,-1,-1,-1,-1,-1,-1],"split_conditions":[2E1,2E1,3.6E-1,7E0,3.7E1,4.75E-1,-2.7E0,2.8457462E-3,3.9179804E-4,3.7353828E-3,5.583464E-3,1.5463965E-3,-6.5349047E-3,-2.6230062E-3,-3.0699803E-4],"split_indices":[28,80,55,27,54,59,25,0,0,0,0,0,0,0,0],"split_type":[0,0,0,0,0,0,0,0,0,0,0,0,0,0,0],"sum_hessian":[6.605716E3,4.6351465E3,1.9705693E3,3.3399292E3,1.2952173E3,4.142307E2,1.5563386E3,1.1973247E3,2.1426045E3,9.090022E2,3.8621506E2,4.037534E2,1.0477326E1,1.1505984E3,4.0574014E2],"tree_param":{"num_deleted":"0","num_feature":"106","num_nodes":"15","size_leaf_vector":"1"}},{"base_weights":[-1.0818419E-1,-2.6749954E-1,4.4183977E-2,-3.4530795E-1,-6.0188893E-2,-1.8136248E-1,1.3324521E-1,-2.809904E-3,-5.2350448E-3,1.0735423E-4,-1.9478322E-3,4.742711E-4,-2.8437218E-3,4.5176895E-4,2.4947522E-3],"categories":[],"categories_nodes":[],"categories_segments":[],"categories_sizes":[],"default_left":[0,0,0,0,0,0,0,0,0,0,0,0,0,0,0],"id":66,"left_children":[1,3,5,7,9,11,13,-1,-1,-1,-1,-1,-1,-1,-1],"loss_changes":[1.6032162E2,5.205742E1,6.7848755E1,2.6755371E1,8.424307E0,2.2550098E1,2.4772682E1,0E0,0E0,0E0,0E0,0E0,0E0,0E0,0E0],"parents":[2147483647,0,0,1,1,2,2,3,3,4,4,5,5,6,6],"right_children":[2,4,6,8,10,12,14,-1,-1,-1,-1,-1,-1,-1,-1],"split_conditions":[1.5E1,3.8E0,-2.4E0,2.3E1,5.5E0,-5.3E0,2.4E1,-2.809904E-3,-5.2350448E-3,1.0735423E-4,-1.9478322E-3,4.742711E-4,-2.8437218E-3,4.5176895E-4,2.4947522E-3],"split_indices":[51,77,77,80,25,25,51,0,0,0,0,0,0,0,0],"split_type":[0,0,0,0,0,0,0,0,0,0,0,0,0,0,0],"sum_hessian":[6.6030176E3,3.227551E3,3.3754663E3,2.3462751E3,8.812759E2,9.5525604E2,2.4202102E3,1.7259097E3,6.203656E2,5.77751E2,3.035249E2,2.967343E2,6.585217E2,1.3777031E3,1.042507E3],"tree_param":{"num_deleted":"0","num_feature":"106","num_nodes":"15","size_leaf_vector":"1"}},{"base_weights":[1.08184196E-1,2.6749957E-1,-4.4183977E-2,3.4530795E-1,6.0188927E-2,1.8136247E-1,-1.3324521E-1,2.8099045E-3,5.2350448E-3,-1.0735394E-4,1.9478328E-3,-4.7427128E-4,2.8437218E-3,-4.5176878E-4,-2.4947524E-3],"categories":[],"categories_nodes":[],"categories_segments":[],"categories_sizes":[],"default_left":[0,0,0,0,0,0,0,0,0,0,0,0,0,0,0],"id":67,"left_children":[1,3,5,7,9,11,13,-1,-1,-1,-1,-1,-1,-1,-1],"loss_changes":[1.6032166E2,5.2057373E1,6.784874E1,2.675534E1,8.424307E0,2.2550098E1,2.4772686E1,0E0,0E0,0E0,0E0,0E0,0E0,0E0,0E0],"parents":[2147483647,0,0,1,1,2,2,3,3,4,4,5,5,6,6],"right_children":[2,4,6,8,10,12,14,-1,-1,-1,-1,-1,-1,-1,-1],"split_conditions":[1.5E1,3.8E0,-2.4E0,2.3E1,5.5E0,-5.3E0,2.4E1,2.8099045E-3,5.2350448E-3,-1.0735394E-4,1.9478328E-3,-4.7427128E-4,2.8437218E-3,-4.5176878E-4,-2.4947524E-3],"split_indices":[51,77,77,80,25,25,51,0,0,0,0,0,0,0,0],"split_type":[0,0,0,0,0,0,0,0,0,0,0,0,0,0,0],"sum_hessian":[6.603017E3,3.227551E3,3.3754663E3,2.3462751E3,8.812759E2,9.5525604E2,2.4202102E3,1.7259097E3,6.203656E2,5.77751E2,3.035249E2,2.967343E2,6.585217E2,1.3777031E3,1.042507E3],"tree_param":{"num_deleted":"0","num_feature":"106","num_nodes":"15","size_leaf_vector":"1"}},{"base_weights":[-1.0715206E-1,-2.6500374E-1,4.3752793E-2,-1.4130372E-1,-3.934204E-1,-7.627472E-2,2.0921929E-1,-2.0819183E-3,2.237714E-4,-3.1198387E-3,-5.1927874E-3,8.766E-4,-1.951573E-3,3.559359E-3,1.6154794E-3],"categories":[],"categories_nodes":[],"categories_segments":[],"categories_sizes":[],"default_left":[0,0,0,0,0,0,0,0,0,0,0,0,0,0,0],"id":68,"left_children":[1,3,5,7,9,11,13,-1,-1,-1,-1,-1,-1,-1,-1],"loss_changes":[1.572532E2,5.1196564E1,6.705834E1,1.8014088E1,1.605748E1,3.816086E1,9.87048E0,0E0,0E0,0E0,0E0,0E0,0E0,0E0,0E0],"parents":[2147483647,0,0,1,1,2,2,3,3,4,4,5,5,6,6],"right_children":[2,4,6,8,10,12,14,-1,-1,-1,-1,-1,-1,-1,-1],"split_conditions":[1.5E1,1.3E1,5.45E-1,6E0,2.3E1,-3.7E0,-6.1E0,-2.0819183E-3,2.237714E-4,-3.1198387E-3,-5.1927874E-3,8.766E-4,-1.951573E-3,3.559359E-3,1.6154794E-3],"split_indices":[51,80,55,77,80,25,25,0,0,0,0,0,0,0,0],"split_type":[0,0,0,0,0,0,0,0,0,0,0,0,0,0,0],"sum_hessian":[6.6000806E3,3.2254219E3,3.3746587E3,1.6439517E3,1.5814703E3,1.9561957E3,1.4184631E3,1.1668479E3,4.771038E2,9.6229645E2,6.191739E2,8.2239954E2,1.1337963E3,3.4627545E2,1.0721876E3],"tree_param":{"num_deleted":"0","num_feature":"106","num_nodes":"15","size_leaf_vector":"1"}},{"base_weights":[1.07152075E-1,2.6500377E-1,-4.3752782E-2,1.4130373E-1,3.934204E-1,7.627473E-2,-2.0921928E-1,2.0819185E-3,-2.2377135E-4,3.1198387E-3,5.1927883E-3,-8.7659975E-4,1.9515728E-3,-3.5593587E-3,-1.6154792E-3],"categories":[],"categories_nodes":[],"categories_segments":[],"categories_sizes":[],"default_left":[0,0,0,0,0,0,0,0,0,0,0,0,0,0,0],"id":69,"left_children":[1,3,5,7,9,11,13,-1,-1,-1,-1,-1,-1,-1,-1],"loss_changes":[1.572532E2,5.1196594E1,6.7058334E1,1.8014088E1,1.605748E1,3.816085E1,9.870476E0,0E0,0E0,0E0,0E0,0E0,0E0,0E0,0E0],"parents":[2147483647,0,0,1,1,2,2,3,3,4,4,5,5,6,6],"right_children":[2,4,6,8,10,12,14,-1,-1,-1,-1,-1,-1,-1,-1],"split_conditions":[1.5E1,1.3E1,5.45E-1,6E0,2.3E1,-3.7E0,-6.1E0,2.0819185E-3,-2.2377135E-4,3.1198387E-3,5.1927883E-3,-8.7659975E-4,1.9515728E-3,-3.5593587E-3,-1.6154792E-3],"split_indices":[51,80,55,77,80,25,25,0,0,0,0,0,0,0,0],"split_type":[0,0,0,0,0,0,0,0,0,0,0,0,0,0,0],"sum_hessian":[6.6000806E3,3.225422E3,3.3746587E3,1.6439517E3,1.5814703E3,1.9561957E3,1.4184631E3,1.1668479E3,4.771038E2,9.6229645E2,6.191739E2,8.2239954E2,1.1337963E3,3.4627545E2,1.0721876E3],"tree_param":{"num_deleted":"0","num_feature":"106","num_nodes":"15","size_leaf_vector":"1"}},{"base_weights":[-1.06129244E-1,-2.0604114E-1,1.2869321E-1,-8.218529E-2,-3.480887E-1,-1.2992303E-1,1.9759302E-1,-2.0913007E-3,3.1384753E-4,-2.7028196E-3,-4.547712E-3,-1.5164918E-3,6.4740563E-3,2.5644642E-3,3.0620088E-4],"categories":[],"categories_nodes":[],"categories_segments":[],"categories_sizes":[],"default_left":[0,0,0,0,0,0,0,0,0,0,0,0,0,0,0],"id":70,"left_children":[1,3,5,7,9,11,13,-1,-1,-1,-1,-1,-1,-1,-1],"loss_changes":[1.5482933E2,8.1413284E1,3.512901E1,3.5677612E1,1.7772339E1,7.10755E0,1.528281E1,0E0,0E0,0E0,0E0,0E0,0E0,0E0,0E0],"parents":[2147483647,0,0,1,1,2,2,3,3,4,4,5,5,6,6],"right_children":[2,4,6,8,10,12,14,-1,-1,-1,-1,-1,-1,-1,-1],"split_conditions":[2E1,1.4E1,3.6E-1,1E1,2.3E1,4.75E-1,-2.7E0,-2.0913007E-3,3.1384753E-4,-2.7028196E-3,-4.547712E-3,-1.5164918E-3,6.4740563E-3,2.5644642E-3,3.0620088E-4],"split_indices":[28,80,55,51,80,59,25,0,0,0,0,0,0,0,0],"split_type":[0,0,0,0,0,0,0,0,0,0,0,0,0,0,0],"sum_hessian":[6.597148E3,4.6281094E3,1.9690382E3,2.4732136E3,2.1548958E3,4.1404178E2,1.5549965E3,1.1674434E3,1.3057703E3,1.2481304E3,9.067655E2,4.0356708E2,1.0474688E1,1.1493472E3,4.0564932E2],"tree_param":{"num_deleted":"0","num_feature":"106","num_nodes":"15","size_leaf_vector":"1"}},{"base_weights":[1.0612924E-1,2.0604113E-1,-1.2869321E-1,8.218528E-2,3.480887E-1,1.2992302E-1,-1.9759302E-1,2.0913004E-3,-3.138476E-4,2.7028194E-3,4.547712E-3,1.5164914E-3,-6.4740567E-3,-2.5644642E-3,-3.062007E-4],"categories":[],"categories_nodes":[],"categories_segments":[],"categories_sizes":[],"default_left":[0,0,0,0,0,0,0,0,0,0,0,0,0,0,0],"id":71,"left_children":[1,3,5,7,9,11,13,-1,-1,-1,-1,-1,-1,-1,-1],"loss_changes":[1.5482932E2,8.141327E1,3.5129005E1,3.5677612E1,1.777237E1,7.107549E0,1.5282806E1,0E0,0E0,0E0,0E0,0E0,0E0,0E0,0E0],"parents":[2147483647,0,0,1,1,2,2,3,3,4,4,5,5,6,6],"right_children":[2,4,6,8,10,12,14,-1,-1,-1,-1,-1,-1,-1,-1],"split_conditions":[2E1,1.4E1,3.6E-1,1E1,2.3E1,4.75E-1,-2.7E0,2.0913004E-3,-3.138476E-4,2.7028194E-3,4.547712E-3,1.5164914E-3,-6.4740567E-3,-2.5644642E-3,-3.062007E-4],"split_indices":[28,80,55,51,80,59,25,0,0,0,0,0,0,0,0],"split_type":[0,0,0,0,0,0,0,0,0,0,0,0,0,0,0],"sum_hessian":[6.597148E3,4.6281094E3,1.9690382E3,2.4732136E3,2.1548958E3,4.1404178E2,1.5549965E3,1.1674434E3,1.3057703E3,1.2481304E3,9.0676544E2,4.0356708E2,1.0474688E1,1.1493472E3,4.0564932E2],"tree_param":{"num_deleted":"0","num_feature":"106","num_nodes":"15","size_leaf_vector":"1"}},{"base_weights":[-1.05116025E-1,-2.6041752E-1,4.323625E-2,-3.3675385E-1,-5.7466306E-2,-8.7966636E-2,1.9040196E-1,-2.7394022E-3,-5.1151467E-3,1.2379022E-4,-1.9008517E-3,9.6880563E-4,-1.8509697E-3,1.1075081E-3,3.0113645E-3],"categories":[],"categories_nodes":[],"categories_segments":[],"categories_sizes":[],"default_left":[0,0,0,0,0,0,0,0,0,0,0,0,0,0,0],"id":72,"left_children":[1,3,5,7,9,11,13,-1,-1,-1,-1,-1,-1,-1,-1],"loss_changes":[1.5195978E2,4.990178E1,6.516219E1,2.5561493E1,8.17152E0,3.2055145E1,1.399538E1,0E0,0E0,0E0,0E0,0E0,0E0,0E0,0E0],"parents":[2147483647,0,0,1,1,2,2,3,3,4,4,5,5,6,6],"right_children":[2,4,6,8,10,12,14,-1,-1,-1,-1,-1,-1,-1,-1],"split_conditions":[1.5E1,3.8E0,6E-1,2.3E1,5.5E0,-4.8E0,2.4E1,-2.7394022E-3,-5.1151467E-3,1.2379022E-4,-1.9008517E-3,9.6880563E-4,-1.8509697E-3,1.1075081E-3,3.0113645E-3],"split_indices":[51,77,77,80,25,25,51,0,0,0,0,0,0,0,0],"split_type":[0,0,0,0,0,0,0,0,0,0,0,0,0,0,0],"sum_hessian":[6.5941797E3,3.2212656E3,3.372914E3,2.3403335E3,8.809321E2,1.7833783E3,1.5895358E3,1.7234487E3,6.168848E2,5.7762537E2,3.0330673E2,6.1430566E2,1.1690726E3,9.2568915E2,6.638466E2],"tree_param":{"num_deleted":"0","num_feature":"106","num_nodes":"15","size_leaf_vector":"1"}},{"base_weights":[1.0511601E-1,2.6041752E-1,-4.3236263E-2,3.3675385E-1,5.746627E-2,8.7966636E-2,-1.9040199E-1,2.7394027E-3,5.1151467E-3,-1.2379032E-4,1.9008508E-3,-9.6880546E-4,1.8509696E-3,-1.1075083E-3,-3.011365E-3],"categories":[],"categories_nodes":[],"categories_segments":[],"categories_sizes":[],"default_left":[0,0,0,0,0,0,0,0,0,0,0,0,0,0,0],"id":73,"left_children":[1,3,5,7,9,11,13,-1,-1,-1,-1,-1,-1,-1,-1],"loss_changes":[1.519598E2,4.9901794E1,6.516222E1,2.5561523E1,8.1715145E0,3.2055145E1,1.399538E1,0E0,0E0,0E0,0E0,0E0,0E0,0E0,0E0],"parents":[2147483647,0,0,1,1,2,2,3,3,4,4,5,5,6,6],"right_children":[2,4,6,8,10,12,14,-1,-1,-1,-1,-1,-1,-1,-1],"split_conditions":[1.5E1,3.8E0,6E-1,2.3E1,5.5E0,-4.8E0,2.4E1,2.7394027E-3,5.1151467E-3,-1.2379032E-4,1.9008508E-3,-9.6880546E-4,1.8509696E-3,-1.1075083E-3,-3.011365E-3],"split_indices":[51,77,77,80,25,25,51,0,0,0,0,0,0,0,0],"split_type":[0,0,0,0,0,0,0,0,0,0,0,0,0,0,0],"sum_hessian":[6.5941797E3,3.2212656E3,3.372914E3,2.3403335E3,8.809321E2,1.7833783E3,1.5895358E3,1.7234487E3,6.1688477E2,5.7762537E2,3.0330673E2,6.1430566E2,1.1690726E3,9.256892E2,6.638466E2],"tree_param":{"num_deleted":"0","num_feature":"106","num_nodes":"15","size_leaf_vector":"1"}},{"base_weights":[-1.0411447E-1,-2.0235458E-1,1.266575E-1,-1.2113971E-1,-4.1258517E-1,2.5721622E-1,-6.2187496E-3,-2.7422074E-3,-3.5616182E-4,-3.5757634E-3,-5.4099094E-3,3.70952E-3,1.862797E-3,1.085301E-3,-1.3226486E-3],"categories":[],"categories_nodes":[],"categories_segments":[],"categories_sizes":[],"default_left":[0,0,0,0,0,0,0,0,0,0,0,0,0,0,0],"id":74,"left_children":[1,3,5,7,9,11,13,-1,-1,-1,-1,-1,-1,-1,-1],"loss_changes":[1.4947638E2,7.890239E1,3.4159573E1,4.3678368E1,8.905441E0,7.943802E0,1.41424465E1,0E0,0E0,0E0,0E0,0E0,0E0,0E0,0E0],"parents":[2147483647,0,0,1,1,2,2,3,3,4,4,5,5,6,6],"right_children":[2,4,6,8,10,12,14,-1,-1,-1,-1,-1,-1,-1,-1],"split_conditions":[2E1,2E1,1.6E1,7E0,3.7E1,-6.1E0,-4.8E0,-2.7422074E-3,-3.5616182E-4,-3.5757634E-3,-5.4099094E-3,3.70952E-3,1.862797E-3,1.085301E-3,-1.3226486E-3],"split_indices":[28,80,103,27,54,25,25,0,0,0,0,0,0,0,0],"split_type":[0,0,0,0,0,0,0,0,0,0,0,0,0,0,0],"sum_hessian":[6.591137E3,4.623168E3,1.9679691E3,3.3360024E3,1.2871658E3,9.9216907E2,9.7580005E2,1.1949395E3,2.141063E3,9.037748E2,3.8339096E2,3.7948837E2,6.126807E2,5.1086334E2,4.649367E2],"tree_param":{"num_deleted":"0","num_feature":"106","num_nodes":"15","size_leaf_vector":"1"}},{"base_weights":[1.0411448E-1,2.023546E-1,-1.266575E-1,1.2113972E-1,4.125852E-1,-2.572162E-1,6.218741E-3,2.7422074E-3,3.56162E-4,3.5757637E-3,5.4099094E-3,-3.70952E-3,-1.8627966E-3,-1.085301E-3,1.3226484E-3],"categories":[],"categories_nodes":[],"categories_segments":[],"categories_sizes":[],"default_left":[0,0,0,0,0,0,0,0,0,0,0,0,0,0,0],"id":75,"left_children":[1,3,5,7,9,11,13,-1,-1,-1,-1,-1,-1,-1,-1],"loss_changes":[1.4947641E2,7.890239E1,3.4159565E1,4.3678356E1,8.905426E0,7.943817E0,1.4142444E1,0E0,0E0,0E0,0E0,0E0,0E0,0E0,0E0],"parents":[2147483647,0,0,1,1,2,2,3,3,4,4,5,5,6,6],"right_children":[2,4,6,8,10,12,14,-1,-1,-1,-1,-1,-1,-1,-1],"split_conditions":[2E1,2E1,1.6E1,7E0,3.7E1,-6.1E0,-4.8E0,2.7422074E-3,3.56162E-4,3.5757637E-3,5.4099094E-3,-3.70952E-3,-1.8627966E-3,-1.085301E-3,1.3226484E-3],"split_indices":[28,80,103,27,54,25,25,0,0,0,0,0,0,0,0],"split_type":[0,0,0,0,0,0,0,0,0,0,0,0,0,0,0],"sum_hessian":[6.591137E3,4.623168E3,1.9679691E3,3.3360024E3,1.2871658E3,9.921691E2,9.7580005E2,1.1949395E3,2.141063E3,9.037748E2,3.8339096E2,3.7948837E2,6.126807E2,5.1086334E2,4.649367E2],"tree_param":{"num_deleted":"0","num_feature":"106","num_nodes":"15","size_leaf_vector":"1"}},{"base_weights":[-1.0312192E-1,8.4469944E-2,-2.2192243E-1,-3.5976306E-2,2.1590118E-1,-3.127097E-1,-2.8531719E-2,1.019168E-3,-1.4701171E-3,1.6597528E-3,3.7571536E-3,-2.510205E-3,-4.6382486E-3,-1.4708104E-3,8.039621E-4],"categories":[],"categories_nodes":[],"categories_segments":[],"categories_sizes":[],"default_left":[0,0,0,0,0,0,0,0,0,0,0,0,0,0,0],"id":76,"left_children":[1,3,5,7,9,11,13,-1,-1,-1,-1,-1,-1,-1,-1],"loss_changes":[1.4686426E2,4.046383E1,7.082721E1,2.0445724E1,9.68951E0,2.5477692E1,1.6670393E1,0E0,0E0,0E0,0E0,0E0,0E0,0E0,0E0],"parents":[2147483647,0,0,1,1,2,2,3,3,4,4,5,5,6,6],"right_children":[2,4,6,8,10,12,14,-1,-1,-1,-1,-1,-1,-1,-1],"split_conditions":[4.69E-1,5.14E-1,3E0,-4.7E0,2.8E1,2.3E1,9E0,1.019168E-3,-1.4701171E-3,1.6597528E-3,3.7571536E-3,-2.510205E-3,-4.6382486E-3,-1.4708104E-3,8.039621E-4],"split_indices":[3,55,77,25,51,80,51,0,0,0,0,0,0,0,0],"split_type":[0,0,0,0,0,0,0,0,0,0,0,0,0,0,0],"sum_hessian":[6.5881343E3,2.5545938E3,4.0335408E3,1.3333818E3,1.2212118E3,2.7445122E3,1.2890284E3,5.9479614E2,7.385857E2,9.3207153E2,2.8914026E2,1.9508036E3,7.937087E2,6.170861E2,6.719424E2],"tree_param":{"num_deleted":"0","num_feature":"106","num_nodes":"15","size_leaf_vector":"1"}},{"base_weights":[1.0312191E-1,-8.446995E-2,2.2192241E-1,3.5976287E-2,-2.1590118E-1,3.127097E-1,2.8531712E-2,-1.0191681E-3,1.4701168E-3,-1.659753E-3,-3.7571536E-3,2.5102044E-3,4.6382486E-3,1.4708106E-3,-8.0396235E-4],"categories":[],"categories_nodes":[],"categories_segments":[],"categories_sizes":[],"default_left":[0,0,0,0,0,0,0,0,0,0,0,0,0,0,0],"id":77,"left_children":[1,3,5,7,9,11,13,-1,-1,-1,-1,-1,-1,-1,-1],"loss_changes":[1.4686424E2,4.0463833E1,7.082718E1,2.0445723E1,9.689503E0,2.5477722E1,1.6670397E1,0E0,0E0,0E0,0E0,0E0,0E0,0E0,0E0],"parents":[2147483647,0,0,1,1,2,2,3,3,4,4,5,5,6,6],"right_children":[2,4,6,8,10,12,14,-1,-1,-1,-1,-1,-1,-1,-1],