{"learner":{"attributes":{"scikit_learn":"{\"_estimator_type\": \"classifier\"}"},"feature_names":["GP","W","L","W_PCT","MIN","FGM","FGA","FG_PCT","FG3M","FG3A","FG3_PCT","FTM","FTA","FT_PCT","OREB","DREB","REB","AST","TOV","STL","BLK","BLKA","PF","PFD","PTS","PLUS_MINUS","GP_RANK","W_RANK","L_RANK","W_PCT_RANK","MIN_RANK","FGM_RANK","FGA_RANK","FG_PCT_RANK","FG3M_RANK","FG3A_RANK","FG3_PCT_RANK","FTM_RANK","FTA_RANK","FT_PCT_RANK","OREB_RANK","DREB_RANK","REB_RANK","AST_RANK","TOV_RANK","STL_RANK","BLK_RANK","BLKA_RANK","PF_RANK","PFD_RANK","PTS_RANK","PLUS_MINUS_RANK","GP.1","W.1","L.1","W_PCT.1","MIN.1","FGM.1","FGA.1","FG_PCT.1","FG3M.1","FG3A.1","FG3_PCT.1","FTM.1","FTA.1","FT_PCT.1","OREB.1","DREB.1","REB.1","AST.1","TOV.1","STL.1","BLK.1","BLKA.1","PF.1","PFD.1","PTS.1","PLUS_MINUS.1","GP_RANK.1","W_RANK.1","L_RANK.1","W_PCT_RANK.1","MIN_RANK.1","FGM_RANK.1","FGA_RANK.1","FG_PCT_RANK.1","FG3M_RANK.1","FG3A_RANK.1","FG3_PCT_RANK.1","FTM_RANK.1","FTA_RANK.1","FT_PCT_RANK.1","OREB_RANK.1","DREB_RANK.1","REB_RANK.1","AST_RANK.1","TOV_RANK.1","STL_RANK.1","BLK_RANK.1","BLKA_RANK.1","PF_RANK.1","PFD_RANK.1","PTS_RANK.1","PLUS_MINUS_RANK.1","Days-Rest-Home","Days-Rest-Away"],"feature_types":["float","float","float","float","float","float","float","float","float","float","float","float","float","float","float","float","float","float","float","float","float","float","float","float","float","float","float","float","float","float","float","float","float","float","float","float","float","float","float","float","float","float","float","float","float","float","float","float","float","float","float","float","float","float","float","float","float","float","float","float","float","float","float","float","float","float","float","float","float","float","float","float","float","float","float","float","float","float","float","float","float","float","float","float","float","float","float","float","float","float","float","float","float","float","float","float","float","float","float","float","float","float","float","float","float","float"],"gradient_booster":{"model":{"gbtree_model_param":{"num_parallel_tree":"1","num_trees":"100"},"iteration_indptr":[0,1,2,3,4,5,6,7,8,9,10,11,12,13,14,15,16,17,18,19,20,21,22,23,24,25,26,27,28,29,30,31,32,33,34,35,36,37,38,39,40,41,42,43,44,45,46,47,48,49,50,51,52,53,54,55,56,57,58,59,60,61,62,63,64,65,66,67,68,69,70,71,72,73,74,75,76,77,78,79,80,81,82,83,84,85,86,87,88,89,90,91,92,93,94,95,96,97,98,99,100],"tree_info":[0,0,0,0,0,0,0,0,0,0,0,0,0,0,0,0,0,0,0,0,0,0,0,0,0,0,0,0,0,0,0,0,0,0,0,0,0,0,0,0,0,0,0,0,0,0,0,0,0,0,0,0,0,0,0,0,0,0,0,0,0,0,0,0,0,0,0,0,0,0,0,0,0,0,0,0,0,0,0,0,0,0,0,0,0,0,0,0,0,0,0,0,0,0,0,0,0,0,0,0],"trees":[{"base_weights":[-6.1699515E-3,-6.3638234E-1,2.974448E-1,-9.603819E-2,-8.9072496E-1,-1.0046349E-1,5.985585E-1,-4.698259E-2,3.2930963E-2,-4.3409694E-2,-1.0095475E-1,1.7342275E-2,-3.7853774E-2,4.1278098E-2,9.4767414E-2],"categories":[],"categories_nodes":[],"categories_segments":[],"categories_sizes":[],"default_left":[0,0,0,0,0,0,0,0,0,0,0,0,0,0,0],"id":0,"left_children":[1,3,5,7,9,11,13,-1,-1,-1,-1,-1,-1,-1,-1],"loss_changes":[5.17885E2,1.2085388E2,2.189173E2,4.5111553E1,3.202014E1,6.005723E1,6.7055695E1,0E0,0E0,0E0,0E0,0E0,0E0,0E0,0E0],"parents":[2147483647,0,0,1,1,2,2,3,3,4,4,5,5,6,6],"right_children":[2,4,6,8,10,12,14,-1,-1,-1,-1,-1,-1,-1,-1],"split_conditions":[-1.6E0,-2E0,1.1E1,-4.7E0,2E1,1E1,2.3E1,-4.698259E-2,3.2930963E-2,-4.3409694E-2,-1.0095475E-1,1.7342275E-2,-3.7853774E-2,4.1278098E-2,9.4767414E-2],"split_indices":[25,77,80,25,28,51,80,0,0,0,0,0,0,0,0],"split_type":[0,0,0,0,0,0,0,0,0,0,0,0,0,0,0],"sum_hessian":[2.7046077E3,8.789914E2,1.8256162E3,2.8176556E2,5.972258E2,7.8669727E2,1.038919E3,1.4991687E2,1.3184871E2,1.2427962E2,4.729462E2,3.9652277E2,3.901745E2,6.7950916E2,3.5940982E2],"tree_param":{"num_deleted":"0","num_feature":"106","num_nodes":"15","size_leaf_vector":"1"}},{"base_weights":[7.0106997E-3,-5.065879E-1,3.124484E-1,-2.0823313E-1,-8.416048E-1,5.33509E-1,-1.6619562E-1,-5.349903E-2,7.451898E-3,-5.909753E-2,-1.026472E-1,3.8330227E-2,9.033138E-2,-4.7688156E-2,1.49432365E-2],"categories":[],"categories_nodes":[],"categories_segments":[],"categories_sizes":[],"default_left":[0,0,0,0,0,0,0,0,0,0,0,0,0,0,0],"id":1,"left_children":[1,3,5,7,9,11,13,-1,-1,-1,-1,-1,-1,-1,-1],"loss_changes":[4.2586563E2,1.0101706E2,1.8021085E2,4.9637756E1,2.1474121E1,6.435184E1,5.2885628E1,0E0,0E0,0E0,0E0,0E0,0E0,0E0,0E0],"parents":[2147483647,0,0,1,1,2,2,3,3,4,4,5,5,6,6],"right_children":[2,4,6,8,10,12,14,-1,-1,-1,-1,-1,-1,-1,-1],"split_conditions":[4.59E-1,5.19E-1,3E0,-4.7E0,2.4E1,2.3E1,3.1E0,-5.349903E-2,7.451898E-3,-5.909753E-2,-1.026472E-1,3.8330227E-2,9.033138E-2,-4.7688156E-2,1.49432365E-2],"split_indices":[3,55,77,25,51,80,25,0,0,0,0,0,0,0,0],"split_type":[0,0,0,0,0,0,0,0,0,0,0,0,0,0,0],"sum_hessian":[2.7127175E3,1.0113899E3,1.7013275E3,5.3582434E2,4.7556555E2,1.1637416E3,5.3758594E2,2.4815572E2,2.876686E2,2.0365775E2,2.7190784E2,8.290399E2,3.347017E2,2.7065646E2,2.6692947E2],"tree_param":{"num_deleted":"0","num_feature":"106","num_nodes":"15","size_leaf_vector":"1"}},{"base_weights":[1.102424E-2,3.8398117E-1,-3.4128273E-1,1.0221232E-1,6.797264E-1,1.5502007E-1,-5.355078E-1,2.6231239E-2,-2.4571467E-2,5.9454378E-2,1.1832499E-1,-3.219904E-2,3.7438843E-2,-8.162937E-2,-3.8691588E-2],"categories":[],"categories_nodes":[],"categories_segments":[],"categories_sizes":[],"default_left":[0,0,0,0,0,0,0,0,0,0,0,0,0,0,0],"id":2,"left_children":[1,3,5,7,9,11,13,-1,-1,-1,-1,-1,-1,-1,-1],"loss_changes":[3.571256E2,1.09950745E2,1.3481197E2,3.7791412E1,2.6917786E1,4.133891E1,4.160614E1,0E0,0E0,0E0,0E0,0E0,0E0,0E0,0E0],"parents":[2147483647,0,0,1,1,2,2,3,3,4,4,5,5,6,6],"right_children":[2,4,6,8,10,12,14,-1,-1,-1,-1,-1,-1,-1,-1],"split_conditions":[1.5E1,1.3E1,-2.4E0,1.2E1,2.8E1,-5.3E0,8E0,2.6231239E-2,-2.4571467E-2,5.9454378E-2,1.1832499E-1,-3.219904E-2,3.7438843E-2,-8.162937E-2,-3.8691588E-2],"split_indices":[51,80,77,60,79,25,103,0,0,0,0,0,0,0,0],"split_type":[0,0,0,0,0,0,0,0,0,0,0,0,0,0,0],"sum_hessian":[2.7159504E3,1.3192667E3,1.3966836E3,6.762862E2,6.429805E2,3.9290256E2,1.00378107E3,4.6332935E2,2.1295686E2,5.518099E2,9.1170654E1,1.2362203E2,2.6928055E2,3.4581674E2,6.579643E2],"tree_param":{"num_deleted":"0","num_feature":"106","num_nodes":"15","size_leaf_vector":"1"}},{"base_weights":[9.7510405E-3,-4.000528E-1,2.595405E-1,1.5913807E-1,-5.6083065E-1,6.937932E-1,5.930235E-2,3.964717E-2,-1.3847615E-2,-3.0690616E-2,-7.433835E-2,1.181447E-2,7.733748E-2,3.4904197E-2,-1.933728E-2],"categories":[],"categories_nodes":[],"categories_segments":[],"categories_sizes":[],"default_left":[0,0,0,0,0,0,0,0,0,0,0,0,0,0,0],"id":3,"left_children":[1,3,5,7,9,11,13,-1,-1,-1,-1,-1,-1,-1,-1],"loss_changes":[2.788933E2,9.2852554E1,1.4714638E2,1.6384712E1,3.692958E1,2.4376526E1,8.496187E1,0E0,0E0,0E0,0E0,0E0,0E0,0E0,0E0],"parents":[2147483647,0,0,1,1,2,2,3,3,4,4,5,5,6,6],"right_children":[2,4,6,8,10,12,14,-1,-1,-1,-1,-1,-1,-1,-1],"split_conditions":[4.59E-1,3.71E-1,-1.4E0,3.28E1,2.4E1,6E0,9E0,3.964717E-2,-1.3847615E-2,-3.0690616E-2,-7.433835E-2,1.181447E-2,7.733748E-2,3.4904197E-2,-1.933728E-2],"split_indices":[3,55,77,67,51,1,51,0,0,0,0,0,0,0,0],"split_type":[0,0,0,0,0,0,0,0,0,0,0,0,0,0,0],"sum_hessian":[2.722493E3,1.0307864E3,1.6917065E3,2.3018958E2,8.0059686E2,5.3310565E2,1.158601E3,1.2787945E2,1.0231013E2,3.3596402E2,4.6463284E2,6.5050644E1,4.6805502E2,5.3953784E2,6.190631E2],"tree_param":{"num_deleted":"0","num_feature":"106","num_nodes":"15","size_leaf_vector":"1"}},{"base_weights":[6.224852E-3,3.3363935E-1,-2.9651558E-1,9.626075E-2,5.8890057E-1,8.777305E-2,-4.919021E-1,2.31996E-2,-2.2749914E-2,4.3355957E-2,8.4186845E-2,-2.5831008E-2,3.7973635E-2,-3.1026999E-2,-7.276028E-2],"categories":[],"categories_nodes":[],"categories_segments":[],"categories_sizes":[],"default_left":[0,0,0,0,0,0,0,0,0,0,0,0,0,0,0],"id":4,"left_children":[1,3,5,7,9,11,13,-1,-1,-1,-1,-1,-1,-1,-1],"loss_changes":[2.663267E2,7.815881E1,1.0486519E2,2.9497868E1,2.4068924E1,4.7730366E1,3.9401825E1,0E0,0E0,0E0,0E0,0E0,0E0,0E0,0E0],"parents":[2147483647,0,0,1,1,2,2,3,3,4,4,5,5,6,6],"right_children":[2,4,6,8,10,12,14,-1,-1,-1,-1,-1,-1,-1,-1],"split_conditions":[1.5E1,1.3E1,-1.5E0,6E0,2.3E1,-3.5E0,2.4E1,2.31996E-2,-2.2749914E-2,4.3355957E-2,8.4186845E-2,-2.5831008E-2,3.7973635E-2,-3.1026999E-2,-7.276028E-2],"split_indices":[51,80,77,77,80,25,51,0,0,0,0,0,0,0,0],"split_type":[0,0,0,0,0,0,0,0,0,0,0,0,0,0,0],"sum_hessian":[2.6848699E3,1.2898221E3,1.3950479E3,6.690346E2,6.2078754E2,4.704034E2,9.246444E2,4.7160092E2,1.9743365E2,3.8629053E2,2.3449704E2,2.1530437E2,2.5509904E2,5.2352765E2,4.0111676E2],"tree_param":{"num_deleted":"0","num_feature":"106","num_nodes":"15","size_leaf_vector":"1"}},{"base_weights":[9.197393E-3,-2.6119566E-1,2.800833E-1,-3.6273575E-1,3.0273715E-1,5.5413567E-2,5.258529E-1,-2.4978526E-2,-6.718416E-2,4.5720395E-2,-3.793705E-2,-1.11182565E-2,2.5721414E-2,9.6651845E-2,4.4765413E-2],"categories":[],"categories_nodes":[],"categories_segments":[],"categories_sizes":[],"default_left":[0,0,0,0,0,0,0,0,0,0,0,0,0,0,0],"id":5,"left_children":[1,3,5,7,9,11,13,-1,-1,-1,-1,-1,-1,-1,-1],"loss_changes":[1.9747313E2,7.737111E1,7.433576E1,3.9767944E1,2.1922512E1,2.372031E1,2.1727127E1,0E0,0E0,0E0,0E0,0E0,0E0,0E0,0E0],"parents":[2147483647,0,0,1,1,2,2,3,3,4,4,5,5,6,6],"right_children":[2,4,6,8,10,12,14,-1,-1,-1,-1,-1,-1,-1,-1],"split_conditions":[3E-1,2.6E1,1.3E1,2.7E1,2.7E1,6.46E-1,3E0,-2.4978526E-2,-6.718416E-2,4.5720395E-2,-3.793705E-2,-1.11182565E-2,2.5721414E-2,9.6651845E-2,4.4765413E-2],"split_indices":[25,103,80,51,28,3,51,0,0,0,0,0,0,0,0],"split_type":[0,0,0,0,0,0,0,0,0,0,0,0,0,0,0],"sum_hessian":[2.6940398E3,1.3482643E3,1.3457754E3,1.1428439E3,2.0542035E2,7.0370795E2,6.420675E2,8.383208E2,3.045231E2,1.6775996E2,3.766039E1,3.8572354E2,3.179844E2,9.50549E1,5.470126E2],"tree_param":{"num_deleted":"0","num_feature":"106","num_nodes":"15","size_leaf_vector":"1"}},{"base_weights":[5.867896E-3,-1.908282E-1,3.0500904E-1,1.016786E-1,-3.6458758E-1,4.4020045E-1,-2.7762893E-1,-2.8412057E-2,2.424341E-2,-7.427453E-2,-2.6545748E-2,3.3894535E-2,7.000723E-2,-3.890499E-2,2.5333432E-2],"categories":[],"categories_nodes":[],"categories_segments":[],"categories_sizes":[],"default_left":[0,0,0,0,0,0,0,0,0,0,0,0,0,0,0],"id":6,"left_children":[1,3,5,7,9,11,13,-1,-1,-1,-1,-1,-1,-1,-1],"loss_changes":[1.5672003E2,8.171011E1,8.3347206E1,3.263022E1,3.7600876E1,2.2339157E1,1.1907247E1,0E0,0E0,0E0,0E0,0E0,0E0,0E0,0E0],"parents":[2147483647,0,0,1,1,2,2,3,3,4,4,5,5,6,6],"right_children":[2,4,6,8,10,12,14,-1,-1,-1,-1,-1,-1,-1,-1],"split_conditions":[1.5E0,4.57E-1,5.4E0,3.25E-1,-6.2E0,2.1E1,2.61E1,-2.8412057E-2,2.424341E-2,-7.427453E-2,-2.6545748E-2,3.3894535E-2,7.000723E-2,-3.890499E-2,2.5333432E-2],"split_indices":[25,55,77,3,25,80,17,0,0,0,0,0,0,0,0],"split_type":[0,0,0,0,0,0,0,0,0,0,0,0,0,0,0],"sum_hessian":[2.66151E3,1.6059211E3,1.055589E3,5.986193E2,1.0073018E3,8.5698456E2,1.9860445E2,1.5974713E2,4.388722E2,2.0786266E2,7.9943915E2,6.1835596E2,2.386286E2,1.643776E2,3.422685E1],"tree_param":{"num_deleted":"0","num_feature":"106","num_nodes":"15","size_leaf_vector":"1"}},{"base_weights":[-4.7490876E-3,-2.2464354E-1,2.4552877E-1,-3.641341E-2,-4.755972E-1,3.601495E-1,-2.1443671E-1,1.0102092E-2,-3.2360505E-2,-8.7991685E-2,-4.0128417E-2,5.147296E-2,1.8374948E-2,-3.5802808E-2,1.6696064E-2],"categories":[],"categories_nodes":[],"categories_segments":[],"categories_sizes":[],"default_left":[0,0,0,0,0,0,0,0,0,0,0,0,0,0,0],"id":7,"left_children":[1,3,5,7,9,11,13,-1,-1,-1,-1,-1,-1,-1,-1],"loss_changes":[1.4580746E2,6.660008E1,6.540408E1,3.1882174E1,1.7805313E1,2.6963013E1,1.3630945E1,0E0,0E0,0E0,0E0,0E0,0E0,0E0,0E0],"parents":[2147483647,0,0,1,1,2,2,3,3,4,4,5,5,6,6],"right_children":[2,4,6,8,10,12,14,-1,-1,-1,-1,-1,-1,-1,-1],"split_conditions":[6E-1,5.45E-1,5.1E0,2.6E1,3E0,8E0,5.7E0,1.0102092E-2,-3.2360505E-2,-8.7991685E-2,-4.0128417E-2,5.147296E-2,1.8374948E-2,-3.5802808E-2,1.6696064E-2],"split_indices":[25,55,77,51,85,51,20,0,0,0,0,0,0,0,0],"split_type":[0,0,0,0,0,0,0,0,0,0,0,0,0,0,0],"sum_hessian":[2.6473704E3,1.4092787E3,1.2380917E3,8.0592914E2,6.0334955E2,9.91286E2,2.468057E2,5.4552075E2,2.6040842E2,9.199361E1,5.1135596E2,5.2729626E2,4.6398975E2,1.7934558E2,6.74601E1],"tree_param":{"num_deleted":"0","num_feature":"106","num_nodes":"15","size_leaf_vector":"1"}},{"base_weights":[2.6057144E-3,1.4940046E-1,-3.213791E-1,4.8916575E-1,1.6224125E-2,-5.076527E-1,-7.330506E-2,3.5738185E-2,8.526478E-2,2.6196567E-2,-1.2213613E-2,-3.638825E-2,-7.450048E-2,5.6547816E-3,-3.6578774E-2],"categories":[],"categories_nodes":[],"categories_segments":[],"categories_sizes":[],"default_left":[0,0,0,0,0,0,0,0,0,0,0,0,0,0,0],"id":8,"left_children":[1,3,5,7,9,11,13,-1,-1,-1,-1,-1,-1,-1,-1],"loss_changes":[1.2674435E2,8.297786E1,3.836181E1,2.4431503E1,4.48652E1,1.5918625E1,1.3599915E1,0E0,0E0,0E0,0E0,0E0,0E0,0E0,0E0],"parents":[2147483647,0,0,1,1,2,2,3,3,4,4,5,5,6,6],"right_children":[2,4,6,8,10,12,14,-1,-1,-1,-1,-1,-1,-1,-1],"split_conditions":[2E1,-1.9E0,1.8E1,3.7E1,8E0,3.5E1,1.1E1,3.5738185E-2,8.526478E-2,2.6196567E-2,-1.2213613E-2,-3.638825E-2,-7.450048E-2,5.6547816E-3,-3.6578774E-2],"split_indices":[28,77,103,54,51,2,8,0,0,0,0,0,0,0,0],"split_type":[0,0,0,0,0,0,0,0,0,0,0,0,0,0,0],"sum_hessian":[2.6629673E3,1.8329928E3,8.299744E2,5.154024E2,1.3175903E3,4.7343542E2,3.5653903E2,3.7971594E2,1.3568648E2,4.7429752E2,8.4329285E2,2.9641962E2,1.7701578E2,2.4747484E2,1.0906419E2],"tree_param":{"num_deleted":"0","num_feature":"106","num_nodes":"15","size_leaf_vector":"1"}},{"base_weights":[3.8842766E-3,2.9351443E-1,-1.2730646E-1,-8.574188E-2,3.966238E-1,-2.51608E-1,1.3349287E-1,-4.342998E-2,1.3036415E-2,4.782159E-2,1.3222133E-2,-5.865713E-2,-1.8477777E-2,3.3019383E-2,-1.1229685E-2],"categories":[],"categories_nodes":[],"categories_segments":[],"categories_sizes":[],"default_left":[0,0,0,0,0,0,0,0,0,0,0,0,0,0,0],"id":9,"left_children":[1,3,5,7,9,11,13,-1,-1,-1,-1,-1,-1,-1,-1],"loss_changes":[1.0037304E2,3.2237633E1,5.897283E1,1.3378368E1,1.3908913E1,2.7462196E1,2.844091E1,0E0,0E0,0E0,0E0,0E0,0E0,0E0,0E0],"parents":[2147483647,0,0,1,1,2,2,3,3,4,4,5,5,6,6],"right_children":[2,4,6,8,10,12,14,-1,-1,-1,-1,-1,-1,-1,-1],"split_conditions":[1E1,4.2E0,1.9E1,5E0,1.2E1,4E0,2.1E1,-4.342998E-2,1.3036415E-2,4.782159E-2,1.3222133E-2,-5.865713E-2,-1.8477777E-2,3.3019383E-2,-1.1229685E-2],"split_indices":[51,73,80,85,60,103,28,0,0,0,0,0,0,0,0],"split_type":[0,0,0,0,0,0,0,0,0,0,0,0,0,0,0],"sum_hessian":[2.6396353E3,8.2251953E2,1.8171157E3,1.7585588E2,6.4666364E2,1.2306173E3,5.8649854E2,6.691648E1,1.089394E2,4.9355014E2,1.5311351E2,2.0339478E2,1.0272225E3,3.2559082E2,2.6090768E2],"tree_param":{"num_deleted":"0","num_feature":"106","num_nodes":"15","size_leaf_vector":"1"}},{"base_weights":[5.848254E-3,1.3116284E-1,-2.7444214E-1,-1.0538057E-1,2.6320058E-1,-1.26585E-1,-5.2460325E-1,-3.320383E-2,1.4568431E-3,5.1059622E-2,1.6053936E-2,2.655357E-3,-3.26888E-2,-7.668764E-2,-3.6959823E-2],"categories":[],"categories_nodes":[],"categories_segments":[],"categories_sizes":[],"default_left":[0,0,0,0,0,0,0,0,0,0,0,0,0,0,0],"id":10,"left_children":[1,3,5,7,9,11,13,-1,-1,-1,-1,-1,-1,-1,-1],"loss_changes":[9.213718E1,5.664272E1,2.9910664E1,1.7678715E1,2.9471306E1,1.5673964E1,1.1010834E1,0E0,0E0,0E0,0E0,0E0,0E0,0E0,0E0],"parents":[2147483647,0,0,1,1,2,2,3,3,4,4,5,5,6,6],"right_children":[2,4,6,8,10,12,14,-1,-1,-1,-1,-1,-1,-1,-1],"split_conditions":[2E1,1E1,5.61E-1,6E0,7E0,2.1E1,-6E0,-3.320383E-2,1.4568431E-3,5.1059622E-2,1.6053936E-2,2.655357E-3,-3.26888E-2,-7.668764E-2,-3.6959823E-2],"split_indices":[28,103,55,88,51,44,25,0,0,0,0,0,0,0,0],"split_type":[0,0,0,0,0,0,0,0,0,0,0,0,0,0,0],"sum_hessian":[2.6211372E3,1.8116857E3,8.094516E2,6.4907697E2,1.1626086E3,5.0970044E2,2.9975116E2,2.2401196E2,4.2506503E2,3.39793E2,8.228156E2,2.8934985E2,2.2035059E2,1.15413025E2,1.8433813E2],"tree_param":{"num_deleted":"0","num_feature":"106","num_nodes":"15","size_leaf_vector":"1"}},{"base_weights":[5.585649E-3,1.1290528E-1,-2.749149E-1,-1.6959757E-1,2.2298607E-1,7.559106E-2,-3.644059E-1,-7.618093E-2,-1.1262061E-2,5.6887712E-2,1.6388847E-2,3.141381E-2,-1.535687E-2,-2.2322625E-2,-5.14881E-2],"categories":[],"categories_nodes":[],"categories_segments":[],"categories_sizes":[],"default_left":[0,0,0,0,0,0,0,0,0,0,0,0,0,0,0],"id":11,"left_children":[1,3,5,7,9,11,13,-1,-1,-1,-1,-1,-1,-1,-1],"loss_changes":[7.899356E1,5.905902E1,2.2805046E1,1.7890182E1,2.7832893E1,8.167227E0,1.2177635E1,0E0,0E0,0E0,0E0,0E0,0E0,0E0,0E0],"parents":[2147483647,0,0,1,1,2,2,3,3,4,4,5,5,6,6],"right_children":[2,4,6,8,10,12,14,-1,-1,-1,-1,-1,-1,-1,-1],"split_conditions":[2.1E1,8E0,3.59E-1,2E0,4E0,1.9E1,2.1E1,-7.618093E-2,-1.1262061E-2,5.6887712E-2,1.6388847E-2,3.141381E-2,-1.535687E-2,-2.2322625E-2,-5.14881E-2],"split_indices":[28,103,55,98,33,46,43,0,0,0,0,0,0,0,0],"split_type":[0,0,0,0,0,0,0,0,0,0,0,0,0,0,0],"sum_hessian":[2.6220596E3,1.8969016E3,7.2515796E2,5.317413E2,1.3651604E3,1.4752151E2,5.776364E2,4.558331E1,4.8615793E2,1.9795105E2,1.1672094E3,7.2098625E1,7.542289E1,2.993046E2,2.7833182E2],"tree_param":{"num_deleted":"0","num_feature":"106","num_nodes":"15","size_leaf_vector":"1"}},{"base_weights":[-1.106323E-2,9.8832004E-2,-2.3889467E-1,2.0108855E-1,-2.1577238E-1,-3.1407633E-1,5.7137866E-2,1.4128906E-2,5.561247E-2,-2.5887115E-2,7.270097E-2,-9.76262E-3,-4.2265873E-2,3.4110762E-2,-2.6981452E-2],"categories":[],"categories_nodes":[],"categories_segments":[],"categories_sizes":[],"default_left":[0,0,0,0,0,0,0,0,0,0,0,0,0,0,0],"id":12,"left_children":[1,3,5,7,9,11,13,-1,-1,-1,-1,-1,-1,-1,-1],"loss_changes":[6.5069374E1,5.6446865E1,1.8838898E1,2.8025127E1,1.768316E1,1.5812111E1,1.6071947E1,0E0,0E0,0E0,0E0,0E0,0E0,0E0,0E0],"parents":[2147483647,0,0,1,1,2,2,3,3,4,4,5,5,6,6],"right_children":[2,4,6,8,10,12,14,-1,-1,-1,-1,-1,-1,-1,-1],"split_conditions":[2E1,4.3E0,2.4E1,2.6E1,1.08E1,1.7E1,3.29E1,1.4128906E-2,5.561247E-2,-2.5887115E-2,7.270097E-2,-9.76262E-3,-4.2265873E-2,3.4110762E-2,-2.6981452E-2],"split_indices":[27,77,81,80,25,47,15,0,0,0,0,0,0,0,0],"split_type":[0,0,0,0,0,0,0,0,0,0,0,0,0,0,0],"sum_hessian":[2.596924E3,1.7522749E3,8.4464923E2,1.3227118E3,4.2956308E2,6.735346E2,1.7111462E2,1.1332363E3,1.8947548E2,4.11478E2,1.8085073E1,2.2563962E2,4.47895E2,9.1553696E1,7.956093E1],"tree_param":{"num_deleted":"0","num_feature":"106","num_nodes":"15","size_leaf_vector":"1"}},{"base_weights":[1.0370454E-2,-3.2594094E-1,8.5222356E-2,1.1361122E0,-3.5749727E-1,2.000512E-2,4.8139152E-1,-1.9311404E-2,1.428173E-1,-4.159268E-2,4.0233836E-2,2.3851743E-2,-6.899405E-3,3.0314077E-2,7.0885554E-2],"categories":[],"categories_nodes":[],"categories_segments":[],"categories_sizes":[],"default_left":[0,0,0,0,0,0,0,0,0,0,0,0,0,0,0],"id":13,"left_children":[1,3,5,7,9,11,13,-1,-1,-1,-1,-1,-1,-1,-1],"loss_changes":[6.597558E1,2.2419346E1,5.5374683E1,4.2821245E0,2.0936443E1,3.5831673E1,1.2068657E1,0E0,0E0,0E0,0E0,0E0,0E0,0E0,0E0],"parents":[2147483647,0,0,1,1,2,2,3,3,4,4,5,5,6,6],"right_children":[2,4,6,8,10,12,14,-1,-1,-1,-1,-1,-1,-1,-1],"split_conditions":[-4.6E0,9E0,2.6E1,1.7E1,2.8E1,7E0,2.3E1,-1.9311404E-2,1.428173E-1,-4.159268E-2,4.0233836E-2,2.3851743E-2,-6.899405E-3,3.0314077E-2,7.0885554E-2],"split_indices":[25,33,103,32,80,27,1,0,0,0,0,0,0,0,0],"split_type":[0,0,0,0,0,0,0,0,0,0,0,0,0,0,0],"sum_hessian":[2.618726E3,4.76126E2,2.1425999E3,9.319864E0,4.6680612E2,1.8406442E3,3.0195575E2,1.7399228E0,7.5799417E0,4.338934E2,3.291273E1,5.322282E2,1.308416E3,1.7059932E2,1.3135643E2],"tree_param":{"num_deleted":"0","num_feature":"106","num_nodes":"15","size_leaf_vector":"1"}},{"base_weights":[-1.1182565E-2,2.1434207E-1,-9.706303E-2,3.6786094E-1,2.0259572E-2,4.1129153E-2,-2.4672282E-1,-1.9653462E-2,4.4811524E-2,-1.9086441E-2,2.3913201E-2,-2.07692E-3,3.7141923E-2,-1.8120129E-2,-5.8388926E-2],"categories":[],"categories_nodes":[],"categories_segments":[],"categories_sizes":[],"default_left":[0,0,0,0,0,0,0,0,0,0,0,0,0,0,0],"id":14,"left_children":[1,3,5,7,9,11,13,-1,-1,-1,-1,-1,-1,-1,-1],"loss_changes":[4.987764E1,2.115392E1,3.858049E1,1.8047325E1,1.45890875E1,1.9848515E1,1.967651E1,0E0,0E0,0E0,0E0,0E0,0E0,0E0,0E0],"parents":[2147483647,0,0,1,1,2,2,3,3,4,4,5,5,6,6],"right_children":[2,4,6,8,10,12,14,-1,-1,-1,-1,-1,-1,-1,-1],"split_conditions":[9E0,3.01E1,6E-1,4E0,1.7E1,2.8E1,2.7E1,-1.9653462E-2,4.4811524E-2,-1.9086441E-2,2.3913201E-2,-2.07692E-3,3.7141923E-2,-1.8120129E-2,-5.8388926E-2],"split_indices":[51,61,77,81,49,81,47,0,0,0,0,0,0,0,0],"split_type":[0,0,0,0,0,0,0,0,0,0,0,0,0,0,0],"sum_hessian":[2.5731648E3,7.092245E2,1.8639403E3,3.9549408E2,3.137304E2,9.694755E2,8.944648E2,4.905579E1,3.464383E2,1.5975702E2,1.5397337E2,8.172543E2,1.5222127E2,7.5021326E2,1.442515E2],"tree_param":{"num_deleted":"0","num_feature":"106","num_nodes":"15","size_leaf_vector":"1"}},{"base_weights":[-2.4168938E-3,1.0304885E-1,-1.698859E-1,1.856163E-1,-1.2640081E-1,-2.3252065E-1,9.090394E-2,-1.4459853E-2,2.5200013E-2,-2.6126234E-2,2.4781818E-2,7.2430572E-3,-2.9581398E-2,4.0924016E-2,-1.2695801E-2],"categories":[],"categories_nodes":[],"categories_segments":[],"categories_sizes":[],"default_left":[0,0,0,0,0,0,0,0,0,0,0,0,0,0,0],"id":15,"left_children":[1,3,5,7,9,11,13,-1,-1,-1,-1,-1,-1,-1,-1],"loss_changes":[4.527795E1,2.9823494E1,1.6201828E1,2.5401752E1,2.11018E1,1.5443752E1,1.3406385E1,0E0,0E0,0E0,0E0,0E0,0E0,0E0,0E0],"parents":[2147483647,0,0,1,1,2,2,3,3,4,4,5,5,6,6],"right_children":[2,4,6,8,10,12,14,-1,-1,-1,-1,-1,-1,-1,-1],"split_conditions":[1.8E1,1.2E1,2.5E1,6E0,2.1E1,8E0,1.46E1,-1.4459853E-2,2.5200013E-2,-2.6126234E-2,2.4781818E-2,7.2430572E-3,-2.9581398E-2,4.0924016E-2,-1.2695801E-2],"split_indices":[27,60,93,95,75,53,18,0,0,0,0,0,0,0,0],"split_type":[0,0,0,0,0,0,0,0,0,0,0,0,0,0,0],"sum_hessian":[2.5615535E3,1.57197E3,9.895835E2,1.1561283E3,4.1584164E2,7.980271E2,1.9155637E2,1.9331886E2,9.628095E2,3.059021E2,1.0993954E2,1.3713893E2,6.608882E2,7.747409E1,1.14082275E2],"tree_param":{"num_deleted":"0","num_feature":"106","num_nodes":"15","size_leaf_vector":"1"}},{"base_weights":[-4.880645E-3,4.715773E-2,-3.080409E-1,-3.5528973E-2,2.576833E-1,-3.7894565E-1,2.583961E-1,-8.831116E-3,2.3338981E-2,-5.6550177E-3,3.2125384E-2,4.436237E-2,-4.1014418E-2,1.573529E-1,1.01971235E-2],"categories":[],"categories_nodes":[],"categories_segments":[],"categories_sizes":[],"default_left":[0,0,0,0,0,0,0,0,0,0,0,0,0,0,0],"id":16,"left_children":[1,3,5,7,9,11,13,-1,-1,-1,-1,-1,-1,-1,-1],"loss_changes":[4.0389286E1,3.8048054E1,1.5162155E1,2.2303003E1,1.2330338E1,8.747089E0,8.546038E0,0E0,0E0,0E0,0E0,0E0,0E0,0E0,0E0],"parents":[2147483647,0,0,1,1,2,2,3,3,4,4,5,5,6,6],"right_children":[2,4,6,8,10,12,14,-1,-1,-1,-1,-1,-1,-1,-1],"split_conditions":[6E0,6E-1,1.17E1,2.6E1,4.2E0,2E0,8.33E1,-8.831116E-3,2.3338981E-2,-5.6550177E-3,3.2125384E-2,4.436237E-2,-4.1014418E-2,1.573529E-1,1.01971235E-2],"split_indices":[77,3,66,103,73,82,58,0,0,0,0,0,0,0,0],"split_type":[0,0,0,0,0,0,0,0,0,0,0,0,0,0,0],"sum_hessian":[2.5582576E3,2.1841807E3,3.740768E2,1.5688324E3,6.153484E2,3.3275467E2,4.132216E1,1.311992E3,2.568404E2,1.0355907E2,5.1178934E2,1.167652E1,3.2107812E2,3.4295015E0,3.789266E1],"tree_param":{"num_deleted":"0","num_feature":"106","num_nodes":"15","size_leaf_vector":"1"}},{"base_weights":[-5.380012E-3,2.2824904E-1,-7.540971E-2,3.7740648E-2,4.1749087E-1,-3.539746E-2,-5.369405E-1,3.184929E-2,-1.1153833E-2,-2.0114973E-2,4.8395578E-2,1.0057066E-3,-3.5064746E-2,-5.7593353E-2,1.13424994E-1],"categories":[],"categories_nodes":[],"categories_segments":[],"categories_sizes":[],"default_left":[0,0,0,0,0,0,0,0,0,0,0,0,0,0,0],"id":17,"left_children":[1,3,5,7,9,11,13,-1,-1,-1,-1,-1,-1,-1,-1],"loss_changes":[4.1811153E1,2.12321E1,3.628922E1,1.2390658E1,1.225037E1,2.5944897E1,1.0870026E1,0E0,0E0,0E0,0E0,0E0,0E0,0E0,0E0],"parents":[2147483647,0,0,1,1,2,2,3,3,4,4,5,5,6,6],"right_children":[2,4,6,8,10,12,14,-1,-1,-1,-1,-1,-1,-1,-1],"split_conditions":[7E0,1.2E1,7.5E0,1.69E1,6E0,2.8E1,1.22E2,3.184929E-2,-1.1153833E-2,-2.0114973E-2,4.8395578E-2,1.0057066E-3,-3.5064746E-2,-5.7593353E-2,1.13424994E-1],"split_indices":[27,81,77,63,1,51,76,0,0,0,0,0,0,0,0],"split_type":[0,0,0,0,0,0,0,0,0,0,0,0,0,0,0],"sum_hessian":[2.5534905E3,5.8836426E2,1.9651261E3,2.9379868E2,2.9456555E2,1.8093425E3,1.5578363E2,1.0159437E2,1.9220432E2,2.8380419E1,2.6618515E2,1.5821826E3,2.2715994E2,1.5287212E2,2.9115112E0],"tree_param":{"num_deleted":"0","num_feature":"106","num_nodes":"15","size_leaf_vector":"1"}},{"base_weights":[-9.468501E-3,1.1583912E-1,-9.6761264E-2,4.2686617E-1,3.699358E-2,-4.0770546E-2,-3.16804E-1,-1.3140701E-1,4.5512415E-2,9.68087E-3,-2.5615094E-2,2.8123768E-4,-5.3163875E-2,8.894238E-3,-4.1828204E-2],"categories":[],"categories_nodes":[],"categories_segments":[],"categories_sizes":[],"default_left":[0,0,0,0,0,0,0,0,0,0,0,0,0,0,0],"id":18,"left_children":[1,3,5,7,9,11,13,-1,-1,-1,-1,-1,-1,-1,-1],"loss_changes":[2.7932274E1,2.56973E1,1.852966E1,1.1025143E1,1.4711198E1,2.5692957E1,1.2600906E1,0E0,0E0,0E0,0E0,0E0,0E0,0E0,0E0],"parents":[2147483647,0,0,1,1,2,2,3,3,4,4,5,5,6,6],"right_children":[2,4,6,8,10,12,14,-1,-1,-1,-1,-1,-1,-1,-1],"split_conditions":[4.53E-1,7E0,8.01E-1,4.6E0,2.7E1,4.2E1,2E0,-1.3140701E-1,4.5512415E-2,9.68087E-3,-2.5615094E-2,2.8123768E-4,-5.3163875E-2,8.894238E-3,-4.1828204E-2],"split_indices":[59,47,65,60,47,2,105,0,0,0,0,0,0,0,0],"split_type":[0,0,0,0,0,0,0,0,0,0,0,0,0,0,0],"sum_hessian":[2.5515618E3,1.0475255E3,1.5040363E3,2.1095274E2,8.365728E2,1.1999019E3,3.0413434E2,2.6426053E0,2.0831013E2,6.953573E2,1.4121548E2,1.1029667E3,9.6935295E1,6.0871464E1,2.432629E2],"tree_param":{"num_deleted":"0","num_feature":"106","num_nodes":"15","size_leaf_vector":"1"}},{"base_weights":[1.3779636E-2,1.1889949E-1,-1.08030856E-1,4.4839153E-1,7.0921406E-2,-1.5767555E-1,2.531072E-1,7.273411E-2,2.4394995E-2,-2.1813082E-2,1.2737485E-2,6.519792E-3,-2.3254653E-2,4.9329307E-2,-8.677861E-3],"categories":[],"categories_nodes":[],"categories_segments":[],"categories_sizes":[],"default_left":[0,0,0,0,0,0,0,0,0,0,0,0,0,0,0],"id":19,"left_children":[1,3,5,7,9,11,13,-1,-1,-1,-1,-1,-1,-1,-1],"loss_changes":[3.2430813E1,2.1458794E1,2.1075203E1,9.66592E0,1.9410927E1,1.7237604E1,1.1649747E1,0E0,0E0,0E0,0E0,0E0,0E0,0E0,0E0],"parents":[2147483647,0,0,1,1,2,2,3,3,4,4,5,5,6,6],"right_children":[2,4,6,8,10,12,14,-1,-1,-1,-1,-1,-1,-1,-1],"split_conditions":[1.7E1,4E0,2.6E1,4.53E-1,4.1E0,2E0,2.98E1,7.273411E-2,2.4394995E-2,-2.1813082E-2,1.2737485E-2,6.519792E-3,-2.3254653E-2,4.9329307E-2,-8.677861E-3],"split_indices":[47,31,79,59,73,105,61,0,0,0,0,0,0,0,0],"split_type":[0,0,0,0,0,0,0,0,0,0,0,0,0,0,0],"sum_hessian":[2.530724E3,1.3584418E3,1.1722823E3,1.7160301E2,1.1868387E3,1.0311027E3,1.4117958E2,7.149469E1,1.0010832E2,1.93454E2,9.9338477E2,2.593141E2,7.7178864E2,8.245796E1,5.8721622E1],"tree_param":{"num_deleted":"0","num_feature":"106","num_nodes":"15","size_leaf_vector":"1"}},{"base_weights":[5.532706E-4,3.2822702E-2,-2.8912762E-1,-4.2360622E-2,1.7099889E-1,-2.6116427E-2,-5.21142E-1,4.413078E-2,-6.3251415E-3,2.3904858E-2,-1.3168544E-2,-3.5602625E-2,2.3550583E-2,-5.8430918E-2,6.84195E-2],"categories":[],"categories_nodes":[],"categories_segments":[],"categories_sizes":[],"default_left":[0,0,0,0,0,0,0,0,0,0,0,0,0,0,0],"id":20,"left_children":[1,3,5,7,9,11,13,-1,-1,-1,-1,-1,-1,-1,-1],"loss_changes":[2.3679932E1,2.3685627E1,1.5480307E1,1.4950937E1,1.65789E1,1.0446102E1,1.0666901E1,0E0,0E0,0E0,0E0,0E0,0E0,0E0,0E0],"parents":[2147483647,0,0,1,1,2,2,3,3,4,4,5,5,6,6],"right_children":[2,4,6,8,10,12,14,-1,-1,-1,-1,-1,-1,-1,-1],"split_conditions":[2.8E1,1.7E1,1.5E1,2E0,4.06E1,1.2E1,4.8E1,4.413078E-2,-6.3251415E-3,2.3904858E-2,-1.3168544E-2,-3.5602625E-2,2.3550583E-2,-5.8430918E-2,6.84195E-2],"split_indices":[47,80,46,51,57,1,54,0,0,0,0,0,0,0,0],"split_type":[0,0,0,0,0,0,0,0,0,0,0,0,0,0,0],"sum_hessian":[2.5311836E3,2.2782783E3,2.5290547E2,1.4759108E3,8.0236743E2,1.1905613E2,1.3384933E2,6.0275436E1,1.4156354E3,6.5526135E2,1.4710605E2,5.249644E1,6.655969E1,1.2767367E2,6.175665E0],"tree_param":{"num_deleted":"0","num_feature":"106","num_nodes":"15","size_leaf_vector":"1"}},{"base_weights":[6.014666E-3,1.8351184E-1,-4.8200887E-2,-1.8615037E-1,2.4633187E-1,-1.2697144E-1,9.668516E-2,2.78284E-2,-4.6317838E-2,3.432368E-2,-5.06847E-3,-1.6003443E-2,2.405428E-2,1.5610863E-2,-3.15368E-2],"categories":[],"categories_nodes":[],"categories_segments":[],"categories_sizes":[],"default_left":[0,0,0,0,0,0,0,0,0,0,0,0,0,0,0],"id":21,"left_children":[1,3,5,7,9,11,13,-1,-1,-1,-1,-1,-1,-1,-1],"loss_changes":[2.416036E1,1.368729E1,2.196255E1,1.11804695E1,1.4481529E1,1.5183214E1,1.6649181E1,0E0,0E0,0E0,0E0,0E0,0E0,0E0,0E0],"parents":[2147483647,0,0,1,1,2,2,3,3,4,4,5,5,6,6],"right_children":[2,4,6,8,10,12,14,-1,-1,-1,-1,-1,-1,-1,-1],"split_conditions":[2E0,5E0,5.2E0,7.8E0,3.1E1,3.86E-1,2.7E1,2.78284E-2,-4.6317838E-2,3.432368E-2,-5.06847E-3,-1.6003443E-2,2.405428E-2,1.5610863E-2,-3.15368E-2],"split_indices":[105,85,73,71,2,10,47,0,0,0,0,0,0,0,0],"split_type":[0,0,0,0,0,0,0,0,0,0,0,0,0,0,0],"sum_hessian":[2.508742E3,5.86431E2,1.9223109E3,8.489664E1,5.015344E2,1.2453643E3,6.769466E2,3.171771E1,5.3178925E1,3.7803928E2,1.2349511E2,1.1430919E3,1.02272354E2,5.921692E2,8.477743E1],"tree_param":{"num_deleted":"0","num_feature":"106","num_nodes":"15","size_leaf_vector":"1"}},{"base_weights":[6.194778E-3,-3.3675426E-1,3.6355145E-2,-3.9712557E-1,1.1146822E0,2.182723E-1,-2.062031E-2,-5.0588306E-2,8.833463E-3,1.4507453E-1,-3.378852E-2,7.155187E-2,1.7029686E-2,-5.83983E-3,2.3261454E-2],"categories":[],"categories_nodes":[],"categories_segments":[],"categories_sizes":[],"default_left":[0,0,0,0,0,0,0,0,0,0,0,0,0,0,0],"id":22,"left_children":[1,3,5,7,9,11,13,-1,-1,-1,-1,-1,-1,-1,-1],"loss_changes":[2.6087957E1,1.830782E1,2.4031193E1,1.0418175E1,4.5927906E0,1.3069105E1,1.6909838E1,0E0,0E0,0E0,0E0,0E0,0E0,0E0,0E0],"parents":[2147483647,0,0,1,1,2,2,3,3,4,4,5,5,6,6],"right_children":[2,4,6,8,10,12,14,-1,-1,-1,-1,-1,-1,-1,-1],"split_conditions":[3E0,2.2E1,2E0,4.58E1,8.4E0,4E0,4.3E1,-5.0588306E-2,8.833463E-3,1.4507453E-1,-3.378852E-2,7.155187E-2,1.7029686E-2,-5.83983E-3,2.3261454E-2],"split_indices":[85,99,105,16,71,51,1,0,0,0,0,0,0,0,0],"split_type":[0,0,0,0,0,0,0,0,0,0,0,0,0,0,0],"sum_hessian":[2.5199834E3,2.0288159E2,2.3171018E3,1.9547726E2,7.404324E0,5.519494E2,1.7651525E3,1.5966542E2,3.581184E1,6.014156E0,1.3901681E0,4.7343086E1,5.0460632E2,1.5366779E3,2.2847472E2],"tree_param":{"num_deleted":"0","num_feature":"106","num_nodes":"15","size_leaf_vector":"1"}},{"base_weights":[-9.419323E-3,-1.0216245E-1,8.6741135E-2,-1.2658645E-1,4.3663818E-1,-1.5108703E-1,1.6511329E-1,4.1455194E-2,-1.4934562E-2,-3.445785E-2,6.3747235E-2,1.886399E-2,-2.7267938E-2,-1.0338421E-1,1.7615126E-2],"categories":[],"categories_nodes":[],"categories_segments":[],"categories_sizes":[],"default_left":[0,0,0,0,0,0,0,0,0,0,0,0,0,0,0],"id":23,"left_children":[1,3,5,7,9,11,13,-1,-1,-1,-1,-1,-1,-1,-1],"loss_changes":[2.2652271E1,1.7069767E1,2.3269363E1,1.5304461E1,9.051593E0,1.2841198E1,1.2601713E1,0E0,0E0,0E0,0E0,0E0,0E0,0E0,0E0],"parents":[2147483647,0,0,1,1,2,2,3,3,4,4,5,5,6,6],"right_children":[2,4,6,8,10,12,14,-1,-1,-1,-1,-1,-1,-1,-1],"split_conditions":[1.4E1,2.38E1,-3.7E0,2E0,3.18E-1,1.94E1,3.81E1,4.1455194E-2,-1.4934562E-2,-3.445785E-2,6.3747235E-2,1.886399E-2,-2.7267938E-2,-1.0338421E-1,1.7615126E-2],"split_indices":[81,22,25,43,62,75,68,0,0,0,0,0,0,0,0],"split_type":[0,0,0,0,0,0,0,0,0,0,0,0,0,0,0],"sum_hessian":[2.5380051E3,1.2919275E3,1.2460776E3,1.2366355E3,5.5292015E1,3.086179E2,9.374597E2,4.9216393E1,1.1874191E3,1.1161114E1,4.41309E1,8.1198715E1,2.2741919E2,7.706526E0,9.2975323E2],"tree_param":{"num_deleted":"0","num_feature":"106","num_nodes":"15","size_leaf_vector":"1"}},{"base_weights":[-1.1947971E-2,-4.4332724E-2,2.0390205E-1,-1.726412E-2,-3.027418E-1,3.682529E-1,-2.6009316E-2,3.7369054E-2,-3.4134302E-3,-3.854249E-2,3.3752974E-2,4.5318667E-2,-1.6514469E-2,-2.8473949E-2,2.2853157E-2],"categories":[],"categories_nodes":[],"categories_segments":[],"categories_sizes":[],"default_left":[0,0,0,0,0,0,0,0,0,0,0,0,0,0,0],"id":24,"left_children":[1,3,5,7,9,11,13,-1,-1,-1,-1,-1,-1,-1,-1],"loss_changes":[1.756644E1,1.5277255E1,1.2397959E1,1.3063488E1,1.1094074E1,8.739241E0,9.127228E0,0E0,0E0,0E0,0E0,0E0,0E0,0E0,0E0],"parents":[2147483647,0,0,1,1,2,2,3,3,4,4,5,5,6,6],"right_children":[2,4,6,8,10,12,14,-1,-1,-1,-1,-1,-1,-1,-1],"split_conditions":[2.6E1,2.8E1,2.98E1,2E0,5.9E0,1.21E1,1.9E1,3.7369054E-2,-3.4134302E-3,-3.854249E-2,3.3752974E-2,4.5318667E-2,-1.6514469E-2,-2.8473949E-2,2.2853157E-2],"split_indices":[103,51,61,35,73,66,98,0,0,0,0,0,0,0,0],"split_type":[0,0,0,0,0,0,0,0,0,0,0,0,0,0,0],"sum_hessian":[2.5106987E3,2.1838435E3,3.2685526E2,1.97774E3,2.061034E2,1.9025256E2,1.3660269E2,8.0936745E1,1.8968032E3,1.828842E2,2.3219194E1,1.6424927E2,2.60033E1,6.7685036E1,6.8917656E1],"tree_param":{"num_deleted":"0","num_feature":"106","num_nodes":"15","size_leaf_vector":"1"}},{"base_weights":[-3.034914E-3,-4.2453695E-2,1.9811043E-1,1.2580676E-1,-9.571247E-2,3.4786493E-1,-5.2316573E-2,1.8856473E-2,-3.651515E-2,-6.828905E-3,-3.6516525E-2,4.474775E-2,-1.6864987E-2,1.4604422E-2,-6.1772425E-2],"categories":[],"categories_nodes":[],"categories_segments":[],"categories_sizes":[],"default_left":[0,0,0,0,0,0,0,0,0,0,0,0,0,0,0],"id":25,"left_children":[1,3,5,7,9,11,13,-1,-1,-1,-1,-1,-1,-1,-1],"loss_changes":[1.9826996E1,1.8748299E1,1.5384872E1,1.557043E1,1.1714293E1,1.3275084E1,1.7384964E1,0E0,0E0,0E0,0E0,0E0,0E0,0E0,0E0],"parents":[2147483647,0,0,1,1,2,2,3,3,4,4,5,5,6,6],"right_children":[2,4,6,8,10,12,14,-1,-1,-1,-1,-1,-1,-1,-1],"split_conditions":[3.4E1,2E0,1.9E1,7.5E-1,2.8E1,7.92E-1,-9E-1,1.8856473E-2,-3.651515E-2,-6.828905E-3,-3.6516525E-2,4.474775E-2,-1.6864987E-2,1.4604422E-2,-6.1772425E-2],"split_indices":[54,105,28,55,51,65,77,0,0,0,0,0,0,0,0],"split_type":[0,0,0,0,0,0,0,0,0,0,0,0,0,0,0],"sum_hessian":[2.498536E3,2.0897861E3,4.0874985E2,5.0210938E2,1.5876766E3,2.5554546E2,1.532044E2,4.4574664E2,5.636275E1,1.4421555E3,1.455212E2,2.1434212E2,4.1203342E1,1.1396426E2,3.9240143E1],"tree_param":{"num_deleted":"0","num_feature":"106","num_nodes":"15","size_leaf_vector":"1"}},{"base_weights":[-1.3672985E-3,6.4382896E-2,-1.3440797E-1,3.3420578E-3,2.3333664E-1,-1.0036315E-1,-6.1921984E-1,-2.1831715E-2,4.845131E-3,-2.298504E-2,2.9347286E-2,7.869492E-3,-1.6625041E-2,4.0757884E-3,-9.0630874E-2],"categories":[],"categories_nodes":[],"categories_segments":[],"categories_sizes":[],"default_left":[0,0,0,0,0,0,0,0,0,0,0,0,0,0,0],"id":26,"left_children":[1,3,5,7,9,11,13,-1,-1,-1,-1,-1,-1,-1,-1],"loss_changes":[2.1818274E1,1.721469E1,1.3554244E1,1.2281899E1,1.2407358E1,9.1212435E0,1.0256502E1,0E0,0E0,0E0,0E0,0E0,0E0,0E0,0E0],"parents":[2147483647,0,0,1,1,2,2,3,3,4,4,5,5,6,6],"right_children":[2,4,6,8,10,12,14,-1,-1,-1,-1,-1,-1,-1,-1],"split_conditions":[2.9E0,6E-1,2.7E1,4.4E0,4E0,8E0,1.93E1,-2.1831715E-2,4.845131E-3,-2.298504E-2,2.9347286E-2,7.869492E-3,-1.6625041E-2,4.0757884E-3,-9.0630874E-2],"split_indices":[77,3,30,73,53,96,22,0,0,0,0,0,0,0,0],"split_type":[0,0,0,0,0,0,0,0,0,0,0,0,0,0,0],"sum_hessian":[2.4922544E3,1.6682853E3,8.2396924E2,1.2262694E3,4.420158E2,7.710322E2,5.293699E1,2.0670694E2,1.01956256E3,5.04687E1,3.915471E2,2.0734581E2,5.6368646E2,1.6307142E1,3.6629845E1],"tree_param":{"num_deleted":"0","num_feature":"106","num_nodes":"15","size_leaf_vector":"1"}},{"base_weights":[9.968086E-3,3.2889813E-1,-1.3912206E-2,1.21828705E-1,6.1522985E-1,4.2758083E-1,-2.9047603E-2,-1.4935905E-1,1.8190987E-2,7.707769E-2,-3.940565E-3,6.2326133E-2,-1.828987E-2,1.9181242E-2,-6.2353313E-3],"categories":[],"categories_nodes":[],"categories_segments":[],"categories_sizes":[],"default_left":[0,0,0,0,0,0,0,0,0,0,0,0,0,0,0],"id":27,"left_children":[1,3,5,7,9,11,13,-1,-1,-1,-1,-1,-1,-1,-1],"loss_changes":[1.89431E1,1.0197735E1,1.5477437E1,1.0151409E1,7.4093895E0,9.285533E0,1.6478832E1,0E0,0E0,0E0,0E0,0E0,0E0,0E0,0E0],"parents":[2147483647,0,0,1,1,2,2,3,3,4,4,5,5,6,6],"right_children":[2,4,6,8,10,12,14,-1,-1,-1,-1,-1,-1,-1,-1],"split_conditions":[3E0,1.3E1,2E0,2E0,8.05E-1,8.5E0,5E0,-1.4935905E-1,1.8190987E-2,7.707769E-2,-3.940565E-3,6.2326133E-2,-1.828987E-2,1.9181242E-2,-6.2353313E-3],"split_indices":[41,32,35,84,13,71,47,0,0,0,0,0,0,0,0],"split_type":[0,0,0,0,0,0,0,0,0,0,0,0,0,0,0],"sum_hessian":[2.4856296E3,1.722601E2,2.3133694E3,1.00793625E2,7.146647E1,7.577566E1,2.2375938E3,2.758752E0,9.8034874E1,5.760226E1,1.3864205E1,5.7366657E1,1.8409002E1,2.9258917E2,1.9450046E3],"tree_param":{"num_deleted":"0","num_feature":"106","num_nodes":"15","size_leaf_vector":"1"}},{"base_weights":[6.618692E-3,1.4238597E-1,-3.8304105E-2,1.6327515E-1,-8.582471E-1,5.154763E-2,-1.4710177E-1,7.2506927E-3,3.5058536E-2,-1.2818977E-1,5.3593617E-2,2.9132953E-3,7.080243E-2,-1.2906592E-1,-1.3322127E-2],"categories":[],"categories_nodes":[],"categories_segments":[],"categories_sizes":[],"default_left":[0,0,0,0,0,0,0,0,0,0,0,0,0,0,0],"id":28,"left_children":[1,3,5,7,9,11,13,-1,-1,-1,-1,-1,-1,-1,-1],"loss_changes":[1.51301985E1,1.3031652E1,1.8230448E1,1.0260279E1,8.230613E0,1.50132E1,1.321578E1,0E0,0E0,0E0,0E0,0E0,0E0,0E0,0E0],"parents":[2147483647,0,0,1,1,2,2,3,3,4,4,5,5,6,6],"right_children":[2,4,6,8,10,12,14,-1,-1,-1,-1,-1,-1,-1,-1],"split_conditions":[-2.4E0,7.3E0,1.7E1,2.3E1,2.4E1,1.08E1,3E0,7.2506927E-3,3.5058536E-2,-1.2818977E-1,5.3593617E-2,2.9132953E-3,7.080243E-2,-1.2906592E-1,-1.3322127E-2],"split_indices":[77,21,47,1,42,25,33,0,0,0,0,0,0,0,0],"split_type":[0,0,0,0,0,0,0,0,0,0,0,0,0,0,0],"sum_hessian":[2.478854E3,6.157483E2,1.8631058E3,6.039765E2,1.1771764E1,1.02068677E3,8.4241907E2,4.0776547E2,1.9621103E2,9.090095E0,2.6816688E0,9.879971E2,3.2689705E1,8.999554E0,8.334195E2],"tree_param":{"num_deleted":"0","num_feature":"106","num_nodes":"15","size_leaf_vector":"1"}},{"base_weights":[2.0856304E-2,-3.5549935E-2,1.2227498E-1,-5.317394E-2,4.135067E-1,2.89109E-1,4.6745874E-2,-2.4392402E-2,-1.3433844E-3,5.693478E-2,-2.2427319E-2,-7.409635E-2,3.218778E-2,-2.5900044E-3,3.210739E-2],"categories":[],"categories_nodes":[],"categories_segments":[],"categories_sizes":[],"default_left":[0,0,0,0,0,0,0,0,0,0,0,0,0,0,0],"id":29,"left_children":[1,3,5,7,9,11,13,-1,-1,-1,-1,-1,-1,-1,-1],"loss_changes":[1.4205015E1,1.2652548E1,1.1168611E1,1.1644482E1,6.1293983E0,9.5667095E0,1.2205854E1,0E0,0E0,0E0,0E0,0E0,0E0,0E0,0E0],"parents":[2147483647,0,0,1,1,2,2,3,3,4,4,5,5,6,6],"right_children":[2,4,6,8,10,12,14,-1,-1,-1,-1,-1,-1,-1,-1],"split_conditions":[5.2E0,3.95E-1,1E1,5E0,2E1,4.8E0,2.8E1,-2.4392402E-2,-1.3433844E-3,5.693478E-2,-2.2427319E-2,-7.409635E-2,3.218778E-2,-2.5900044E-3,3.210739E-2],"split_indices":[73,10,47,83,85,60,1,0,0,0,0,0,0,0,0],"split_type":[0,0,0,0,0,0,0,0,0,0,0,0,0,0,0],"sum_hessian":[2.4813538E3,1.5949413E3,8.8641235E2,1.5355573E3,5.9384018E1,2.753569E2,6.110555E2,2.6386813E2,1.2716891E3,4.780917E1,1.1574847E1,7.8232894E0,2.675336E2,4.838348E2,1.2722068E2],"tree_param":{"num_deleted":"0","num_feature":"106","num_nodes":"15","size_leaf_vector":"1"}},{"base_weights":[-2.9059618E-3,-5.5500377E-2,1.2160225E-1,-1.01998635E-1,1.462939E-1,-5.818629E-2,2.0834804E-1,2.1141628E-2,-1.3780597E-2,-1.3068675E-2,2.3837922E-2,-1.9286355E-2,2.8996918E-2,3.947949E-2,8.060421E-3],"categories":[],"categories_nodes":[],"categories_segments":[],"categories_sizes":[],"default_left":[0,0,0,0,0,0,0,0,0,0,0,0,0,0,0],"id":30,"left_children":[1,3,5,7,9,11,13,-1,-1,-1,-1,-1,-1,-1,-1],"loss_changes":[1.6175135E1,1.6308605E1,1.1452482E1,1.5874123E1,8.336061E0,1.1286747E1,1.1758467E1,0E0,0E0,0E0,0E0,0E0,0E0,0E0,0E0],"parents":[2147483647,0,0,1,1,2,2,3,3,4,4,5,5,6,6],"right_children":[2,4,6,8,10,12,14,-1,-1,-1,-1,-1,-1,-1,-1],"split_conditions":[2.7E0,2.5E1,9E0,5E0,7.47E-1,2E1,2.7E1,2.1141628E-2,-1.3780597E-2,-1.3068675E-2,2.3837922E-2,-1.9286355E-2,2.8996918E-2,3.947949E-2,8.060421E-3],"split_indices":[25,93,49,53,65,99,61,0,0,0,0,0,0,0,0],"split_type":[0,0,0,0,0,0,0,0,0,0,0,0,0,0,0],"sum_hessian":[2.4680452E3,1.735496E3,7.3254913E2,1.410888E3,3.24608E2,2.3852129E2,4.9402786E2,1.4416187E2,1.2667261E3,8.0888054E1,2.4371994E2,1.7231181E2,6.620948E1,2.0001219E2,2.940157E2],"tree_param":{"num_deleted":"0","num_feature":"106","num_nodes":"15","size_leaf_vector":"1"}},{"base_weights":[-2.577836E-3,1.2801449E-1,-4.342677E-2,1.8889149E-1,-2.6913315E-1,4.0178213E-2,-1.2592524E-1,2.4904925E-2,-1.3898718E-2,-6.809046E-2,1.7990252E-3,-1.0243355E-2,1.3076954E-2,-1.9275788E-3,-2.5892243E-2],"categories":[],"categories_nodes":[],"categories_segments":[],"categories_sizes":[],"default_left":[0,0,0,0,0,0,0,0,0,0,0,0,0,0,0],"id":31,"left_children":[1,3,5,7,9,11,13,-1,-1,-1,-1,-1,-1,-1,-1],"loss_changes":[1.3223054E1,1.4330162E1,1.3027817E1,1.0147345E1,9.341942E0,1.2138488E1,1.3478117E1,0E0,0E0,0E0,0E0,0E0,0E0,0E0,0E0],"parents":[2147483647,0,0,1,1,2,2,3,3,4,4,5,5,6,6],"right_children":[2,4,6,8,10,12,14,-1,-1,-1,-1,-1,-1,-1,-1],"split_conditions":[2E0,7.11E-1,2.94E1,3.7E1,5E0,1.1E1,1.7E1,2.4904925E-2,-1.3898718E-2,-6.809046E-2,1.7990252E-3,-1.0243355E-2,1.3076954E-2,-1.9275788E-3,-2.5892243E-2],"split_indices":[105,55,61,2,99,85,47,0,0,0,0,0,0,0,0],"split_type":[0,0,0,0,0,0,0,0,0,0,0,0,0,0,0],"sum_hessian":[2.4767117E3,5.8961224E2,1.8870994E3,5.1170035E2,7.7911896E1,9.37519E2,9.495804E2,4.3257394E2,7.912639E1,3.1444714E1,4.646718E1,3.6414288E2,5.733761E2,5.27626E2,4.2195444E2],"tree_param":{"num_deleted":"0","num_feature":"106","num_nodes":"15","size_leaf_vector":"1"}},{"base_weights":[-4.446545E-3,-2.6341194E-2,2.8715193E-1,-1.9664933E-1,8.857004E-3,9.9997155E-2,5.2064043E-1,-2.9318029E-2,1.1035913E-2,3.512591E-3,-2.3994155E-2,5.7224583E-2,-4.312786E-3,6.4756975E-2,-4.504652E-2],"categories":[],"categories_nodes":[],"categories_segments":[],"categories_sizes":[],"default_left":[0,0,0,0,0,0,0,0,0,0,0,0,0,0,0],"id":32,"left_children":[1,3,5,7,9,11,13,-1,-1,-1,-1,-1,-1,-1,-1],"loss_changes":[1.5824402E1,1.3820914E1,7.512496E0,1.1735047E1,1.2500766E1,6.6029773E0,9.7560425E0,0E0,0E0,0E0,0E0,0E0,0E0,0E0,0E0],"parents":[2147483647,0,0,1,1,2,2,3,3,4,4,5,5,6,6],"right_children":[2,4,6,8,10,12,14,-1,-1,-1,-1,-1,-1,-1,-1],"split_conditions":[2.8E1,2.08E1,-1E-1,2E1,4E1,1.8E1,3.76E1,-2.9318029E-2,1.1035913E-2,3.512591E-3,-2.3994155E-2,5.7224583E-2,-4.312786E-3,6.4756975E-2,-4.504652E-2],"split_indices":[81,17,25,26,2,54,9,0,0,0,0,0,0,0,0],"split_type":[0,0,0,0,0,0,0,0,0,0,0,0,0,0,0],"sum_hessian":[2.4764016E3,2.3042935E3,1.7210803E2,3.938834E2,1.9104102E3,9.632563E1,7.57824E1,2.9969653E2,9.418686E1,1.728743E3,1.816671E2,2.1706299E1,7.461933E1,6.731685E1,8.46555E0],"tree_param":{"num_deleted":"0","num_feature":"106","num_nodes":"15","size_leaf_vector":"1"}},{"base_weights":[-1.0932644E-2,-1.9500889E-2,5.9549826E-1,2.4663534E-3,-2.6639572E-1,-2.2425413E-1,8.438188E-1,2.4822333E-3,-2.2769263E-2,-4.5709666E-2,2.2829806E-3,-9.292669E-2,1.0619992E-1,9.730841E-2,-2.7690366E-2],"categories":[],"categories_nodes":[],"categories_segments":[],"categories_sizes":[],"default_left":[0,0,0,0,0,0,0,0,0,0,0,0,0,0,0],"id":33,"left_children":[1,3,5,7,9,11,13,-1,-1,-1,-1,-1,-1,-1,-1],"loss_changes":[1.2847956E1,1.3217721E1,7.2018566E0,1.1525422E1,1.0992982E1,8.966384E0,4.130295E0,0E0,0E0,0E0,0E0,0E0,0E0,0E0,0E0],"parents":[2147483647,0,0,1,1,2,2,3,3,4,4,5,5,6,6],"right_children":[2,4,6,8,10,12,14,-1,-1,-1,-1,-1,-1,-1,-1],"split_conditions":[3.91E1,7.5E0,7E0,8.12E-1,1.2E1,1.1E1,4.47E1,2.4822333E-3,-2.2769263E-2,-4.5709666E-2,2.2829806E-3,-9.292669E-2,1.0619992E-1,9.730841E-2,-2.7690366E-2],"split_indices":[15,77,90,65,97,82,5,0,0,0,0,0,0,0,0],"split_type":[0,0,0,0,0,0,0,0,0,0,0,0,0,0,0],"sum_hessian":[2.4694048E3,2.435955E3,3.3449696E1,2.2378357E3,1.9811938E2,7.7993855E0,2.5650309E1,2.040526E3,1.9730977E2,1.1904596E2,7.907342E1,5.21727E0,2.582116E0,2.3115839E1,2.5344698E0],"tree_param":{"num_deleted":"0","num_feature":"106","num_nodes":"15","size_leaf_vector":"1"}},{"base_weights":[1.3822239E-4,1.14692524E-1,-4.8429035E-2,2.7604935E-1,-1.5442978E-3,-1.5027183E-2,-2.3455374E-1,9.836094E-3,4.7018494E-2,1.2909736E-2,-2.1547409E-2,-1.5804358E-2,4.7609173E-3,-9.919654E-3,-4.738572E-2],"categories":[],"categories_nodes":[],"categories_segments":[],"categories_sizes":[],"default_left":[0,0,0,0,0,0,0,0,0,0,0,0,0,0,0],"id":34,"left_children":[1,3,5,7,9,11,13,-1,-1,-1,-1,-1,-1,-1,-1],"loss_changes":[1.3823199E1,1.3874905E1,1.0843952E1,1.0639175E1,1.2073172E1,1.3269154E1,8.550176E0,0E0,0E0,0E0,0E0,0E0,0E0,0E0,0E0],"parents":[2147483647,0,0,1,1,2,2,3,3,4,4,5,5,6,6],"right_children":[2,4,6,8,10,12,14,-1,-1,-1,-1,-1,-1,-1,-1],"split_conditions":[1E1,2.7E1,2.7E1,4.66E-1,2.08E1,9.7E0,2.1E1,9.836094E-3,4.7018494E-2,1.2909736E-2,-2.1547409E-2,-1.5804358E-2,4.7609173E-3,-9.919654E-3,-4.738572E-2],"split_indices":[50,61,47,7,74,66,46,0,0,0,0,0,0,0,0],"split_type":[0,0,0,0,0,0,0,0,0,0,0,0,0,0,0],"sum_hessian":[2.4825852E3,7.387511E2,1.7438341E3,3.0876166E2,4.2998947E2,1.479419E3,2.644151E2,1.6199634E2,1.4676532E2,2.672084E2,1.6278105E2,4.5012775E2,1.0292913E3,1.6979085E2,9.462427E1],"tree_param":{"num_deleted":"0","num_feature":"106","num_nodes":"15","size_leaf_vector":"1"}},{"base_weights":[-1.2109549E-3,7.3107064E-2,-6.2403426E-2,3.2024775E-2,5.195334E-1,-8.961232E-2,2.3799795E-1,-2.7191242E-2,7.817091E-3,6.314709E-2,-3.1881545E-2,3.7577998E-2,-1.0647821E-2,1.3656202E-2,1.2015913E-1],"categories":[],"categories_nodes":[],"categories_segments":[],"categories_sizes":[],"default_left":[0,0,0,0,0,0,0,0,0,0,0,0,0,0,0],"id":35,"left_children":[1,3,5,7,9,11,13,-1,-1,-1,-1,-1,-1,-1,-1],"loss_changes":[1.1146806E1,2.0283115E1,1.1008572E1,1.4252059E1,8.948204E0,9.720676E0,1.0774911E1,0E0,0E0,0E0,0E0,0E0,0E0,0E0,0E0],"parents":[2147483647,0,0,1,1,2,2,3,3,4,4,5,5,6,6],"right_children":[2,4,6,8,10,12,14,-1,-1,-1,-1,-1,-1,-1,-1],"split_conditions":[2.75E1,4.77E-1,2.6E1,8.06E1,2.08E1,2E0,4.03E1,-2.7191242E-2,7.817091E-3,6.314709E-2,-3.1881545E-2,3.7577998E-2,-1.0647821E-2,1.3656202E-2,1.2015913E-1],"split_indices":[61,7,82,58,63,35,61,0,0,0,0,0,0,0,0],"split_type":[0,0,0,0,0,0,0,0,0,0,0,0,0,0,0],"sum_hessian":[2.4490815E3,1.1058439E3,1.3432378E3,1.013636E3,9.220789E1,1.2323218E3,1.1091601E2,1.3296724E2,8.806687E2,8.156411E1,1.0643787E1,4.2353455E1,1.1899683E3,1.01385086E2,9.530925E0],"tree_param":{"num_deleted":"0","num_feature":"106","num_nodes":"15","size_leaf_vector":"1"}},{"base_weights":[-4.0569333E-3,-1.798446E-1,2.0891814E-2,3.2876205E-1,-2.6369244E-1,3.882924E-2,-2.3972742E-1,-6.505201E-2,5.9687406E-2,-5.966242E-2,-1.4999578E-2,5.6784763E-3,-3.1091824E-2,-6.96455E-2,-9.456034E-3],"categories":[],"categories_nodes":[],"categories_segments":[],"categories_sizes":[],"default_left":[0,0,0,0,0,0,0,0,0,0,0,0,0,0,0],"id":36,"left_children":[1,3,5,7,9,11,13,-1,-1,-1,-1,-1,-1,-1,-1],"loss_changes":[1.0733537E1,1.3058441E1,1.0029225E1,1.180793E1,9.816017E0,1.2616457E1,9.094404E0,0E0,0E0,0E0,0E0,0E0,0E0,0E0,0E0],"parents":[2147483647,0,0,1,1,2,2,3,3,4,4,5,5,6,6],"right_children":[2,4,6,8,10,12,14,-1,-1,-1,-1,-1,-1,-1,-1],"split_conditions":[-6.3E0,7E0,8.18E-1,-7.6E0,9E0,8.7E0,8.9E0,-6.505201E-2,5.9687406E-2,-5.966242E-2,-1.4999578E-2,5.6784763E-3,-3.1091824E-2,-6.96455E-2,-9.456034E-3],"split_indices":[25,0,65,77,101,77,66,0,0,0,0,0,0,0,0],"split_type":[0,0,0,0,0,0,0,0,0,0,0,0,0,0,0],"sum_hessian":[2.4455474E3,3.031759E2,2.1423716E3,4.249394E1,2.6068198E2,2.0052114E3,1.3716005E2,8.826983E0,3.3666954E1,6.527963E1,1.9540233E2,1.9080906E3,9.7120895E1,3.216483E1,1.04995224E2],"tree_param":{"num_deleted":"0","num_feature":"106","num_nodes":"15","size_leaf_vector":"1"}},{"base_weights":[1.2854245E-2,-6.2425667E-3,2.7131873E-1,3.538583E-1,-1.956939E-2,3.3613083E-1,-3.7705117E-1,1.2443232E-2,7.271927E-2,1.5975056E-2,-4.760129E-3,4.2014323E-2,-2.6767273E-2,-9.135908E-2,5.409884E-2],"categories":[],"categories_nodes":[],"categories_segments":[],"categories_sizes":[],"default_left":[0,0,0,0,0,0,0,0,0,0,0,0,0,0,0],"id":37,"left_children":[1,3,5,7,9,11,13,-1,-1,-1,-1,-1,-1,-1,-1],"loss_changes":[1.206648E1,1.0934836E1,7.194742E0,6.87461E0,1.1050234E1,7.8960266E0,8.255383E0,0E0,0E0,0E0,0E0,0E0,0E0,0E0,0E0],"parents":[2147483647,0,0,1,1,2,2,3,3,4,4,5,5,6,6],"right_children":[2,4,6,8,10,12,14,-1,-1,-1,-1,-1,-1,-1,-1],"split_conditions":[2.8E1,2E0,3E1,2.2E1,5E0,3.67E1,2.2E1,1.2443232E-2,7.271927E-2,1.5975056E-2,-4.760129E-3,4.2014323E-2,-2.6767273E-2,-9.135908E-2,5.409884E-2],"split_indices":[81,35,93,22,47,9,47,0,0,0,0,0,0,0,0],"split_type":[0,0,0,0,0,0,0,0,0,0,0,0,0,0,0],"sum_hessian":[2.4433193E3,2.2761223E3,1.6719688E2,8.0317955E1,2.1958044E3,1.5244029E2,1.4756594E1,5.057271E1,2.9745249E1,2.962156E2,1.8995887E3,1.3408768E2,1.8352608E1,9.316499E0,5.4400945E0],"tree_param":{"num_deleted":"0","num_feature":"106","num_nodes":"15","size_leaf_vector":"1"}},{"base_weights":[-1.108358E-3,1.2806678E-1,-4.1536354E-2,-4.6658233E-1,1.5075216E-1,-2.7581584E-1,-1.4857154E-2,7.2654255E-2,-7.622728E-2,-1.1558981E-2,2.1242576E-2,2.992623E-3,-4.7695078E-2,-1.9278739E-2,2.3485762E-3],"categories":[],"categories_nodes":[],"categories_segments":[],"categories_sizes":[],"default_left":[0,0,0,0,0,0,0,0,0,0,0,0,0,0,0],"id":38,"left_children":[1,3,5,7,9,11,13,-1,-1,-1,-1,-1,-1,-1,-1],"loss_changes":[1.2794656E1,7.94849E0,1.1659023E1,8.211201E0,9.277489E0,1.1742217E1,1.1440658E1,0E0,0E0,0E0,0E0,0E0,0E0,0E0,0E0],"parents":[2147483647,0,0,1,1,2,2,3,3,4,4,5,5,6,6],"right_children":[2,4,6,8,10,12,14,-1,-1,-1,-1,-1,-1,-1,-1],"split_conditions":[2E0,1.89E1,2E0,2.19E-1,6E0,1.3E1,9.1E0,7.2654255E-2,-7.622728E-2,-1.1558981E-2,2.1242576E-2,2.992623E-3,-4.7695078E-2,-1.9278739E-2,2.3485762E-3],"split_indices":[105,69,104,55,85,47,66,0,0,0,0,0,0,0,0],"split_type":[0,0,0,0,0,0,0,0,0,0,0,0,0,0,0],"sum_hessian":[2.4479895E3,5.8300616E2,1.8649834E3,2.0704853E1,5.623013E2,1.897125E2,1.6752709E3,3.8227544E0,1.68821E1,1.055597E2,4.567416E2,7.561799E1,1.14094505E2,2.962935E2,1.3789773E3],"tree_param":{"num_deleted":"0","num_feature":"106","num_nodes":"15","size_leaf_vector":"1"}},{"base_weights":[9.2994305E-4,2.982478E-2,-1.9137873E-1,1.8004607E-1,3.3081914E-3,7.362539E-2,-3.6947128E-1,3.2353655E-2,-8.641936E-3,-6.0399977E-4,4.8148457E-2,-9.509709E-2,1.6995994E-2,-3.9517257E-2,1.444545E-1],"categories":[],"categories_nodes":[],"categories_segments":[],"categories_sizes":[],"default_left":[0,0,0,0,0,0,0,0,0,0,0,0,0,0,0],"id":39,"left_children":[1,3,5,7,9,11,13,-1,-1,-1,-1,-1,-1,-1,-1],"loss_changes":[1.3606626E1,8.479128E0,1.5123099E1,1.22391815E1,8.095627E0,1.2933374E1,9.49748E0,0E0,0E0,0E0,0E0,0E0,0E0,0E0,0E0],"parents":[2147483647,0,0,1,1,2,2,3,3,4,4,5,5,6,6],"right_children":[2,4,6,8,10,12,14,-1,-1,-1,-1,-1,-1,-1,-1],"split_conditions":[2.7E1,7.3E0,1.8E1,2.7E1,3.86E1,3.22E-1,4.94E1,3.2353655E-2,-8.641936E-3,-6.0399977E-4,4.8148457E-2,-9.509709E-2,1.6995994E-2,-3.9517257E-2,1.444545E-1],"split_indices":[47,60,31,86,15,62,56,0,0,0,0,0,0,0,0],"split_type":[0,0,0,0,0,0,0,0,0,0,0,0,0,0,0],"sum_hessian":[2.446649E3,2.1277886E3,3.188604E2,3.1837073E2,1.8094178E3,1.283944E2,1.90466E2,2.0679716E2,1.1157357E2,1.775691E3,3.37268E1,1.0271981E1,1.1812241E2,1.8857639E2,1.8896271E0],"tree_param":{"num_deleted":"0","num_feature":"106","num_nodes":"15","size_leaf_vector":"1"}},{"base_weights":[2.8999064E-3,3.4749452E-2,-1.17067575E-1,1.1969488E0,3.0107688E-2,-6.1827607E-2,-6.612633E-1,4.954256E-3,1.5337448E-1,-3.6741883E-2,4.323822E-3,-1.6548421E-2,1.6484516E-2,-3.1446535E-2,-1.204101E-1],"categories":[],"categories_nodes":[],"categories_segments":[],"categories_sizes":[],"default_left":[0,0,0,0,0,0,0,0,0,0,0,0,0,0,0],"id":40,"left_children":[1,3,5,7,9,11,13,-1,-1,-1,-1,-1,-1,-1,-1],"loss_changes":[9.42835E0,1.0482612E1,1.5521095E1,2.9114933E0,1.015834E1,1.1095641E1,8.582706E0,0E0,0E0,0E0,0E0,0E0,0E0,0E0,0E0],"parents":[2147483647,0,0,1,1,2,2,3,3,4,4,5,5,6,6],"right_children":[2,4,6,8,10,12,14,-1,-1,-1,-1,-1,-1,-1,-1],"split_conditions":[1.24E1,1.67E1,2.8E1,1.35E1,1.82E1,1.8E1,2E1,4.954256E-3,1.5337448E-1,-3.6741883E-2,4.323822E-3,-1.6548421E-2,1.6484516E-2,-3.1446535E-2,-1.204101E-1],"split_indices":[60,22,42,70,12,82,47,0,0,0,0,0,0,0,0],"split_type":[0,0,0,0,0,0,0,0,0,0,0,0,0,0,0],"sum_hessian":[2.4655022E3,1.9488282E3,5.1667395E2,6.7307315E0,1.9420975E3,4.7007175E2,4.6602215E1,1.7876418E0,4.9430895E0,6.1234756E1,1.8808628E3,3.2274954E2,1.473222E2,2.9399385E1,1.720283E1],"tree_param":{"num_deleted":"0","num_feature":"106","num_nodes":"15","size_leaf_vector":"1"}},{"base_weights":[-4.7213305E-3,1.7373249E-2,-2.1332037E-1,1.3290949E-1,-1.7839829E-2,-2.6399907E-1,4.9716282E-1,1.0956496E-2,8.3599195E-2,-7.337132E-2,-1.0810405E-3,1.6205559E-2,-3.461211E-2,7.020674E-2,-9.3539976E-2],"categories":[],"categories_nodes":[],"categories_segments":[],"categories_sizes":[],"default_left":[0,0,0,0,0,0,0,0,0,0,0,0,0,0,0],"id":41,"left_children":[1,3,5,7,9,11,13,-1,-1,-1,-1,-1,-1,-1,-1],"loss_changes":[1.1260439E1,8.9910345E0,8.556519E0,8.380922E0,8.517528E0,7.7209234E0,5.3317013E0,0E0,0E0,0E0,0E0,0E0,0E0,0E0,0E0],"parents":[2147483647,0,0,1,1,2,2,3,3,4,4,5,5,6,6],"right_children":[2,4,6,8,10,12,14,-1,-1,-1,-1,-1,-1,-1,-1],"split_conditions":[4.82E-1,2E0,9.17E1,4E1,3.85E1,5E0,4.93E1,1.0956496E-2,8.3599195E-2,-7.337132E-2,-1.0810405E-3,1.6205559E-2,-3.461211E-2,7.020674E-2,-9.3539976E-2],"split_indices":[59,105,58,9,68,41,57,0,0,0,0,0,0,0,0],"split_type":[0,0,0,0,0,0,0,0,0,0,0,0,0,0,0],"sum_hessian":[2.4413865E3,2.2083926E3,2.3299379E2,5.152036E2,1.693189E3,2.1806747E2,1.4926312E1,4.997657E2,1.5437949E1,1.5459145E1,1.6777297E3,3.5082695E1,1.8298479E2,1.350462E1,1.4216925E0],"tree_param":{"num_deleted":"0","num_feature":"106","num_nodes":"15","size_leaf_vector":"1"}},{"base_weights":[8.886704E-3,1.3415074E-1,-2.8721087E-2,-9.943197E-2,1.9869845E-1,-1.013691E0,-2.3384381E-2,-1.4102267E-2,1.0422436E-1,5.539141E-2,1.460845E-2,-1.713491E-1,5.9964466E-3,-2.325711E-2,-4.536002E-5],"categories":[],"categories_nodes":[],"categories_segments":[],"categories_sizes":[],"default_left":[0,0,0,0,0,0,0,0,0,0,0,0,0,0,0],"id":42,"left_children":[1,3,5,7,9,11,13,-1,-1,-1,-1,-1,-1,-1,-1],"loss_changes":[1.1484888E1,8.506991E0,9.833284E0,5.9656887E0,8.168064E0,7.6776056E0,8.951326E0,0E0,0E0,0E0,0E0,0E0,0E0,0E0,0E0],"parents":[2147483647,0,0,1,1,2,2,3,3,4,4,5,5,6,6],"right_children":[2,4,6,8,10,12,14,-1,-1,-1,-1,-1,-1,-1,-1],"split_conditions":[2E0,7E0,4.7E0,2.36E1,7E0,1.4E1,2E0,-1.4102267E-2,1.0422436E-1,5.539141E-2,1.460845E-2,-1.713491E-1,5.9964466E-3,-2.325711E-2,-4.536002E-5],"split_indices":[105,85,60,74,102,81,104,0,0,0,0,0,0,0,0],"split_type":[0,0,0,0,0,0,0,0,0,0,0,0,0,0,0],"sum_hessian":[2.4361194E3,5.619175E2,1.8742019E3,1.21542786E2,4.403747E2,9.081743E0,1.8651201E3,1.1811634E2,3.4264443E0,5.558339E1,3.8479132E2,5.137331E0,3.9444118E0,1.833512E2,1.6817689E3],"tree_param":{"num_deleted":"0","num_feature":"106","num_nodes":"15","size_leaf_vector":"1"}},{"base_weights":[-1.3344323E-2,-9.6751887E-1,-8.425486E-3,4.1922826E-1,-1.331218E0,-3.655776E-2,1.1996153E-1,-4.713094E-2,1.1096133E-1,-1.6506277E-1,-9.55644E-3,6.093195E-3,-1.1682077E-2,-9.881184E-2,1.5234715E-2],"categories":[],"categories_nodes":[],"categories_segments":[],"categories_sizes":[],"default_left":[0,0,0,0,0,0,0,0,0,0,0,0,0,0,0],"id":43,"left_children":[1,3,5,7,9,11,13,-1,-1,-1,-1,-1,-1,-1,-1],"loss_changes":[1.1450017E1,6.8685503E0,8.780419E0,2.5888407E0,3.8489265E0,1.5608631E1,1.5831213E1,0E0,0E0,0E0,0E0,0E0,0E0,0E0,0E0],"parents":[2147483647,0,0,1,1,2,2,3,3,4,4,5,5,6,6],"right_children":[2,4,6,8,10,12,14,-1,-1,-1,-1,-1,-1,-1,-1],"split_conditions":[2.9E0,6E0,2.5E1,1.3E1,2.4E1,1.4E1,1.78E1,-4.713094E-2,1.1096133E-1,-1.6506277E-1,-9.55644E-3,6.093195E-3,-1.1682077E-2,-9.881184E-2,1.5234715E-2],"split_indices":[73,42,93,44,46,84,23,0,0,0,0,0,0,0,0],"split_type":[0,0,0,0,0,0,0,0,0,0,0,0,0,0,0],"sum_hessian":[2.4403218E3,1.1511856E1,2.4288098E3,2.3601542E0,9.151701E0,1.9928501E3,4.3595978E2,1.1692481E0,1.190906E0,7.0050907E0,2.1466107E0,8.9996643E2,1.0928838E3,1.1541862E1,4.244179E2],"tree_param":{"num_deleted":"0","num_feature":"106","num_nodes":"15","size_leaf_vector":"1"}},{"base_weights":[1.35469325E-2,-2.8057368E-2,1.10622294E-1,-4.951789E-2,2.6248112E-1,3.4923166E-1,4.084754E-2,8.963635E-3,-9.28734E-3,-1.4930056E-1,3.136946E-2,-8.763525E-2,4.1784972E-2,1.0349317E-3,5.5333257E-2],"categories":[],"categories_nodes":[],"categories_segments":[],"categories_sizes":[],"default_left":[0,0,0,0,0,0,0,0,0,0,0,0,0,0,0],"id":44,"left_children":[1,3,5,7,9,11,13,-1,-1,-1,-1,-1,-1,-1,-1],"loss_changes":[9.816425E0,1.0622927E1,1.2125227E1,9.573442E0,1.1005557E1,1.4229071E1,8.829887E0,0E0,0E0,0E0,0E0,0E0,0E0,0E0,0E0],"parents":[2147483647,0,0,1,1,2,2,3,3,4,4,5,5,6,6],"right_children":[2,4,6,8,10,12,14,-1,-1,-1,-1,-1,-1,-1,-1],"split_conditions":[2.1E1,8.16E-1,8E0,8E0,3.83E1,1.84E1,3.66E1,8.963635E-3,-9.28734E-3,-1.4930056E-1,3.136946E-2,-8.763525E-2,4.1784972E-2,1.0349317E-3,5.5333257E-2],"split_indices":[99,13,43,41,68,12,67,0,0,0,0,0,0,0,0],"split_type":[0,0,0,0,0,0,0,0,0,0,0,0,0,0,0],"sum_hessian":[2.4287898E3,1.7006436E3,7.281463E2,1.5844391E3,1.1620444E2,1.6384363E2,5.643027E2,3.761327E2,1.2083064E3,2.4959524E0,1.1370849E2,8.062799E0,1.5578082E2,5.335699E2,3.07328E1],"tree_param":{"num_deleted":"0","num_feature":"106","num_nodes":"15","size_leaf_vector":"1"}},{"base_weights":[-1.0541475E-2,-1.9856E-2,3.9737722E-1,-2.7414024E-2,4.819902E-1,5.16921E-1,-8.5498863E-1,-1.622936E-2,3.054111E-4,8.344517E-2,-1.8658519E-2,-2.9085178E-3,7.452069E-2,-1.3753529E-1,4.800146E-2],"categories":[],"categories_nodes":[],"categories_segments":[],"categories_sizes":[],"default_left":[0,0,0,0,0,0,0,0,0,0,0,0,0,0,0],"id":45,"left_children":[1,3,5,7,9,11,13,-1,-1,-1,-1,-1,-1,-1,-1],"loss_changes":[9.231672E0,9.019021E0,8.562707E0,9.61705E0,8.469781E0,6.2712736E0,4.2053795E0,0E0,0E0,0E0,0E0,0E0,0E0,0E0,0E0],"parents":[2147483647,0,0,1,1,2,2,3,3,4,4,5,5,6,6],"right_children":[2,4,6,8,10,12,14,-1,-1,-1,-1,-1,-1,-1,-1],"split_conditions":[7E0,3.87E1,9.3E1,2.09E1,4.83E1,1.99E1,2.3E1,-1.622936E-2,3.054111E-4,8.344517E-2,-1.8658519E-2,-2.9085178E-3,7.452069E-2,-1.3753529E-1,4.800146E-2],"split_indices":[73,15,6,17,56,22,39,0,0,0,0,0,0,0,0],"split_type":[0,0,0,0,0,0,0,0,0,0,0,0,0,0,0],"sum_hessian":[2.426587E3,2.3733445E3,5.324226E1,2.3390627E3,3.4281937E1,4.9138973E1,4.1032844E0,4.3021494E2,1.9088477E3,2.2285368E1,1.1996569E1,1.4745E1,3.4393974E1,2.9307122E0,1.172572E0],"tree_param":{"num_deleted":"0","num_feature":"106","num_nodes":"15","size_leaf_vector":"1"}},{"base_weights":[-9.835088E-4,5.513149E-2,-6.2111173E-2,2.3232039E-2,3.7479198E-1,-8.78931E-2,3.084577E-1,1.1666149E-1,1.5143682E-3,1.1509909E-1,2.9519502E-2,6.6095183E-4,-2.0197084E-2,6.1995637E-2,-2.119568E-2],"categories":[],"categories_nodes":[],"categories_segments":[],"categories_sizes":[],"default_left":[0,0,0,0,0,0,0,0,0,0,0,0,0,0,0],"id":46,"left_children":[1,3,5,7,9,11,13,-1,-1,-1,-1,-1,-1,-1,-1],"loss_changes":[8.390133E0,1.2995368E1,1.1211876E1,1.0715998E1,6.8054047E0,1.1809575E1,1.251214E1,0E0,0E0,0E0,0E0,0E0,0E0,0E0,0E0],"parents":[2147483647,0,0,1,1,2,2,3,3,4,4,5,5,6,6],"right_children":[2,4,6,8,10,12,14,-1,-1,-1,-1,-1,-1,-1,-1],"split_conditions":[2.94E1,4.77E-1,4.88E1,1.68E1,-4E-1,1.7E1,2E1,1.1666149E-1,1.5143682E-3,1.1509909E-1,2.9519502E-2,6.6095183E-4,-2.0197084E-2,6.1995637E-2,-2.119568E-2],"split_indices":[61,7,56,22,25,47,36,0,0,0,0,0,0,0,0],"split_type":[0,0,0,0,0,0,0,0,0,0,0,0,0,0,0],"sum_hessian":[2.443977E3,1.2742853E3,1.1696918E3,1.159636E3,1.1464934E2,1.0943186E3,7.53732E1,7.139581E0,1.1524963E3,9.411524E0,1.0523781E2,5.99025E2,4.9529352E2,4.703107E1,2.834213E1],"tree_param":{"num_deleted":"0","num_feature":"106","num_nodes":"15","size_leaf_vector":"1"}},{"base_weights":[-4.4583305E-4,3.6202237E-1,-1.1634208E-2,6.057413E-1,-1.2860717E-1,-2.7725643E-2,2.2441922E-1,7.897051E-2,-1.2985328E-2,-7.208463E-2,5.782145E-2,-5.22476E-3,1.22155305E-2,-6.131317E-2,3.600657E-2],"categories":[],"categories_nodes":[],"categories_segments":[],"categories_sizes":[],"default_left":[0,0,0,0,0,0,0,0,0,0,0,0,0,0,0],"id":47,"left_children":[1,3,5,7,9,11,13,-1,-1,-1,-1,-1,-1,-1,-1],"loss_changes":[9.856573E0,8.780053E0,8.961605E0,6.7059383E0,1.0872717E1,8.121896E0,1.7327251E1,0E0,0E0,0E0,0E0,0E0,0E0,0E0,0E0],"parents":[2147483647,0,0,1,1,2,2,3,3,4,4,5,5,6,6],"right_children":[2,4,6,8,10,12,14,-1,-1,-1,-1,-1,-1,-1,-1],"split_conditions":[2E0,7.93E-1,8.16E-1,1.12E2,1E1,2.7E1,1.52E1,7.897051E-2,-1.2985328E-2,-7.208463E-2,5.782145E-2,-5.22476E-3,1.22155305E-2,-6.131317E-2,3.600657E-2],"split_indices":[51,13,13,76,42,48,63,0,0,0,0,0,0,0,0],"split_type":[0,0,0,0,0,0,0,0,0,0,0,0,0,0,0],"sum_hessian":[2.428424E3,7.177523E1,2.356649E3,4.7797382E1,2.3977848E1,2.207078E3,1.4957089E2,3.8176357E1,9.621025E0,1.3035601E1,1.0942247E1,1.897311E3,3.0976688E2,2.03569E1,1.2921399E2],"tree_param":{"num_deleted":"0","num_feature":"106","num_nodes":"15","size_leaf_vector":"1"}},{"base_weights":[-3.372655E-3,-2.5353827E-2,1.6464755E-1,-3.4152564E-1,-1.21225985E-2,3.5394248E-1,-3.145629E-2,4.6155E-3,-6.0687672E-2,9.646639E-4,-2.335754E-2,-7.0081815E-2,4.069106E-2,2.0539474E-2,-4.4484645E-2],"categories":[],"categories_nodes":[],"categories_segments":[],"categories_sizes":[],"default_left":[0,0,0,0,0,0,0,0,0,0,0,0,0,0,0],"id":48,"left_children":[1,3,5,7,9,11,13,-1,-1,-1,-1,-1,-1,-1,-1],"loss_changes":[8.971817E0,8.981918E0,1.0443705E1,8.900148E0,9.946783E0,8.27906E0,1.3696734E1,0E0,0E0,0E0,0E0,0E0,0E0,0E0,0E0],"parents":[2147483647,0,0,1,1,2,2,3,3,4,4,5,5,6,6],"right_children":[2,4,6,8,10,12,14,-1,-1,-1,-1,-1,-1,-1,-1],"split_conditions":[3.7E1,2E0,8.62E1,3.3E1,2.6E1,3.9E0,2E1,4.6155E-3,-6.0687672E-2,9.646639E-4,-2.335754E-2,-7.0081815E-2,4.069106E-2,2.0539474E-2,-4.4484645E-2],"split_indices":[54,98,58,15,30,73,41,0,0,0,0,0,0,0,0],"split_type":[0,0,0,0,0,0,0,0,0,0,0,0,0,0,0],"sum_hessian":[2.4270967E3,2.1470579E3,2.8003882E2,8.5244865E1,2.061813E3,1.4208362E2,1.379552E2,3.4973824E1,5.027104E1,1.8781442E3,1.8366876E2,6.209147E0,1.3587447E2,8.802475E1,4.993045E1],"tree_param":{"num_deleted":"0","num_feature":"106","num_nodes":"15","size_leaf_vector":"1"}},{"base_weights":[-9.394172E-3,-5.079332E-2,7.390131E-2,-7.1432725E-2,2.4744557E-1,5.280346E-2,6.041475E-1,-5.275314E-3,-4.546079E-2,3.688048E-2,-4.9169093E-2,9.099184E-3,-2.2999266E-2,-6.297316E-2,8.096598E-2],"categories":[],"categories_nodes":[],"categories_segments":[],"categories_sizes":[],"default_left":[0,0,0,0,0,0,0,0,0,0,0,0,0,0,0],"id":49,"left_children":[1,3,5,7,9,11,13,-1,-1,-1,-1,-1,-1,-1,-1],"loss_changes":[8.3708725E0,9.998287E0,8.984682E0,1.0835814E1,9.61524E0,8.403923E0,8.306401E0,0E0,0E0,0E0,0E0,0E0,0E0,0E0,0E0],"parents":[2147483647,0,0,1,1,2,2,3,3,4,4,5,5,6,6],"right_children":[2,4,6,8,10,12,14,-1,-1,-1,-1,-1,-1,-1,-1],"split_conditions":[8.2E0,1.44E1,3E1,3.77E1,2.8E1,2.7E1,8.9E0,-5.275314E-3,-4.546079E-2,3.688048E-2,-4.9169093E-2,9.099184E-3,-2.2999266E-2,-6.297316E-2,8.096598E-2],"split_indices":[19,60,48,61,32,101,66,0,0,0,0,0,0,0,0],"split_type":[0,0,0,0,0,0,0,0,0,0,0,0,0,0,0],"sum_hessian":[2.425404E3,1.6204202E3,8.0498376E2,1.5162496E3,1.04170494E2,7.752376E2,2.9746174E1,1.446854E3,6.93957E1,8.990927E1,1.426122E1,6.836031E2,9.163451E1,3.9523559E0,2.579382E1],"tree_param":{"num_deleted":"0","num_feature":"106","num_nodes":"15","size_leaf_vector":"1"}},{"base_weights":[2.8484191E-3,-5.20533E-1,1.045901E-2,-7.9803944E-1,1.84575E-1,2.853258E-2,-1.6763209E-1,-6.000908E-3,-1.1849543E-1,9.487613E-2,-1.1220244E-1,3.7409138E-2,1.7985409E-3,-2.9840408E-2,1.3513158E-2],"categories":[],"categories_nodes":[],"categories_segments":[],"categories_sizes":[],"default_left":[0,0,0,0,0,0,0,0,0,0,0,0,0,0,0],"id":50,"left_children":[1,3,5,7,9,11,13,-1,-1,-1,-1,-1,-1,-1,-1],"loss_changes":[9.701095E0,6.9776697E0,7.730417E0,7.1353626E0,1.171891E1,7.9383383E0,8.801758E0,0E0,0E0,0E0,0E0,0E0,0E0,0E0,0E0],"parents":[2147483647,0,0,1,1,2,2,3,3,4,4,5,5,6,6],"right_children":[2,4,6,8,10,12,14,-1,-1,-1,-1,-1,-1,-1,-1],"split_conditions":[1.16E1,3.5E0,2.6E1,8E0,9.2E0,1.8E1,3.1E1,-6.000908E-3,-1.1849543E-1,9.487613E-2,-1.1220244E-1,3.7409138E-2,1.7985409E-3,-2.9840408E-2,1.3513158E-2],"split_indices":[70,25,30,26,25,75,54,0,0,0,0,0,0,0,0],"split_type":[0,0,0,0,0,0,0,0,0,0,0,0,0,0,0],"sum_hessian":[2.4331104E3,3.3907257E1,2.3992031E3,2.4236717E1,9.670539E0,2.1789158E3,2.2028741E2,8.733288E0,1.5503428E1,6.2746034E0,3.3959355E0,6.351438E1,2.1154014E3,1.5384982E2,6.6437584E1],"tree_param":{"num_deleted":"0","num_feature":"106","num_nodes":"15","size_leaf_vector":"1"}},{"base_weights":[1.2663157E-3,2.0105563E-2,-2.7087876E-1,3.9879555E-1,8.246435E-3,-3.690693E-1,6.1249703E-1,4.687811E-2,-1.1997966E-1,2.947496E-4,7.591893E-2,-2.1858089E-2,-7.339905E-2,-1.0265402E-1,9.0787806E-2],"categories":[],"categories_nodes":[],"categories_segments":[],"categories_sizes":[],"default_left":[0,0,0,0,0,0,0,0,0,0,0,0,0,0,0],"id":51,"left_children":[1,3,5,7,9,11,13,-1,-1,-1,-1,-1,-1,-1,-1],"loss_changes":[1.248515E1,1.0224584E1,1.39014435E1,8.297069E0,8.789068E0,7.6658936E0,8.749657E0,0E0,0E0,0E0,0E0,0E0,0E0,0E0,0E0],"parents":[2147483647,0,0,1,1,2,2,3,3,4,4,5,5,6,6],"right_children":[2,4,6,8,10,12,14,-1,-1,-1,-1,-1,-1,-1,-1],"split_conditions":[2.08E1,2E0,2.8E1,1.216E2,3.91E1,2.2E1,8.1E1,4.687811E-2,-1.1997966E-1,2.947496E-4,7.591893E-2,-2.1858089E-2,-7.339905E-2,-1.0265402E-1,9.0787806E-2],"split_indices":[63,51,34,24,15,42,6,0,0,0,0,0,0,0,0],"split_type":[0,0,0,0,0,0,0,0,0,0,0,0,0,0,0],"sum_hessian":[2.4331104E3,2.2764492E3,1.566611E2,6.813424E1,2.208315E3,1.4151355E2,1.5147554E1,6.595358E1,2.1806617E0,2.1938384E3,1.4476634E1,1.01326775E2,4.018677E1,1.9350213E0,1.3212533E1],"tree_param":{"num_deleted":"0","num_feature":"106","num_nodes":"15","size_leaf_vector":"1"}},{"base_weights":[9.116322E-3,-8.38555E-3,2.4515733E-1,-1.5905244E-2,5.3532875E-1,3.3812305E-1,-1.7190565E-1,-5.8774926E-2,-9.387668E-4,-4.2786945E-2,8.243831E-2,4.818047E-2,-9.172037E-4,-6.59529E-2,6.3837506E-2],"categories":[],"categories_nodes":[],"categories_segments":[],"categories_sizes":[],"default_left":[0,0,0,0,0,0,0,0,0,0,0,0,0,0,0],"id":52,"left_children":[1,3,5,7,9,11,13,-1,-1,-1,-1,-1,-1,-1,-1],"loss_changes":[1.0079911E1,9.297922E0,6.5885124E0,8.350585E0,8.990078E0,6.8938437E0,1.281302E1,0E0,0E0,0E0,0E0,0E0,0E0,0E0,0E0],"parents":[2147483647,0,0,1,1,2,2,3,3,4,4,5,5,6,6],"right_children":[2,4,6,8,10,12,14,-1,-1,-1,-1,-1,-1,-1,-1],"split_conditions":[2.8E1,4.44E1,1.19E1,1E0,7.29E-1,8.82E1,3.61E-1,-5.8774926E-2,-9.387668E-4,-4.2786945E-2,8.243831E-2,4.818047E-2,-9.172037E-4,-6.59529E-2,6.3837506E-2],"split_indices":[81,57,66,2,65,6,10,0,0,0,0,0,0,0,0],"split_type":[0,0,0,0,0,0,0,0,0,0,0,0,0,0,0],"sum_hessian":[2.4384736E3,2.2710457E3,1.6742809E2,2.2410225E3,3.0023111E1,1.3706483E2,3.036326E1,2.4249199E1,2.2167734E3,6.8193083E0,2.3203804E1,9.66796E1,4.0385227E1,1.9071915E1,1.1291345E1],"tree_param":{"num_deleted":"0","num_feature":"106","num_nodes":"15","size_leaf_vector":"1"}},{"base_weights":[-6.87424E-4,-2.3289949E-2,1.5624848E-1,4.5100998E-2,-8.970295E-2,3.910284E-2,5.115227E-1,-4.4043846E-2,6.80823E-3,-1.0278093E-2,5.1027346E-2,2.3735134E-2,-2.5975525E-2,-7.502774E-2,5.921451E-2],"categories":[],"categories_nodes":[],"categories_segments":[],"categories_sizes":[],"default_left":[0,0,0,0,0,0,0,0,0,0,0,0,0,0,0],"id":53,"left_children":[1,3,5,7,9,11,13,-1,-1,-1,-1,-1,-1,-1,-1],"loss_changes":[8.603618E0,9.633751E0,1.2688435E1,1.1692377E1,8.494869E0,1.3731247E1,8.138609E0,0E0,0E0,0E0,0E0,0E0,0E0,0E0,0E0],"parents":[2147483647,0,0,1,1,2,2,3,3,4,4,5,5,6,6],"right_children":[2,4,6,8,10,12,14,-1,-1,-1,-1,-1,-1,-1,-1],"split_conditions":[2.7E1,1.1E1,2.3E1,3.2E-1,7E0,1.9E1,1.8E1,-4.4043846E-2,6.80823E-3,-1.0278093E-2,5.1027346E-2,2.3735134E-2,-2.5975525E-2,-7.502774E-2,5.921451E-2],"split_indices":[96,78,89,62,73,45,74,0,0,0,0,0,0,0,0],"split_type":[0,0,0,0,0,0,0,0,0,0,0,0,0,0,0],"sum_hessian":[2.4234773E3,2.1191243E3,3.04353E2,1.0441735E3,1.0749508E3,2.2971759E2,7.46354E1,4.6367844E1,9.9780566E2,1.0528304E3,2.2120358E1,1.3822885E2,9.148875E1,3.9835646E0,7.065183E1],"tree_param":{"num_deleted":"0","num_feature":"106","num_nodes":"15","size_leaf_vector":"1"}},{"base_weights":[3.8904792E-3,1.1686058E-2,-4.718397E-1,1.6500786E-2,-6.988814E-1,4.4431725E-1,-8.863207E-1,8.8855E-4,4.07384E-2,-1.032848E-2,-1.2112477E-1,-4.2826604E-2,1.05533436E-1,-1.0848998E-1,4.4931594E-2],"categories":[],"categories_nodes":[],"categories_segments":[],"categories_sizes":[],"default_left":[0,0,0,0,0,0,0,0,0,0,0,0,0,0,0],"id":54,"left_children":[1,3,5,7,9,11,13,-1,-1,-1,-1,-1,-1,-1,-1],"loss_changes":[8.997799E0,8.176541E0,1.5247441E1,7.055638E0,4.7836294E0,7.3033533E0,7.719181E0,0E0,0E0,0E0,0E0,0E0,0E0,0E0,0E0],"parents":[2147483647,0,0,1,1,2,2,3,3,4,4,5,5,6,6],"right_children":[2,4,6,8,10,12,14,-1,-1,-1,-1,-1,-1,-1,-1],"split_conditions":[7.3E0,2.46E1,2.11E-1,7E0,1.54E1,4.18E-1,2.8E1,8.8855E-4,4.07384E-2,-1.032848E-2,-1.2112477E-1,-4.2826604E-2,1.05533436E-1,-1.0848998E-1,4.4931594E-2],"split_indices":[21,11,3,73,70,7,90,0,0,0,0,0,0,0,0],"split_type":[0,0,0,0,0,0,0,0,0,0,0,0,0,0,0],"sum_hessian":[2.4237168E3,2.3856003E3,3.8116337E1,2.3705146E3,1.508557E1,1.1850452E1,2.6265884E1,2.3262175E3,4.429723E1,7.531831E0,7.55374E0,5.00376E0,6.8466926E0,2.3029625E1,3.2362585E0],"tree_param":{"num_deleted":"0","num_feature":"106","num_nodes":"15","size_leaf_vector":"1"}},{"base_weights":[-1.0226073E-3,1.5749356E-2,-1.8085362E-1,-1.4538163E0,1.8526694E-2,9.524085E-1,-2.3303054E-1,-1.6927865E-1,-3.9946504E-2,2.394001E-2,3.0867048E-4,1.2628026E-1,-3.1509317E-2,-4.2124104E-2,-6.1545647E-3],"categories":[],"categories_nodes":[],"categories_segments":[],"categories_sizes":[],"default_left":[0,0,0,0,0,0,0,0,0,0,0,0,0,0,0],"id":55,"left_children":[1,3,5,7,9,11,13,-1,-1,-1,-1,-1,-1,-1,-1],"loss_changes":[7.3611054E0,9.1385975E0,1.2533024E1,3.879938E-1,7.6015215E0,4.080598E0,6.4240465E0,0E0,0E0,0E0,0E0,0E0,0E0,0E0,0E0],"parents":[2147483647,0,0,1,1,2,2,3,3,4,4,5,5,6,6],"right_children":[2,4,6,8,10,12,14,-1,-1,-1,-1,-1,-1,-1,-1],"split_conditions":[7.5E0,3.24E1,2E0,3E0,4.04E1,1.4E1,4.83E1,-1.6927865E-1,-3.9946504E-2,2.394001E-2,3.0867048E-4,1.2628026E-1,-3.1509317E-2,-4.2124104E-2,-6.1545647E-3],"split_indices":[77,57,82,54,16,86,4,0,0,0,0,0,0,0,0],"split_type":[0,0,0,0,0,0,0,0,0,0,0,0,0,0,0],"sum_hessian":[2.438644E3,2.2314407E3,2.072032E2,3.223723E0,2.228217E3,8.360611E0,1.9884259E2,2.1344278E0,1.0892951E0,1.4463712E2,2.0835798E3,6.7189407E0,1.6416707E0,9.410392E1,1.0473868E2],"tree_param":{"num_deleted":"0","num_feature":"106","num_nodes":"15","size_leaf_vector":"1"}},{"base_weights":[5.769802E-3,-2.4770056E-3,4.3278536E-1,-8.23704E-2,3.4169633E-2,5.934131E-1,-7.5655085E-1,-2.3227755E-2,-2.5285644E-4,-6.0803E-4,2.1514691E-2,7.1751304E-2,-5.319506E-2,-1.6973677E-1,1.1117989E-2],"categories":[],"categories_nodes":[],"categories_segments":[],"categories_sizes":[],"default_left":[0,0,0,0,0,0,0,0,0,0,0,0,0,0,0],"id":56,"left_children":[1,3,5,7,9,11,13,-1,-1,-1,-1,-1,-1,-1,-1],"loss_changes":[8.5582075E0,6.9854207E0,9.2455E0,8.978952E0,1.1916067E1,6.125394E0,5.020333E0,0E0,0E0,0E0,0E0,0E0,0E0,0E0,0E0],"parents":[2147483647,0,0,1,1,2,2,3,3,4,4,5,5,6,6],"right_children":[2,4,6,8,10,12,14,-1,-1,-1,-1,-1,-1,-1,-1],"split_conditions":[1.08E1,7.2E0,2.83E1,4.6E0,2.3E1,1.216E2,1.2E1,-2.3227755E-2,-2.5285644E-4,-6.0803E-4,2.1514691E-2,7.1751304E-2,-5.319506E-2,-1.6973677E-1,1.1117989E-2],"split_indices":[25,19,12,73,82,24,48,0,0,0,0,0,0,0,0],"split_type":[0,0,0,0,0,0,0,0,0,0,0,0,0,0,0],"sum_hessian":[2.4289583E3,2.3839128E3,4.5045506E1,7.492419E2,1.634671E3,4.0127125E1,4.918379E0,2.5971133E2,4.8953055E2,1.3380507E3,2.966204E2,3.6468018E1,3.6591089E0,1.9010788E0,3.0173E0],"tree_param":{"num_deleted":"0","num_feature":"106","num_nodes":"15","size_leaf_vector":"1"}},{"base_weights":[1.3197498E-2,-7.477988E-2,5.319818E-2,-8.264007E-1,-5.7438325E-2,6.0031164E-2,-8.4078896E-1,4.9555562E-2,-1.2187564E-1,-2.089537E-2,1.722575E-3,7.621759E-3,-2.655438E-2,-1.1368412E-1,5.997656E-2],"categories":[],"categories_nodes":[],"categories_segments":[],"categories_sizes":[],"default_left":[0,0,0,0,0,0,0,0,0,0,0,0,0,0,0],"id":57,"left_children":[1,3,5,7,9,11,13,-1,-1,-1,-1,-1,-1,-1,-1],"loss_changes":[8.477897E0,9.767852E0,1.0165712E1,9.37363E0,8.342585E0,8.685396E0,6.067052E0,0E0,0E0,0E0,0E0,0E0,0E0,0E0,0E0],"parents":[2147483647,0,0,1,1,2,2,3,3,4,4,5,5,6,6],"right_children":[2,4,6,8,10,12,14,-1,-1,-1,-1,-1,-1,-1,-1],"split_conditions":[7.2E0,1.58E1,7.7E0,-3.8E0,3.34E1,4.5E1,2.39E1,4.9555562E-2,-1.2187564E-1,-2.089537E-2,1.722575E-3,7.621759E-3,-2.655438E-2,-1.1368412E-1,5.997656E-2],"split_indices":[19,9,21,25,15,2,74,0,0,0,0,0,0,0,0],"split_type":[0,0,0,0,0,0,0,0,0,0,0,0,0,0,0],"sum_hessian":[2.406941E3,7.5203906E2,1.6549019E3,1.5907762E1,7.361313E2,1.6432748E3,1.1627138E1,3.5806203E0,1.2327141E1,2.424105E2,4.937208E2,1.5661759E3,7.7098816E1,9.819862E0,1.807275E0],"tree_param":{"num_deleted":"0","num_feature":"106","num_nodes":"15","size_leaf_vector":"1"}},{"base_weights":[-4.1932706E-3,-1.6703238E-1,1.3329743E-2,-8.731915E-1,-7.454847E-2,-1.4696344E-2,1.4335236E-1,-1.14786796E-1,4.4026203E-3,-1.6647344E-2,3.7881535E-2,-2.7431143E-3,3.8102355E-2,1.7119847E-2,-6.651461E-2],"categories":[],"categories_nodes":[],"categories_segments":[],"categories_sizes":[],"default_left":[0,0,0,0,0,0,0,0,0,0,0,0,0,0,0],"id":58,"left_children":[1,3,5,7,9,11,13,-1,-1,-1,-1,-1,-1,-1,-1],"loss_changes":[6.955009E0,1.5400222E1,8.022002E0,6.9357376E0,8.834733E0,9.139231E0,8.902191E0,0E0,0E0,0E0,0E0,0E0,0E0,0E0,0E0],"parents":[2147483647,0,0,1,1,2,2,3,3,4,4,5,5,6,6],"right_children":[2,4,6,8,10,12,14,-1,-1,-1,-1,-1,-1,-1,-1],"split_conditions":[1.96E1,8.14E1,2.5E1,1.64E1,2.5E1,4.92E-1,2.12E1,-1.14786796E-1,4.4026203E-3,-1.6647344E-2,3.7881535E-2,-2.7431143E-3,3.8102355E-2,1.7119847E-2,-6.651461E-2],"split_indices":[12,58,93,70,90,7,63,0,0,0,0,0,0,0,0],"split_type":[0,0,0,0,0,0,0,0,0,0,0,0,0,0,0],"sum_hessian":[2.4356387E3,2.3580461E2,2.199834E3,2.6328941E1,2.0947568E2,1.8104767E3,3.8935727E2,2.0067823E1,6.261118E0,1.7468832E2,3.4787357E1,1.7549314E3,5.5545364E1,3.771556E2,1.2201649E1],"tree_param":{"num_deleted":"0","num_feature":"106","num_nodes":"15","size_leaf_vector":"1"}},{"base_weights":[4.102509E-3,-6.8324376E-3,3.4593526E-1,-1.492636E-1,1.5773099E-2,4.8080936E-1,-4.908811E-1,4.57385E-2,-2.2124646E-2,-2.1344908E-3,1.2994072E-2,9.5648885E-2,1.7205162E-2,-1.1225003E-1,6.300726E-2],"categories":[],"categories_nodes":[],"categories_segments":[],"categories_sizes":[],"default_left":[0,0,0,0,0,0,0,0,0,0,0,0,0,0,0],"id":59,"left_children":[1,3,5,7,9,11,13,-1,-1,-1,-1,-1,-1,-1,-1],"loss_changes":[9.113383E0,7.6102E0,8.7657385E0,1.4238628E1,8.648201E0,9.468583E0,8.4847E0,0E0,0E0,0E0,0E0,0E0,0E0,0E0,0E0],"parents":[2147483647,0,0,1,1,2,2,3,3,4,4,5,5,6,6],"right_children":[2,4,6,8,10,12,14,-1,-1,-1,-1,-1,-1,-1,-1],"split_conditions":[4.91E1,5E0,9.36E1,7E-1,2E1,1.3E1,2.2E1,4.57385E-2,-2.2124646E-2,-2.1344908E-3,1.2994072E-2,9.5648885E-2,1.7205162E-2,-1.1225003E-1,6.300726E-2],"split_indices":[56,49,58,13,26,50,43,0,0,0,0,0,0,0,0],"split_type":[0,0,0,0,0,0,0,0,0,0,0,0,0,0,0],"sum_hessian":[2.4364556E3,2.3618809E3,7.457461E1,3.2274594E2,2.039135E3,6.458976E1,9.984843E0,3.366595E1,2.8908E2,1.5394458E3,4.9968927E2,2.4597073E1,3.999269E1,6.3854694E0,3.599374E0],"tree_param":{"num_deleted":"0","num_feature":"106","num_nodes":"15","size_leaf_vector":"1"}},{"base_weights":[-1.133932E-3,-7.4230164E-2,5.8250144E-2,4.463569E-1,-9.2352055E-2,4.139399E-2,4.2446443E-1,-3.0027678E-2,7.935934E-2,-1.390324E-2,1.1507376E-2,5.412251E-3,-7.168541E-2,-2.211689E-2,6.319795E-2],"categories":[],"categories_nodes":[],"categories_segments":[],"categories_sizes":[],"default_left":[0,0,0,0,0,0,0,0,0,0,0,0,0,0,0],"id":60,"left_children":[1,3,5,7,9,11,13,-1,-1,-1,-1,-1,-1,-1,-1],"loss_changes":[1.0488869E1,1.0259471E1,8.212519E0,9.729042E0,1.015883E1,1.2350951E1,7.985358E0,0E0,0E0,0E0,0E0,0E0,0E0,0E0,0E0],"parents":[2147483647,0,0,1,1,2,2,3,3,4,4,5,5,6,6],"right_children":[2,4,6,8,10,12,14,-1,-1,-1,-1,-1,-1,-1,-1],"split_conditions":[1.4E1,2E0,2.37E1,2.21E1,2.6E1,2.34E1,3.2E-1,-3.0027678E-2,7.935934E-2,-1.390324E-2,1.1507376E-2,5.412251E-3,-7.168541E-2,-2.211689E-2,6.319795E-2],"split_indices":[87,43,22,64,35,22,62,0,0,0,0,0,0,0,0],"split_type":[0,0,0,0,0,0,0,0,0,0,0,0,0,0,0],"sum_hessian":[2.414375E3,1.0821276E3,1.3322476E3,3.560728E1,1.0465203E3,1.2746891E3,5.75585E1,1.1346049E1,2.4261232E1,8.5453937E2,1.9198088E2,1.2545577E3,2.0131323E1,1.39842005E1,4.3574295E1],"tree_param":{"num_deleted":"0","num_feature":"106","num_nodes":"15","size_leaf_vector":"1"}},{"base_weights":[8.240019E-6,-3.1249177E-2,1.0222424E-1,-6.0821E-1,-2.288389E-2,1.4975831E-1,-3.3953264E-1,2.337453E-2,-9.5601566E-2,-9.591232E-3,2.804862E-3,2.3588352E-2,-1.7922504E-3,-5.3136405E-2,4.7285166E-2],"categories":[],"categories_nodes":[],"categories_segments":[],"categories_sizes":[],"default_left":[0,0,0,0,0,0,0,0,0,0,0,0,0,0,0],"id":61,"left_children":[1,3,5,7,9,11,13,-1,-1,-1,-1,-1,-1,-1,-1],"loss_changes":[7.7626653E0,8.966369E0,1.1998583E1,7.9990406E0,6.828348E0,7.4329348E0,8.913181E0,0E0,0E0,0E0,0E0,0E0,0E0,0E0,0E0],"parents":[2147483647,0,0,1,1,2,2,3,3,4,4,5,5,6,6],"right_children":[2,4,6,8,10,12,14,-1,-1,-1,-1,-1,-1,-1,-1],"split_conditions":[2.4E1,1.16E1,2.8E1,1E1,8.53E1,2.4E1,2.7E1,2.337453E-2,-9.5601566E-2,-9.591232E-3,2.804862E-3,2.3588352E-2,-1.7922504E-3,-5.3136405E-2,4.7285166E-2],"split_indices":[48,70,98,47,58,47,51,0,0,0,0,0,0,0,0],"split_type":[0,0,0,0,0,0,0,0,0,0,0,0,0,0,0],"sum_hessian":[2.4276233E3,1.859643E3,5.679803E2,2.5552597E1,1.8340905E3,5.1339844E2,5.4581875E1,7.5657196E0,1.7986877E1,7.532199E2,1.0808705E3,3.3891577E2,1.7448265E2,4.4435154E1,1.0146721E1],"tree_param":{"num_deleted":"0","num_feature":"106","num_nodes":"15","size_leaf_vector":"1"}},{"base_weights":[7.3722336E-3,8.944395E-4,5.158818E-1,6.434598E-3,-6.381418E-1,8.03448E-2,9.2434525E-1,2.74932E-2,-3.3748112E-4,-8.407991E-2,1.2092878E-1,-1.2336767E-1,4.494574E-2,1.1058551E-1,-5.4075737E-3],"categories":[],"categories_nodes":[],"categories_segments":[],"categories_sizes":[],"default_left":[0,0,0,0,0,0,0,0,0,0,0,0,0,0,0],"id":62,"left_children":[1,3,5,7,9,11,13,-1,-1,-1,-1,-1,-1,-1,-1],"loss_changes":[7.963933E0,8.459988E0,5.3359003E0,6.240097E0,8.706305E0,8.224133E0,2.829916E0,0E0,0E0,0E0,0E0,0E0,0E0,0E0,0E0],"parents":[2147483647,0,0,1,1,2,2,3,3,4,4,5,5,6,6],"right_children":[2,4,6,8,10,12,14,-1,-1,-1,-1,-1,-1,-1,-1],"split_conditions":[3.91E1,4.97E1,9.7E0,2E0,3E1,6.5E0,8.8E0,2.74932E-2,-3.3748112E-4,-8.407991E-2,1.2092878E-1,-1.2336767E-1,4.494574E-2,1.1058551E-1,-5.4075737E-3],"split_indices":[15,16,14,35,33,71,71,0,0,0,0,0,0,0,0],"split_type":[0,0,0,0,0,0,0,0,0,0,0,0,0,0,0],"sum_hessian":[2.416834E3,2.3874229E3,2.9411112E1,2.3678843E3,1.9538567E1,1.4812994E1,1.4598117E1,8.250759E1,2.2853767E3,1.8098139E1,1.4404273E0,2.7348375E0,1.2078156E1,1.2203892E1,2.3942258E0],"tree_param":{"num_deleted":"0","num_feature":"106","num_nodes":"15","size_leaf_vector":"1"}},{"base_weights":[4.2641577E-3,2.1287678E-2,-1.5771306E-1,7.725796E-1,1.713224E-2,6.8795666E-2,-3.3127284E-1,1.1206176E-1,-8.8554345E-2,-1.6903069E-2,3.5759378E-3,-7.226939E-2,1.776979E-2,-8.652279E-2,-2.2400318E-2],"categories":[],"categories_nodes":[],"categories_segments":[],"categories_sizes":[],"default_left":[0,0,0,0,0,0,0,0,0,0,0,0,0,0,0],"id":63,"left_children":[1,3,5,7,9,11,13,-1,-1,-1,-1,-1,-1,-1,-1],"loss_changes":[6.6646113E0,6.8141184E0,9.059409E0,7.921243E0,7.551315E0,8.795244E0,7.2702913E0,0E0,0E0,0E0,0E0,0E0,0E0,0E0,0E0],"parents":[2147483647,0,0,1,1,2,2,3,3,4,4,5,5,6,6],"right_children":[2,4,6,8,10,12,14,-1,-1,-1,-1,-1,-1,-1,-1],"split_conditions":[8.12E-1,2.69E-1,3.97E1,3.7E1,-7.3E0,1.93E1,8.52E1,1.1206176E-1,-8.8554345E-2,-1.6903069E-2,3.5759378E-3,-7.226939E-2,1.776979E-2,-8.652279E-2,-2.2400318E-2],"split_indices":[65,10,5,67,25,17,58,0,0,0,0,0,0,0,0],"split_type":[0,0,0,0,0,0,0,0,0,0,0,0,0,0,0],"sum_hessian":[2.414754E3,2.1858894E3,2.2886453E2,1.1006598E1,2.1748828E3,9.954906E1,1.2931548E2,9.36505E0,1.641548E0,1.970869E2,1.9777959E3,1.13587475E1,8.819031E1,2.0450974E1,1.0886451E2],"tree_param":{"num_deleted":"0","num_feature":"106","num_nodes":"15","size_leaf_vector":"1"}},{"base_weights":[-1.3841407E-2,3.6073682E-1,-2.1562753E-2,-7.8304005E-1,6.7011386E-1,-4.5543052E-2,1.03297256E-1,6.575154E-2,-1.1881097E-1,1.7176075E-2,1.0525508E-1,-6.1122943E-3,1.815242E-2,2.9358063E-2,-1.0337127E-4],"categories":[],"categories_nodes":[],"categories_segments":[],"categories_sizes":[],"default_left":[0,0,0,0,0,0,0,0,0,0,0,0,0,0,0],"id":64,"left_children":[1,3,5,7,9,11,13,-1,-1,-1,-1,-1,-1,-1,-1],"loss_changes":[6.9878407E0,1.7792826E1,7.0876455E0,7.112782E0,7.2424316E0,7.033879E0,7.5726814E0,0E0,0E0,0E0,0E0,0E0,0E0,0E0,0E0],"parents":[2147483647,0,0,1,1,2,2,3,3,4,4,5,5,6,6],"right_children":[2,4,6,8,10,12,14,-1,-1,-1,-1,-1,-1,-1,-1],"split_conditions":[1.73E1,2.01E1,3.4E1,1.78E1,1.2E1,2.9E1,2.4E1,6.575154E-2,-1.1881097E-1,1.7176075E-2,1.0525508E-1,-6.1122943E-3,1.815242E-2,2.9358063E-2,-1.0337127E-4],"split_indices":[74,12,54,22,28,41,53,0,0,0,0,0,0,0,0],"split_type":[0,0,0,0,0,0,0,0,0,0,0,0,0,0,0],"sum_hessian":[2.412369E3,4.779948E1,2.3645693E3,9.850574E0,3.794891E1,1.9841364E3,3.8043295E2,2.0251796E0,7.825394E0,1.7106531E1,2.0842377E1,1.8574229E3,1.2671358E2,1.3407932E2,2.4635364E2],"tree_param":{"num_deleted":"0","num_feature":"106","num_nodes":"15","size_leaf_vector":"1"}},{"base_weights":[1.5544274E-3,-1.384627E-2,2.1750928E-1,9.733681E-2,-4.1503582E-2,-3.1943128E-1,3.517613E-1,4.3737837E-3,4.980402E-2,-6.7427987E-3,1.4171774E-2,-9.584689E-3,-1.5694134E-1,3.9763946E-2,-7.772695E-2],"categories":[],"categories_nodes":[],"categories_segments":[],"categories_sizes":[],"default_left":[0,0,0,0,0,0,0,0,0,0,0,0,0,0,0],"id":65,"left_children":[1,3,5,7,9,11,13,-1,-1,-1,-1,-1,-1,-1,-1],"loss_changes":[8.0991335E0,6.9941673E0,1.179771E1,9.710094E0,8.659458E0,9.057825E0,7.0508747E0,0E0,0E0,0E0,0E0,0E0,0E0,0E0,0E0],"parents":[2147483647,0,0,1,1,2,2,3,3,4,4,5,5,6,6],"right_children":[2,4,6,8,10,12,14,-1,-1,-1,-1,-1,-1,-1,-1],"split_conditions":[8.16E-1,7E0,1.57E1,2.7E1,2.5E1,2.8E1,8.33E-1,4.3737837E-3,4.980402E-2,-6.7427987E-3,1.4171774E-2,-9.584689E-3,-1.5694134E-1,3.9763946E-2,-7.772695E-2],"split_indices":[13,43,63,48,26,85,3,0,0,0,0,0,0,0,0],"split_type":[0,0,0,0,0,0,0,0,0,0,0,0,0,0,0],"sum_hessian":[2.4332979E3,2.2721936E3,1.611043E2,4.5212415E2,1.8200695E3,3.1948208E1,1.2915608E2,3.9976047E2,5.2363686E1,1.5950186E3,2.2505084E2,2.8014017E1,3.9341903E0,1.2473528E2,4.420809E0],"tree_param":{"num_deleted":"0","num_feature":"106","num_nodes":"15","size_leaf_vector":"1"}},{"base_weights":[-1.3043593E-2,-5.7892475E-2,4.6364915E-2,-2.3984711E-1,-2.402311E-2,3.190749E-2,6.3759476E-1,-1.0129949E-2,-6.5879606E-2,3.5546732E-3,-1.5868729E-2,-5.8138996E-2,4.81663E-3,-1.04076885E-1,8.036666E-2],"categories":[],"categories_nodes":[],"categories_segments":[],"categories_sizes":[],"default_left":[0,0,0,0,0,0,0,0,0,0,0,0,0,0,0],"id":66,"left_children":[1,3,5,7,9,11,13,-1,-1,-1,-1,-1,-1,-1,-1],"loss_changes":[6.4540806E0,8.4998455E0,8.887588E0,1.2498755E1,9.348757E0,1.0182222E1,7.7552786E0,0E0,0E0,0E0,0E0,0E0,0E0,0E0,0E0],"parents":[2147483647,0,0,1,1,2,2,3,3,4,4,5,5,6,6],"right_children":[2,4,6,8,10,12,14,-1,-1,-1,-1,-1,-1,-1,-1],"split_conditions":[4.43E1,9E0,4.8E1,5.19E-1,2E1,-9.8E0,7E0,-1.0129949E-2,-6.5879606E-2,3.5546732E-3,-1.5868729E-2,-5.8138996E-2,4.81663E-3,-1.04076885E-1,8.036666E-2],"split_indices":[16,32,54,3,39,77,91,0,0,0,0,0,0,0,0],"split_type":[0,0,0,0,0,0,0,0,0,0,0,0,0,0,0],"sum_hessian":[2.420327E3,1.3791782E3,1.0411487E3,2.1548074E2,1.1636975E3,1.0173258E3,2.382284E1,1.628632E2,5.2617535E1,8.0731213E2,3.563853E2,2.5375605E1,9.919502E2,1.6707591E0,2.215208E1],"tree_param":{"num_deleted":"0","num_feature":"106","num_nodes":"15","size_leaf_vector":"1"}},{"base_weights":[9.092799E-3,-4.674798E-3,2.194545E-1,1.1398009E-2,-1.7463285E-1,1.6995847E-1,9.967829E-1,-3.2752894E-3,8.644394E-3,-5.917644E-2,-5.240275E-3,9.17065E-3,6.7844205E-2,1.2580104E-1,-2.8149506E-2],"categories":[],"categories_nodes":[],"categories_segments":[],"categories_sizes":[],"default_left":[0,0,0,0,0,0,0,0,0,0,0,0,0,0,0],"id":67,"left_children":[1,3,5,7,9,11,13,-1,-1,-1,-1,-1,-1,-1,-1],"loss_changes":[7.0168343E0,6.2155633E0,5.5565467E0,6.8913765E0,9.992071E0,5.552951E0,3.2603989E0,0E0,0E0,0E0,0E0,0E0,0E0,0E0,0E0],"parents":[2147483647,0,0,1,1,2,2,3,3,4,4,5,5,6,6],"right_children":[2,4,6,8,10,12,14,-1,-1,-1,-1,-1,-1,-1,-1],"split_conditions":[2.9E1,3.78E1,1.31E1,2E1,1.92E1,2.6E1,1.58E1,-3.2752894E-3,8.644394E-3,-5.917644E-2,-5.240275E-3,9.17065E-3,6.7844205E-2,1.2580104E-1,-2.8149506E-2],"split_indices":[96,9,14,87,75,93,18,0,0,0,0,0,0,0,0],"split_type":[0,0,0,0,0,0,0,0,0,0,0,0,0,0,0],"sum_hessian":[2.4214392E3,2.273615E3,1.4782411E2,2.0780303E3,1.9558484E2,1.4012064E2,7.7034726E0,1.3086758E3,7.693545E2,4.345289E1,1.5213196E2,1.2245591E2,1.7664732E1,6.4094915E0,1.293981E0],"tree_param":{"num_deleted":"0","num_feature":"106","num_nodes":"15","size_leaf_vector":"1"}},{"base_weights":[1.2488387E-3,-2.4731134E-1,1.2717432E-2,1.0331909E-1,-5.4565936E-1,-5.3312266E-3,2.1229139E-1,3.6681537E-2,-1.0382904E-1,-8.755271E-2,-1.0442473E-2,-6.874627E-5,-7.2324626E-2,2.4720632E-2,-1.0940268E-1],"categories":[],"categories_nodes":[],"categories_segments":[],"categories_sizes":[],"default_left":[0,0,0,0,0,0,0,0,0,0,0,0,0,0,0],"id":68,"left_children":[1,3,5,7,9,11,13,-1,-1,-1,-1,-1,-1,-1,-1],"loss_changes":[6.855216E0,1.1151751E1,8.280912E0,1.5301212E1,8.272356E0,7.0304513E0,8.966596E0,0E0,0E0,0E0,0E0,0E0,0E0,0E0,0E0],"parents":[2147483647,0,0,1,1,2,2,3,3,4,4,5,5,6,6],"right_children":[2,4,6,8,10,12,14,-1,-1,-1,-1,-1,-1,-1,-1],"split_conditions":[1.42E1,1.7E1,4.88E1,4.24E1,1.08E1,8E0,7.6E1,3.6681537E-2,-1.0382904E-1,-8.755271E-2,-1.0442473E-2,-6.874627E-5,-7.2324626E-2,2.4720632E-2,-1.0940268E-1],"split_indices":[11,0,56,5,66,72,0,0,0,0,0,0,0,0,0],"split_type":[0,0,0,0,0,0,0,0,0,0,0,0,0,0,0],"sum_hessian":[2.4026992E3,1.0506429E2,2.297635E3,4.8600613E1,5.6463676E1,2.1079717E3,1.8966313E2,4.0038067E1,8.562548E0,3.1746027E1,2.471765E1,2.0954187E3,1.2553057E1,1.8551549E2,4.1476474E0],"tree_param":{"num_deleted":"0","num_feature":"106","num_nodes":"15","size_leaf_vector":"1"}},{"base_weights":[1.0054199E-3,1.1868411E-2,-2.6817158E-1,-4.424155E-2,7.676708E-2,-3.2517585E-1,1.1983203E0,-2.0587568E-3,-3.917853E-2,7.6493934E-2,6.4625256E-3,-4.2925324E-2,3.6115747E-2,1.4068934E-1,3.3556763E-2],"categories":[],"categories_nodes":[],"categories_segments":[],"categories_sizes":[],"default_left":[0,0,0,0,0,0,0,0,0,0,0,0,0,0,0],"id":69,"left_children":[1,3,5,7,9,11,13,-1,-1,-1,-1,-1,-1,-1,-1],"loss_changes":[7.063397E0,8.458195E0,8.22294E0,1.0233868E1,8.949265E0,6.6541815E0,1.9720888E-1,0E0,0E0,0E0,0E0,0E0,0E0,0E0,0E0],"parents":[2147483647,0,0,1,1,2,2,3,3,4,4,5,5,6,6],"right_children":[2,4,6,8,10,12,14,-1,-1,-1,-1,-1,-1,-1,-1],"split_conditions":[4.91E-1,3.58E-1,3E1,2.9E1,2.92E1,1.41E1,1.5E1,-2.0587568E-3,-3.917853E-2,7.6493934E-2,6.4625256E-3,-4.2925324E-2,3.6115747E-2,1.4068934E-1,3.3556763E-2],"split_indices":[59,62,45,47,67,60,42,0,0,0,0,0,0,0,0],"split_type":[0,0,0,0,0,0,0,0,0,0,0,0,0,0,0],"sum_hessian":[2.4135183E3,2.3208147E3,9.2703606E1,1.244857E3,1.0759578E3,8.9984085E1,2.7195246E0,1.1665222E3,7.833479E1,1.7579672E1,1.058378E3,7.846067E1,1.1523411E1,1.6821554E0,1.0373694E0],"tree_param":{"num_deleted":"0","num_feature":"106","num_nodes":"15","size_leaf_vector":"1"}},{"base_weights":[8.7096856E-4,2.2454715E-1,-1.4622661E-2,-3.2071874E-2,5.060862E-1,8.879137E-3,-1.6753393E-1,1.1650043E-2,-9.451582E-2,5.7832118E-2,-5.5984315E-2,-3.1017048E-2,2.3134141E-3,2.5479437E-3,-3.366854E-2],"categories":[],"categories_nodes":[],"categories_segments":[],"categories_sizes":[],"default_left":[0,0,0,0,0,0,0,0,0,0,0,0,0,0,0],"id":70,"left_children":[1,3,5,7,9,11,13,-1,-1,-1,-1,-1,-1,-1,-1],"loss_changes":[8.329451E0,1.1265314E1,8.079557E0,1.1287835E1,6.0450478E0,8.872874E0,9.7871065E0,0E0,0E0,0E0,0E0,0E0,0E0,0E0,0E0],"parents":[2147483647,0,0,1,1,2,2,3,3,4,4,5,5,6,6],"right_children":[2,4,6,8,10,12,14,-1,-1,-1,-1,-1,-1,-1,-1],"split_conditions":[3E0,1.1E1,1.98E1,4.62E1,4.89E1,8.1E0,1.5E1,1.1650043E-2,-9.451582E-2,5.7832118E-2,-5.5984315E-2,-3.1017048E-2,2.3134141E-3,2.5479437E-3,-3.366854E-2],"split_indices":[41,32,63,68,56,14,40,0,0,0,0,0,0,0,0],"split_type":[0,0,0,0,0,0,0,0,0,0,0,0,0,0,0],"sum_hessian":[2.4015488E3,1.5470038E2,2.2468486E3,8.139553E1,7.330484E1,1.9483392E3,2.9850934E2,7.075507E1,1.0640459E1,6.908087E1,4.223963E0,8.244011E1,1.8658992E3,1.3981744E2,1.586919E2],"tree_param":{"num_deleted":"0","num_feature":"106","num_nodes":"15","size_leaf_vector":"1"}},{"base_weights":[4.6362295E-3,-4.2891044E-2,6.896791E-2,-4.583047E-1,-2.1774122E-2,1.3020769E-1,-5.745797E-2,-1.0784717E-1,-1.6710818E-2,1.14597045E-4,-3.668478E-2,3.1549495E-2,4.3278965E-3,7.801328E-3,-4.7040056E-2],"categories":[],"categories_nodes":[],"categories_segments":[],"categories_sizes":[],"default_left":[0,0,0,0,0,0,0,0,0,0,0,0,0,0,0],"id":71,"left_children":[1,3,5,7,9,11,13,-1,-1,-1,-1,-1,-1,-1,-1],"loss_changes":[7.3600903E0,1.2135082E1,7.9260254E0,1.19055805E1,1.0429085E1,1.10890465E1,1.8746244E1,0E0,0E0,0E0,0E0,0E0,0E0,0E0,0E0],"parents":[2147483647,0,0,1,1,2,2,3,3,4,4,5,5,6,6],"right_children":[2,4,6,8,10,12,14,-1,-1,-1,-1,-1,-1,-1,-1],"split_conditions":[1.8E1,8E1,2.1E1,1.65E1,2.9E1,9E0,3.28E1,-1.0784717E-1,-1.6710818E-2,1.14597045E-4,-3.668478E-2,3.1549495E-2,4.3278965E-3,7.801328E-3,-4.7040056E-2],"split_indices":[98,58,41,11,36,100,15,0,0,0,0,0,0,0,0],"split_type":[0,0,0,0,0,0,0,0,0,0,0,0,0,0,0],"sum_hessian":[2.4052502E3,1.3834855E3,1.0217649E3,6.592382E1,1.3175616E3,6.883185E2,3.3344638E2,2.0199966E1,4.5723854E1,1.2364333E3,8.112829E1,2.1896614E2,4.6935236E2,2.5168793E2,8.175845E1],"tree_param":{"num_deleted":"0","num_feature":"106","num_nodes":"15","size_leaf_vector":"1"}},{"base_weights":[9.181576E-3,-6.8317465E-3,2.4038808E-1,-2.5825411E-2,1.3811469E-1,6.254271E-1,1.1492107E-1,1.9996159E-2,-4.0833615E-3,-3.7438348E-2,2.251551E-2,1.4903448E-2,8.920179E-2,3.3695873E-2,-1.4235186E-2],"categories":[],"categories_nodes":[],"categories_segments":[],"categories_sizes":[],"default_left":[0,0,0,0,0,0,0,0,0,0,0,0,0,0,0],"id":72,"left_children":[1,3,5,7,9,11,13,-1,-1,-1,-1,-1,-1,-1,-1],"loss_changes":[8.891543E0,6.1885214E0,7.443057E0,6.7418747E0,1.17019825E1,4.693919E0,6.820119E0,0E0,0E0,0E0,0E0,0E0,0E0,0E0,0E0],"parents":[2147483647,0,0,1,1,2,2,3,3,4,4,5,5,6,6],"right_children":[2,4,6,8,10,12,14,-1,-1,-1,-1,-1,-1,-1,-1],"split_conditions":[2.8E1,2.5E1,8.36E1,4.03E1,6.7E0,1.9E1,3.42E-1,1.9996159E-2,-4.0833615E-3,-3.7438348E-2,2.251551E-2,1.4903448E-2,8.920179E-2,3.3695873E-2,-1.4235186E-2],"split_indices":[81,82,58,16,19,99,62,0,0,0,0,0,0,0,0],"split_type":[0,0,0,0,0,0,0,0,0,0,0,0,0,0,0],"sum_hessian":[2.4001287E3,2.2455713E3,1.5455742E2,1.986132E3,2.594393E2,3.7006214E1,1.1755121E2,1.23022865E2,1.863109E3,3.718586E1,2.2225345E2,1.3837644E1,2.3168571E1,6.293009E1,5.4621113E1],"tree_param":{"num_deleted":"0","num_feature":"106","num_nodes":"15","size_leaf_vector":"1"}},{"base_weights":[-1.0562385E-2,6.490863E-1,-1.4096138E-2,8.996103E-1,-5.7968684E-2,1.867603E-1,-2.5035895E-2,1.11152604E-1,-5.2704122E-2,-7.772317E-5,6.290238E-2,-4.7893442E-2,-1.728593E-3],"categories":[],"categories_nodes":[],"categories_segments":[],"categories_sizes":[],"default_left":[0,0,0,0,0,0,0,0,0,0,0,0,0],"id":73,"left_children":[1,3,5,7,-1,9,11,-1,-1,-1,-1,-1,-1],"loss_changes":[5.5918508E0,4.456471E0,5.241247E0,3.9143953E0,0E0,1.021998E1,7.945054E0,0E0,0E0,0E0,0E0,0E0,0E0],"parents":[2147483647,0,0,1,1,2,2,3,3,5,5,6,6],"right_children":[2,4,6,8,-1,10,12,-1,-1,-1,-1,-1,-1],"split_conditions":[1.67E1,1.5E1,3.7E0,4.94E1,-5.7968684E-2,2.2E1,6.74E-1,1.11152604E-1,-5.2704122E-2,-7.772317E-5,6.290238E-2,-4.7893442E-2,-1.728593E-3],"split_indices":[22,82,72,56,0,50,13,0,0,0,0,0,0],"split_type":[0,0,0,0,0,0,0,0,0,0,0,0,0],"sum_hessian":[2.3939448E3,1.1782665E1,2.382162E3,1.0009745E1,1.7729214E0,1.2221398E2,2.259948E3,8.907502E0,1.1022418E0,8.652299E1,3.569099E1,3.6918423E1,2.2230298E3],"tree_param":{"num_deleted":"0","num_feature":"106","num_nodes":"13","size_leaf_vector":"1"}},{"base_weights":[8.444764E-3,-1.3911301E-1,3.1621736E-2,-1.7386182E-1,9.598149E-1,8.508488E-2,-2.5548844E-2,2.9619465E-2,-2.273733E-2,-7.608061E-3,1.6233763E-1,2.1551793E-2,1.4215001E-3,-1.6696627E-4,-4.1700225E-2],"categories":[],"categories_nodes":[],"categories_segments":[],"categories_sizes":[],"default_left":[0,0,0,0,0,0,0,0,0,0,0,0,0,0,0],"id":74,"left_children":[1,3,5,7,9,11,13,-1,-1,-1,-1,-1,-1,-1,-1],"loss_changes":[8.230052E0,1.2641914E1,6.3582497E0,8.054079E0,7.111967E0,9.932435E0,9.400014E0,0E0,0E0,0E0,0E0,0E0,0E0,0E0,0E0],"parents":[2147483647,0,0,1,1,2,2,3,3,4,4,5,5,6,6],"right_children":[2,4,6,8,10,12,14,-1,-1,-1,-1,-1,-1,-1,-1],"split_conditions":[5E0,8.34E-1,2.93E1,4E0,7.1E0,1.99E1,2.7E1,2.9619465E-2,-2.273733E-2,-7.608061E-3,1.6233763E-1,2.1551793E-2,1.4215001E-3,-1.6696627E-4,-4.1700225E-2],"split_indices":[49,65,61,100,19,22,86,0,0,0,0,0,0,0,0],"split_type":[0,0,0,0,0,0,0,0,0,0,0,0,0,0,0],"sum_hessian":[2.4042021E3,3.2568762E2,2.0785146E3,3.1652084E2,9.166805E0,1.0738314E3,1.0046831E3,3.1886614E1,2.8463422E2,3.9249115E0,5.241894E0,3.773301E2,6.9650134E2,9.478663E2,5.681685E1],"tree_param":{"num_deleted":"0","num_feature":"106","num_nodes":"15","size_leaf_vector":"1"}},{"base_weights":[-3.7752497E-3,-4.1605707E-2,8.786645E-2,4.6808515E-3,-1.7481065E-1,-5.197885E-1,1.13784194E-1,-8.063704E-4,5.212732E-2,-2.9921481E-2,2.971396E-4,-7.699707E-2,3.4724776E-2,3.8159255E-2,7.0038675E-3],"categories":[],"categories_nodes":[],"categories_segments":[],"categories_sizes":[],"default_left":[0,0,0,0,0,0,0,0,0,0,0,0,0,0,0],"id":75,"left_children":[1,3,5,7,9,11,13,-1,-1,-1,-1,-1,-1,-1,-1],"loss_changes":[8.36961E0,1.0536079E1,1.1168737E1,8.359322E0,9.74696E0,6.5658064E0,7.909032E0,0E0,0E0,0E0,0E0,0E0,0E0,0E0,0E0],"parents":[2147483647,0,0,1,1,2,2,3,3,4,4,5,5,6,6],"right_children":[2,4,6,8,10,12,14,-1,-1,-1,-1,-1,-1,-1,-1],"split_conditions":[1.12E1,5.3E0,2E0,2.3E1,1.8E1,1.96E1,6E0,-8.063704E-4,5.212732E-2,-2.9921481E-2,2.971396E-4,-7.699707E-2,3.4724776E-2,3.8159255E-2,7.0038675E-3],"split_indices":[14,21,94,47,94,63,41,0,0,0,0,0,0,0,0],"split_type":[0,0,0,0,0,0,0,0,0,0,0,0,0,0,0],"sum_hessian":[2.4121304E3,1.7077167E3,7.044137E2,1.2680535E3,4.3966318E2,2.8036158E1,6.763775E2,1.238484E3,2.9569542E1,2.5826056E2,1.8140262E2,2.1844816E1,6.1913424E0,9.388629E1,5.824912E2],"tree_param":{"num_deleted":"0","num_feature":"106","num_nodes":"15","size_leaf_vector":"1"}},{"base_weights":[-3.4093214E-3,-7.675814E-3,8.407342E-1,1.2438267E-1,-3.1540368E-2,1.1863573E0,-5.297002E-2,3.4905087E-2,-2.2981036E-4,-1.6215065E-3,-2.3688829E-2,1.530087E-1,1.653584E-2],"categories":[],"categories_nodes":[],"categories_segments":[],"categories_sizes":[],"default_left":[0,0,0,0,0,0,0,0,0,0,0,0,0],"id":76,"left_children":[1,3,5,7,9,11,-1,-1,-1,-1,-1,-1,-1],"loss_changes":[8.710618E0,7.585314E0,6.3892984E0,1.0485676E1,6.410538E0,3.264079E0,0E0,0E0,0E0,0E0,0E0,0E0,0E0],"parents":[2147483647,0,0,1,1,2,2,3,3,4,4,5,5],"right_children":[2,4,6,8,10,12,-1,-1,-1,-1,-1,-1,-1],"split_conditions":[1.22E2,7.3E0,4.09E-1,1.4E1,4.2E1,9.26E1,-5.297002E-2,3.4905087E-2,-2.2981036E-4,-1.6215065E-3,-2.3688829E-2,1.530087E-1,1.653584E-2],"split_indices":[76,60,10,84,2,6,0,0,0,0,0,0,0],"split_type":[0,0,0,0,0,0,0,0,0,0,0,0,0],"sum_hessian":[2.4157952E3,2.4046323E3,1.116265E1,3.6739252E2,2.0372399E3,9.021701E0,2.1409497E0,1.3183244E2,2.3556007E2,1.8967618E3,1.4047809E2,6.376402E0,2.6452985E0],"tree_param":{"num_deleted":"0","num_feature":"106","num_nodes":"13","size_leaf_vector":"1"}},{"base_weights":[-7.3885527E-3,8.882557E-2,-3.6414042E-2,-2.3899029E-1,1.2886338E-1,-2.1761413E-1,-1.7295009E-2,-6.003753E-2,2.5105307E-2,1.0743728E-2,8.7251596E-2,-4.5380327E-3,-6.1249852E-2,-2.5175868E-3,6.599643E-2],"categories":[],"categories_nodes":[],"categories_segments":[],"categories_sizes":[],"default_left":[0,0,0,0,0,0,0,0,0,0,0,0,0,0,0],"id":77,"left_children":[1,3,5,7,9,11,13,-1,-1,-1,-1,-1,-1,-1,-1],"loss_changes":[6.6848187E0,7.312401E0,6.366393E0,1.0906427E1,7.7942276E0,1.1902297E1,8.899903E0,0E0,0E0,0E0,0E0,0E0,0E0,0E0,0E0],"parents":[2147483647,0,0,1,1,2,2,3,3,4,4,5,5,6,6],"right_children":[2,4,6,8,10,12,14,-1,-1,-1,-1,-1,-1,-1,-1],"split_conditions":[2E0,3.28E-1,8.6E0,4.46E1,4.03E1,3.49E1,4.94E1,-6.003753E-2,2.5105307E-2,1.0743728E-2,8.7251596E-2,-4.5380327E-3,-6.1249852E-2,-2.5175868E-3,6.599643E-2],"split_indices":[105,62,66,68,9,15,4,0,0,0,0,0,0,0,0],"split_type":[0,0,0,0,0,0,0,0,0,0,0,0,0,0,0],"sum_hessian":[2.3915503E3,5.537874E2,1.837763E3,5.9734314E1,4.940531E2,1.7441048E2,1.6633525E3,3.4250767E1,2.548355E1,4.8132953E2,1.2723587E1,1.2221834E2,5.219215E1,1.6451714E3,1.818104E1],"tree_param":{"num_deleted":"0","num_feature":"106","num_nodes":"15","size_leaf_vector":"1"}},{"base_weights":[-1.0698973E-2,-3.6300696E-2,1.5237992E-1,-2.8256455E-2,-5.672382E-1,2.7219415E-1,-1.041523E-1,-5.1621556E-2,-1.9640203E-3,5.0898638E-2,-7.642626E-2,-4.199702E-3,4.0237945E-2,4.3462012E-2,-2.294661E-2],"categories":[],"categories_nodes":[],"categories_segments":[],"categories_sizes":[],"default_left":[0,0,0,0,0,0,0,0,0,0,0,0,0,0,0],"id":78,"left_children":[1,3,5,7,9,11,13,-1,-1,-1,-1,-1,-1,-1,-1],"loss_changes":[1.0008523E1,8.831691E0,1.0026325E1,8.574019E0,6.9338465E0,9.097475E0,7.1403227E0,0E0,0E0,0E0,0E0,0E0,0E0,0E0,0E0],"parents":[2147483647,0,0,1,1,2,2,3,3,4,4,5,5,6,6],"right_children":[2,4,6,8,10,12,14,-1,-1,-1,-1,-1,-1,-1,-1],"split_conditions":[1.145E2,4.14E1,3.61E1,6.74E-1,5E0,9.6E0,3.61E-1,-5.1621556E-2,-1.9640203E-3,5.0898638E-2,-7.642626E-2,-4.199702E-3,4.0237945E-2,4.3462012E-2,-2.294661E-2],"split_indices":[76,61,67,13,28,14,3,0,0,0,0,0,0,0,0],"split_type":[0,0,0,0,0,0,0,0,0,0,0,0,0,0,0],"sum_hessian":[2.3948682E3,2.0705847E3,3.242833E2,2.040719E3,2.9865746E1,2.2100237E2,1.0328095E2,3.4387024E1,2.006332E3,4.3764553E0,2.548929E1,6.494367E1,1.5605869E2,1.9023466E1,8.4257484E1],"tree_param":{"num_deleted":"0","num_feature":"106","num_nodes":"15","size_leaf_vector":"1"}},{"base_weights":[-4.996952E-3,5.7357484E-1,-9.135729E-3,1.0679809E0,-2.9654208E-1,-2.905744E-1,5.832695E-4,8.360225E-3,1.2586957E-1,4.7941633E-2,-1.4248472E-1,4.6594974E-2,-4.238242E-2,-1.8813547E-3,1.3800353E-2],"categories":[],"categories_nodes":[],"categories_segments":[],"categories_sizes":[],"default_left":[0,0,0,0,0,0,0,0,0,0,0,0,0,0,0],"id":79,"left_children":[1,3,5,7,9,11,13,-1,-1,-1,-1,-1,-1,-1,-1],"loss_changes":[5.704761E0,7.5960445E0,6.4671216E0,1.9612646E0,6.736172E0,8.153357E0,6.0968523E0,0E0,0E0,0E0,0E0,0E0,0E0,0E0,0E0],"parents":[2147483647,0,0,1,1,2,2,3,3,4,4,5,5,6,6],"right_children":[2,4,6,8,10,12,14,-1,-1,-1,-1,-1,-1,-1,-1],"split_conditions":[9.04E1,1.7E1,3.52E1,4E0,2.34E1,6E0,2.7E1,8.360225E-3,1.2586957E-1,4.7941633E-2,-1.4248472E-1,4.6594974E-2,-4.238242E-2,-1.8813547E-3,1.3800353E-2],"split_indices":[76,98,57,30,12,41,96,0,0,0,0,0,0,0,0],"split_type":[0,0,0,0,0,0,0,0,0,0,0,0,0,0,0],"sum_hessian":[2.3791765E3,1.5921187E1,2.3632554E3,1.0007476E1,5.9137115E0,7.7922104E1,2.2853333E3,1.8576322E0,8.149844E0,3.84472E0,2.0689914E0,1.1295458E1,6.662665E1,2.003415E3,2.8191818E2],"tree_param":{"num_deleted":"0","num_feature":"106","num_nodes":"15","size_leaf_vector":"1"}},{"base_weights":[1.3436514E-2,5.0944784E-3,2.845418E-1,1.628549E-2,-2.5475317E-1,3.9839423E-1,-6.73304E-1,2.8794736E-2,6.786272E-4,-4.0150635E-2,2.581392E-2,2.9493058E-3,7.273203E-2,3.4187518E-2,-1.339986E-1],"categories":[],"categories_nodes":[],"categories_segments":[],"categories_sizes":[],"default_left":[0,0,0,0,0,0,0,0,0,0,0,0,0,0,0],"id":80,"left_children":[1,3,5,7,9,11,13,-1,-1,-1,-1,-1,-1,-1,-1],"loss_changes":[5.4555016E0,6.8142734E0,8.121325E0,5.794372E0,7.3862805E0,7.8644724E0,5.8873644E0,0E0,0E0,0E0,0E0,0E0,0E0,0E0,0E0],"parents":[2147483647,0,0,1,1,2,2,3,3,4,4,5,5,6,6],"right_children":[2,4,6,8,10,12,14,-1,-1,-1,-1,-1,-1,-1,-1],"split_conditions":[2.89E1,2.08E1,2.8E1,2E0,1.8E1,1.4E1,1.1E1,2.8794736E-2,6.786272E-4,-4.0150635E-2,2.581392E-2,2.9493058E-3,7.273203E-2,3.4187518E-2,-1.339986E-1],"split_indices":[64,63,37,35,81,97,32,0,0,0,0,0,0,0,0],"split_type":[0,0,0,0,0,0,0,0,0,0,0,0,0,0,0],"sum_hessian":[2.411904E3,2.3408923E3,7.101156E1,2.245137E3,9.575532E1,6.398963E1,7.0219297E0,7.486313E1,2.170274E3,7.462122E1,2.1134092E1,